{"name":"AI Pong right-side PPO policy (early checkpoint)","format":"ai-pong-mlp-json-v1","sourceCheckpoint":"selfplay_update_0025.pt","checkpointUpdate":25,"observationSize":9,"actionSize":3,"hiddenSize":128,"actions":["stay","up","down"],"side":"right","deterministicAction":"argmax(logits)","envConfig":{"width":900,"height":600,"paddle_width":16,"paddle_height":96,"paddle_margin":36,"paddle_speed":540.0,"ball_radius":9,"serve_speed":360.0,"max_ball_speed":920.0,"ball_speedup":1.045,"max_bounce_angle":1.1344640137963142,"dt":0.016666666666666666,"score_to_win":7,"max_steps":100000,"hit_reward":0.05},"trainingConfig":{"updates":1000,"steps_per_update":128,"ppo_epochs":8,"batch_size":256,"learning_rate":0.0003,"gamma":0.99,"gae_lambda":0.95,"clip_eps":0.2,"entropy_coef":0.01,"value_coef":0.5,"hidden_size":128,"num_envs":64,"num_workers":24,"save_every":25,"checkpoint_dir":"checkpoints","seed":7,"device":"cuda","amp":true,"torch_compile":false},"layers":{"backbone0":{"weight":[[0.024990955367684364,-0.2027370184659958,0.12522628903388977,0.09972821176052094,-0.1659001111984253,-0.08044319599866867,-0.21243391931056976,0.07301100343465805,-0.09276814758777618],[0.23203441500663757,0.23796582221984863,0.05359268561005592,-0.14211001992225647,-0.1980537623167038,-0.0220769215375185,-0.08743028342723846,0.14245708286762238,-0.2874140739440918],[0.31335315108299255,-0.2581639587879181,0.25628119707107544,-0.05134814977645874,0.16393296420574188,0.16227833926677704,0.030011016875505447,0.07599341124296188,0.2495529055595398],[0.08393766731023788,0.18018300831317902,-0.2723623812198639,0.2452312409877777,0.10539383441209793,0.11762893944978714,0.07169082760810852,0.18201571702957153,0.30443984270095825],[-0.06644761562347412,-0.18330730497837067,-0.06857585161924362,-0.2062031775712967,0.16223129630088806,-0.1965949684381485,-0.20257782936096191,0.2665732800960541,0.30144038796424866],[0.03935914859175682,-0.061069946736097336,-0.05769239366054535,0.15664814412593842,-0.2982114255428314,-0.2992054522037506,0.2581963539123535,0.3363513648509979,-0.008460475131869316],[-0.2668352723121643,0.009764141403138638,-0.1801251322031021,0.005021729506552219,0.15766876935958862,0.17987115681171417,-0.017040066421031952,0.05653872340917587,0.09636438637971878],[-0.2628220319747925,-0.11002280563116074,-0.000933172763325274,-0.18302026391029358,-0.15341304242610931,0.14272134006023407,0.21399328112602234,0.022948555648326874,-0.1301780790090561],[0.17889438569545746,-0.18190419673919678,-0.08030210435390472,0.3198978304862976,0.06734036654233932,0.053264688700437546,0.135661780834198,-0.06331203877925873,0.2812293767929077],[-0.26798948645591736,-0.0909314677119255,-0.08252882212400436,-0.13549643754959106,-0.09887776523828506,0.21518079936504364,0.17656196653842926,0.020654721185564995,0.28705716133117676],[-0.23833207786083221,-0.19526799023151398,0.1333244889974594,-0.011277620680630207,-0.32134705781936646,-0.2165525108575821,-0.18358470499515533,0.27102363109588623,0.15664349496364594],[0.2627802789211273,-0.24023154377937317,-0.33242806792259216,-0.21466131508350372,0.027292046695947647,-0.10173040628433228,-0.2148302048444748,0.22920846939086914,-0.10211082547903061],[-0.19043812155723572,0.15708541870117188,-0.10596854984760284,0.22029872238636017,0.0690588429570198,0.03906288370490074,0.0862254947423935,-0.23121772706508636,-0.17325469851493835],[-0.15763184428215027,-0.19329571723937988,0.07163068652153015,0.0650787353515625,-0.13602091372013092,0.2314017415046692,-0.18674346804618835,0.07702838629484177,-0.1037776917219162],[-0.2897927463054657,-0.2194729745388031,0.11879134178161621,0.128601536154747,-0.19497106969356537,-0.13062064349651337,-0.31976383924484253,0.1758120357990265,0.3000865876674652],[0.11068440228700638,-0.20152977108955383,0.18385924398899078,0.28291425108909607,-0.07129763811826706,-0.030917296186089516,0.1268598437309265,0.05108915641903877,-0.11431664973497391],[-0.29465869069099426,-0.21852026879787445,0.024819830432534218,-0.003739775624126196,0.2678467929363251,0.011017147451639175,-0.08654768764972687,-0.3328174352645874,-0.3050087094306946],[0.13446806371212006,0.2993408441543579,-0.022032715380191803,-0.2929427921772003,0.11248728632926941,0.30207914113998413,-0.19987820088863373,-0.07586989551782608,0.029937315732240677],[-0.18366964161396027,-0.3080057203769684,0.15856266021728516,-0.27984824776649475,-0.09889323264360428,-0.2084100991487503,0.22210082411766052,0.038804396986961365,0.15266086161136627],[-0.22114573419094086,0.28057190775871277,0.044107671827077866,-0.1897030770778656,-0.012526623904705048,-0.26995667815208435,-0.038823749870061874,0.1670524626970291,-0.1496654897928238],[0.2622282803058624,0.08660346269607544,-0.08506689220666885,0.08562900871038437,-0.07206553965806961,-0.10376359522342682,-0.22285914421081543,0.17925240099430084,0.21213512122631073],[0.12575726211071014,0.19947530329227448,0.3540087044239044,0.31447023153305054,-0.3365817070007324,0.05481858178973198,-0.05106645077466965,0.10483535379171371,-0.06630317121744156],[0.0988038033246994,-0.3054511249065399,0.16027913987636566,0.31659144163131714,-0.05192409083247185,-0.29615190625190735,-0.30108171701431274,-0.08390511572360992,-0.00473027816042304],[0.03240581229329109,0.03185509890317917,0.2592424154281616,-0.07368557900190353,0.11064962297677994,-0.21133077144622803,0.30276966094970703,0.11307115107774734,-0.03954846411943436],[0.2112952023744583,0.11375675350427628,0.07499409466981888,-0.10793674737215042,0.06142628937959671,-0.0031327835749834776,-0.20311957597732544,-0.01576893776655197,0.07277685403823853],[-0.19892464578151703,0.05595756694674492,-0.11581946164369583,-0.2887074947357178,-0.22631631791591644,-0.30426153540611267,0.052336253225803375,0.17709538340568542,0.30364182591438293],[0.3218127191066742,0.1311492919921875,0.18091924488544464,-0.060825880616903305,0.2917397618293762,-0.1305960714817047,-0.08891341835260391,-0.12366361171007156,-0.22414425015449524],[-0.24793632328510284,-0.05689328536391258,0.29445356130599976,-0.15583336353302002,-0.2943766117095947,-0.05699592083692551,0.30899450182914734,0.07837798446416855,-0.03273758292198181],[-0.09728752076625824,0.2948260009288788,-0.3241744935512543,0.19518883526325226,0.07961845397949219,0.24322088062763214,-0.17005540430545807,-0.09190045297145844,-0.1434072107076645],[0.32862576842308044,-0.03821428492665291,-0.33204883337020874,0.1725446581840515,0.07386089861392975,0.027803903445601463,-0.22278492152690887,-0.31128403544425964,0.30658024549484253],[-0.252958208322525,-0.06965824216604233,-0.05693918094038963,0.1807660311460495,-0.26042747497558594,-0.22099383175373077,-0.1990623027086258,-0.18291804194450378,0.20843571424484253],[0.19540409743785858,0.1457134634256363,0.2843566834926605,-0.2299061268568039,0.019463161006569862,-0.28849858045578003,-0.0038605008739978075,-0.2953665554523468,-0.3115094304084778],[0.21189545094966888,-0.15033768117427826,-0.024083983153104782,-0.10272430628538132,-0.257223904132843,-0.05890737473964691,0.03329945355653763,0.25776010751724243,-0.13989752531051636],[0.3207416534423828,-0.15670041739940643,0.23769702017307281,0.28379106521606445,0.039946164935827255,-0.14569999277591705,0.22170928120613098,-0.1182698905467987,-0.1465144157409668],[-0.10656969994306564,-0.2597624659538269,-0.02967016212642193,-0.2640475630760193,0.19306060671806335,-0.3205859065055847,-0.25408121943473816,0.05021241307258606,0.20631526410579681],[0.3103712499141693,-0.2828289270401001,0.25346899032592773,0.21915216743946075,-0.20245419442653656,0.14287663996219635,-0.11050740629434586,0.08894286304712296,-0.28993651270866394],[-0.1914207488298416,-0.2133312076330185,-0.07874537259340286,-0.017181336879730225,-0.004841693677008152,-0.2313191443681717,0.14911918342113495,0.1585727035999298,-0.2823755741119385],[-0.3009629547595978,-0.07468125224113464,0.11876372992992401,-0.263331800699234,-0.040322259068489075,-0.004672769922763109,-0.28945961594581604,0.29027947783470154,0.23901601135730743],[0.25220242142677307,-0.13835306465625763,-0.26430177688598633,0.04397716000676155,0.18092156946659088,0.18642079830169678,-0.20218802988529205,0.2812380790710449,-0.14994578063488007],[-0.058966200798749924,-0.09886754304170609,0.16221323609352112,-0.3208855986595154,-0.2110603302717209,-0.06886762380599976,0.2065574824810028,-0.09851747006177902,0.21299786865711212],[0.2998296916484833,0.008385302498936653,-0.2467753291130066,-0.0008238563896156847,0.12352979183197021,-0.05405360087752342,-0.3212076723575592,0.2059178501367569,-0.14565043151378632],[-0.24047943949699402,0.16557584702968597,0.07459002733230591,0.24414850771427155,-0.062281686812639236,0.2351376712322235,-0.05855024605989456,-0.18568646907806396,0.3062150776386261],[0.31484660506248474,0.22729051113128662,-0.11769887059926987,-0.1505146473646164,0.05944762006402016,0.18386076390743256,0.05951514467597008,0.1603299379348755,-0.007572239264845848],[0.19176185131072998,0.16164185106754303,0.18161512911319733,-0.01718888245522976,-0.27243298292160034,-0.2017211765050888,-0.1531246304512024,0.3013176918029785,-0.009812958538532257],[-0.045057546347379684,-0.12651169300079346,-0.02921646647155285,0.23271115124225616,-0.014839068986475468,0.18810786306858063,0.2133890837430954,-0.3058570325374603,0.11883121728897095],[0.3297492563724518,-0.16641181707382202,0.06882684677839279,0.004239031579345465,0.1836066097021103,0.060763195157051086,-0.25190335512161255,-0.2699342370033264,0.2757803499698639],[-0.1356891542673111,-0.28311222791671753,-0.30401262640953064,-0.2858077585697174,0.0420088917016983,0.008091120980679989,-0.20656190812587738,-0.09385624527931213,0.05380365625023842],[0.10773693770170212,0.12014800310134888,-0.17470285296440125,0.29187095165252686,0.30319610238075256,-0.27631524205207825,0.28198105096817017,-0.2982001006603241,-0.2120118886232376],[0.057081714272499084,0.08927368372678757,0.30800652503967285,-0.013629638589918613,0.23521170020103455,-0.1481447070837021,-0.2644493281841278,-0.06016858294606209,0.17360885441303253],[-0.12424229085445404,-0.2765253782272339,-0.2171129733324051,0.06500164419412613,0.3239136040210724,-0.0050088269636034966,-0.270963579416275,-0.14869408309459686,0.17289039492607117],[-0.10412844270467758,-0.0417858250439167,0.244541734457016,0.13097557425498962,0.19934265315532684,0.3347316384315491,-0.0900033563375473,0.0690387710928917,-0.2495664358139038],[0.3289516568183899,-0.22568641602993011,0.33017781376838684,0.3009447157382965,0.08409392833709717,-0.30987897515296936,-0.017880750820040703,-0.14394327998161316,0.10469704121351242],[0.18996562063694,0.1867876648902893,0.0848378986120224,-0.24950262904167175,-0.2919084131717682,0.09673959016799927,-0.0630180835723877,0.17294523119926453,0.3281342387199402],[0.10111658275127411,-0.20021645724773407,-0.11736433207988739,0.21047908067703247,0.020014572888612747,0.24474646151065826,-0.3073871433734894,-0.024628790095448494,-0.15886926651000977],[0.24501945078372955,0.14067520201206207,-0.02231009118258953,-0.3156454861164093,-0.031690094619989395,0.29464131593704224,-0.005662725307047367,-0.019508909434080124,-0.3101060688495636],[0.2603800296783447,0.26656174659729004,-0.28532373905181885,-0.24670015275478363,0.022244641557335854,-0.2194167524576187,-0.29331880807876587,0.10100556910037994,-0.07586327195167542],[0.1222078874707222,0.13472147285938263,0.2931714653968811,0.2008981555700302,-0.3106571435928345,-0.3011822998523712,0.255628377199173,-0.28525781631469727,0.2131558656692505],[-0.20554673671722412,0.2603137791156769,0.18965765833854675,-0.2423638552427292,-0.28307241201400757,-0.17742156982421875,-0.17749397456645966,-0.20882801711559296,0.23622281849384308],[0.07796688377857208,-0.04818879812955856,-0.0261872336268425,0.13033384084701538,0.03068930096924305,-0.06399543583393097,0.28503820300102234,0.22050631046295166,0.028880344703793526],[0.22955766320228577,-0.06975796073675156,-0.25331881642341614,0.19724395871162415,0.18945538997650146,0.08401817828416824,-0.2662122845649719,0.2541714310646057,0.018347242847085],[-0.1733919084072113,-0.28949475288391113,-0.20429977774620056,0.3198198080062866,0.16216762363910675,-0.12553898990154266,0.29482129216194153,0.3074130117893219,0.1735769510269165],[-0.03222286328673363,0.3145116865634918,-0.0856795385479927,-0.13638083636760712,0.15229523181915283,-0.1173233911395073,0.25580352544784546,-0.1731923222541809,0.12431006878614426],[-0.2423754334449768,-0.22691228985786438,0.02627653069794178,0.2620888352394104,-0.24033991992473602,-0.09731153398752213,0.14721384644508362,-0.04358714073896408,-0.30041417479515076],[-0.004032248165458441,-0.11272270232439041,0.07259513437747955,0.14166350662708282,-0.09527822583913803,-0.1587119847536087,0.2080397754907608,-0.284438818693161,0.16683581471443176],[0.11738651245832443,0.11371451616287231,-0.249201238155365,0.11694273352622986,-0.19192497432231903,0.14361055195331573,-0.15830112993717194,0.07735779136419296,0.0008775441092438996],[-0.23029406368732452,-0.31249165534973145,-0.09622818231582642,0.19527998566627502,-0.06927888095378876,-0.1160041093826294,-0.21814648807048798,-0.24632541835308075,-0.0162533950060606],[-0.0912063792347908,0.11453726142644882,0.33662834763526917,-0.2388305366039276,-0.09298756718635559,0.09514647722244263,-0.24189145863056183,-0.058193985372781754,-0.16693727672100067],[0.20476876199245453,-0.03828854858875275,0.020630205050110817,0.19799958169460297,-0.23144470155239105,-0.15780960023403168,0.27413880825042725,0.13827605545520782,-0.030643029138445854],[0.3267526924610138,0.28887346386909485,-0.12268144637346268,-0.10198582708835602,0.16254059970378876,-0.23017443716526031,-0.34185004234313965,-0.19013750553131104,-0.30121150612831116],[0.20654332637786865,0.08399897068738937,-0.30388566851615906,-0.013777142390608788,0.31360912322998047,-0.18710684776306152,-0.20265412330627441,0.14705689251422882,-0.22818133234977722],[-0.3207070827484131,0.18149596452713013,-0.03552868217229843,0.17120079696178436,-0.05871403589844704,0.34579187631607056,-0.1250147968530655,0.2868781089782715,-0.19224998354911804],[-0.12234702706336975,0.25392815470695496,0.1347181349992752,-0.24100591242313385,-0.041554808616638184,0.22915810346603394,-0.24045830965042114,0.03802090510725975,0.20884637534618378],[-0.25046709179878235,0.12990733981132507,-0.3272440433502197,-0.3149903118610382,-0.008038658648729324,-0.3407548666000366,-0.17332294583320618,0.1740979552268982,-0.0601922906935215],[-0.22702418267726898,0.2721768617630005,-0.3591028153896332,0.07218880206346512,-0.22146865725517273,-0.1651974618434906,0.04513784125447273,0.344404011964798,-0.07647368311882019],[-0.33602505922317505,0.07493383437395096,-0.1430930495262146,-0.21808895468711853,0.14505572617053986,0.16054002940654755,-0.14387579262256622,0.030031083151698112,0.044755544513463974],[0.019199568778276443,-0.051256947219371796,-0.21692246198654175,0.1923750638961792,0.24679729342460632,0.29463112354278564,0.3089240789413452,0.01267124991863966,0.03948870301246643],[-0.12713727355003357,-0.06957186758518219,0.07289684563875198,0.035761285573244095,-0.23958273231983185,-0.23425424098968506,0.16468477249145508,0.2568064033985138,0.3105449676513672],[0.20194461941719055,0.18400543928146362,0.14540350437164307,0.22127996385097504,-0.06466586887836456,0.08302657306194305,0.1334717869758606,0.08829711377620697,-0.02639547362923622],[-0.16836774349212646,-0.2279590368270874,-0.18728600442409515,0.03868955746293068,0.31427785754203796,-0.1333485245704651,-0.2715892195701599,-0.30006492137908936,0.12850695848464966],[0.13907180726528168,-0.1743391901254654,-0.1525939255952835,0.26794180274009705,-0.30591315031051636,0.2304397076368332,0.03648433834314346,-0.13201859593391418,0.32381513714790344],[-0.21606005728244781,0.3061225414276123,0.28268343210220337,0.12350854277610779,0.21004816889762878,0.11411473900079727,0.2959425747394562,0.08872836828231812,-0.3392747938632965],[-0.14315597712993622,0.051119472831487656,0.23271386325359344,-0.09189212322235107,0.11280961334705353,0.15733404457569122,0.04614981636404991,-0.26462990045547485,0.31975141167640686],[-0.16502068936824799,0.045468490570783615,-0.13841722905635834,0.07522190362215042,0.2257591187953949,0.04598727449774742,-0.16016796231269836,0.06105829402804375,-0.2660987079143524],[0.2754465639591217,0.17813555896282196,0.22611400485038757,0.08442835509777069,-0.3294832110404968,-0.22079618275165558,-0.29217708110809326,0.19959326088428497,0.32636693120002747],[0.2258753627538681,-0.12325678020715714,-0.1991654932498932,-0.18457543849945068,0.31336718797683716,-0.31237319111824036,-0.32729223370552063,0.12928549945354462,0.03228585049510002],[-0.16655707359313965,-0.17967623472213745,-0.3235217034816742,0.12431850284337997,-0.16486595571041107,-0.06064034253358841,0.1923685222864151,-0.2505486011505127,0.3243020176887512],[-0.11331862211227417,0.21271070837974548,-0.04368188604712486,0.2368217408657074,-0.1840566098690033,-0.0526239350438118,-0.15197888016700745,0.22269119322299957,-0.3258180618286133],[0.22238586843013763,-0.000665537198074162,-0.21355654299259186,-0.10157229751348495,-0.03703102841973305,-0.1329403668642044,-0.16489315032958984,-0.10735945403575897,0.03842712938785553],[0.16562403738498688,0.06245153769850731,0.25110477209091187,-0.046948663890361786,0.2795802354812622,0.1294911950826645,-0.22692100703716278,0.22728247940540314,0.07101337611675262],[0.21331900358200073,-0.3170165717601776,-0.038330718874931335,-0.31282860040664673,-0.09202359616756439,-0.14773467183113098,-0.21240775287151337,-0.22055354714393616,0.26818662881851196],[0.14572261273860931,0.1062353327870369,0.071531280875206,0.09512820094823837,0.03499329462647438,-0.350219190120697,-0.05504020303487778,0.19994166493415833,-0.03888441622257233],[0.05534663423895836,0.19811582565307617,0.2200254201889038,-0.07030825316905975,0.28149014711380005,-0.15663808584213257,-0.03319423645734787,0.2469719648361206,-0.18970514833927155],[0.3173137605190277,-0.17769236862659454,-0.1744532734155655,0.23652586340904236,0.23372967541217804,-0.2624066472053528,0.1340526044368744,0.009846674278378487,-0.2443852424621582],[-0.09830667823553085,0.026653677225112915,-0.3171374499797821,-0.020253926515579224,0.07543408125638962,0.27155399322509766,0.24541744589805603,-0.12472811341285706,0.15577265620231628],[0.06406296044588089,-0.028067290782928467,-0.24674686789512634,0.07960224896669388,0.31395217776298523,-0.31595146656036377,-0.04944997280836105,0.17041003704071045,0.0007303206366486847],[0.2321133315563202,-0.049031756818294525,-0.19302032887935638,-0.2767006456851959,-0.2105596661567688,-0.05658144876360893,0.2158736139535904,0.029659928753972054,0.026044072583317757],[0.26189497113227844,0.08461964875459671,-0.1617736518383026,-0.11476823687553406,0.19301335513591766,-0.1325179487466812,0.11445502936840057,0.1428508758544922,0.02616993710398674],[-0.22401435673236847,-0.18685176968574524,-0.33240196108818054,0.11770644783973694,-0.34520915150642395,-0.17511186003684998,0.31812745332717896,0.003699155058711767,0.1593097299337387],[-0.16338415443897247,-0.07463181018829346,-0.18731631338596344,0.13305450975894928,-0.22839657962322235,-0.13443082571029663,0.09583420306444168,0.030990267172455788,-0.1498100757598877],[0.012931504286825657,-0.07032079249620438,-0.3485058546066284,0.30408769845962524,-0.2682441771030426,0.12583249807357788,0.20269641280174255,-0.04759751632809639,-0.08418352901935577],[0.29235246777534485,0.23749303817749023,-0.06923390924930573,-0.12736926972866058,-0.1602381467819214,0.29810771346092224,-0.16965128481388092,0.13744781911373138,0.09591324627399445],[0.258596807718277,-0.0018390956101939082,0.17226457595825195,-0.1872929185628891,-0.1199854239821434,-0.16040392220020294,-0.3340926170349121,-0.3134816288948059,0.1710038185119629],[0.1498163640499115,-0.08269380778074265,-0.3318856954574585,0.22912856936454773,0.31993886828422546,0.35187870264053345,-0.13335460424423218,-0.28266507387161255,0.2192048579454422],[0.16376860439777374,0.2611967921257019,0.06226960942149162,0.22670897841453552,-0.15745405852794647,-0.2533935308456421,0.06283000111579895,0.28637343645095825,-0.20027878880500793],[0.1801498830318451,-0.13214337825775146,-0.1904504895210266,-0.07961131632328033,0.33615463972091675,0.32217055559158325,0.288481742143631,0.3364819586277008,-0.022514455020427704],[0.14454413950443268,0.11034245043992996,-0.1553965061903,0.21434052288532257,-0.04406389966607094,-0.1465708315372467,0.18113890290260315,0.31748512387275696,0.263615220785141],[0.024906476959586143,-0.2128034383058548,0.33882251381874084,0.13977496325969696,0.28074920177459717,-0.11605028808116913,0.1836608201265335,-0.00045485387090593576,0.22776417434215546],[0.06981045752763748,-0.14295420050621033,0.13352876901626587,0.31891828775405884,-0.2209663987159729,0.35688942670822144,0.3002404570579529,0.29663872718811035,0.07531827688217163],[-0.10818889737129211,-0.1098322793841362,-0.06058582291007042,-0.21502801775932312,0.11017516255378723,0.1918218731880188,-0.04708940163254738,0.31425991654396057,0.11260657012462616],[0.3140427768230438,0.28733155131340027,-0.0771605595946312,-0.28316065669059753,-0.2133026421070099,0.3493313789367676,-0.1895085573196411,0.04554612189531326,0.22110630571842194],[-0.10534176975488663,0.19401773810386658,-0.2066282331943512,0.06362419575452805,0.1616186648607254,-0.3049262762069702,-0.13496559858322144,-0.18817946314811707,-0.06752006709575653],[0.31268563866615295,0.2835158109664917,0.1923682689666748,-0.17164894938468933,-0.06362205743789673,0.02538745477795601,0.30202996730804443,-0.293096125125885,-0.08222485333681107],[-0.2875315546989441,0.11588993668556213,-0.03828577324748039,-0.16290931403636932,-0.29733094573020935,-0.14507991075515747,-0.3173089027404785,0.09034024924039841,-0.29792487621307373],[-0.17004206776618958,0.33715230226516724,-0.3210843503475189,-0.2782522737979889,-0.2633889317512512,-0.25858810544013977,0.24965538084506989,-0.13665485382080078,-0.26309680938720703],[0.18221457302570343,0.2784051299095154,0.17918221652507782,0.02050596848130226,0.09637425094842911,0.1196591779589653,0.282575786113739,0.19176152348518372,-0.26258760690689087],[-0.25933998823165894,-0.2160351723432541,-0.16591604053974152,0.29358258843421936,-0.3399045169353485,-0.05433234944939613,0.24855118989944458,0.14034777879714966,-0.16167818009853363],[0.008466613478958607,-0.2532641589641571,-0.22126515209674835,-0.25441205501556396,-0.23090319335460663,0.35581278800964355,-0.021599872037768364,-0.16088220477104187,-0.1704447865486145],[-0.2659432291984558,-0.1768656075000763,0.047366298735141754,-0.1986011117696762,0.06355103105306625,0.14644600450992584,0.24815277755260468,-0.18023864924907684,-0.08014044165611267],[0.3233511447906494,-0.04493477940559387,-0.31512024998664856,-0.1206274926662445,0.11049840599298477,-0.09066556394100189,0.10318398475646973,-0.2732789218425751,0.17144043743610382],[-0.14741724729537964,-0.12799933552742004,-0.037883929908275604,0.3237675428390503,0.24634428322315216,0.29608070850372314,-0.047082800418138504,0.2451087236404419,-0.005595839582383633],[0.23136821389198303,-0.11233831942081451,-0.17117170989513397,-0.240974560379982,-0.019700374454259872,-0.1780497133731842,0.24704882502555847,-0.1887473315000534,0.1776891052722931],[-0.15924076735973358,0.19008561968803406,0.020595138892531395,-0.19514822959899902,0.011352838017046452,-0.34386739134788513,-0.053761646151542664,-0.21416397392749786,-0.3053645193576813],[0.30314698815345764,0.19423788785934448,0.07635151594877243,0.19208118319511414,-0.26684290170669556,-0.2021155059337616,-0.17720374464988708,-0.2102651596069336,-0.05442621186375618],[0.23833884298801422,-0.22079764306545258,0.039658017456531525,0.13896723091602325,-0.17388685047626495,0.14312757551670074,-0.08799268305301666,0.16144713759422302,0.310029536485672],[0.07902440428733826,-0.22660379111766815,-0.2351609468460083,0.25313398241996765,-0.09941929578781128,0.31645601987838745,-0.252172589302063,-0.16797472536563873,0.33253955841064453],[0.014202226884663105,-0.1615382581949234,0.025210248306393623,-0.01733567751944065,-0.3049889802932739,0.13508272171020508,0.1982441246509552,0.02232733555138111,-0.2793102562427521],[-0.11734887212514877,0.11720787733793259,-0.13826508820056915,0.2678532898426056,-0.09150154143571854,-0.05227569490671158,0.22506676614284515,0.05071677640080452,0.19919590651988983],[-0.22165840864181519,0.24573752284049988,-0.09264931827783585,0.0027162861078977585,0.17465512454509735,0.08803071081638336,-0.13619397580623627,0.18594565987586975,-0.03413841873407364]],"bias":[0.14768028259277344,-0.10573633760213852,0.022220320999622345,-0.10610037297010422,0.1962592750787735,0.2510753870010376,0.08139514178037643,0.29756292700767517,0.11106202751398087,-0.2707311511039734,-0.19366230070590973,-0.012001211754977703,-0.2612626254558563,0.12712770700454712,0.3028820753097534,-0.2025921493768692,-0.08698514848947525,-0.2777814567089081,0.08804965019226074,0.009253930300474167,0.22943703830242157,-0.13168151676654816,-0.2859423756599426,0.2936115860939026,0.3162606954574585,-0.22513355314731598,-0.13490161299705505,-0.08557145297527313,-0.2123546600341797,-0.3065120279788971,0.2363266497850418,0.18060941994190216,0.15189819037914276,-0.2998557686805725,-0.06734654307365417,0.2041875720024109,0.1715392917394638,-0.08144891262054443,0.007795784622430801,0.14351661503314972,0.29509738087654114,0.30670902132987976,0.30762699246406555,0.28976908326148987,-0.150999054312706,0.30688223242759705,-0.00010804853081936017,-0.09500827640295029,0.27597692608833313,-0.034202657639980316,0.04597141593694687,-0.03549743816256523,-0.2314036339521408,-0.24672798812389374,0.2857421338558197,0.3122671842575073,-0.03446885943412781,-0.21474476158618927,0.327809602022171,0.07659237086772919,0.18929548561573029,-0.2791024148464203,0.1287214756011963,0.024911241605877876,0.29129666090011597,0.25634145736694336,0.1883343905210495,0.08213961124420166,0.11974386125802994,0.11787772923707962,0.30510592460632324,0.18344922363758087,-0.002771478146314621,0.1018662229180336,-0.12082147598266602,0.2653449773788452,-0.1617909073829651,0.2921067774295807,0.2586002051830292,-0.256732314825058,-0.3002239167690277,-0.009618079289793968,0.15415515005588531,0.26339688897132874,-0.2841334939002991,-0.07862576842308044,0.07771621644496918,-0.1068999320268631,-0.27632275223731995,0.097761370241642,0.13628484308719635,-0.04683868959546089,0.16445258259773254,0.058164142072200775,0.2663034498691559,0.0918937548995018,0.0774662122130394,-0.04770712926983833,-0.15083695948123932,0.1355324387550354,0.3122398555278778,0.11916600912809372,-0.2878952622413635,0.2287130057811737,0.32101768255233765,-0.00617624307051301,-0.22336985170841217,-0.09883707761764526,0.2323727309703827,0.16947180032730103,-0.038168590515851974,0.04056594520807266,-0.012227732688188553,-0.29956403374671936,0.21883033215999603,-0.03593839332461357,-0.2666586637496948,0.07754487544298172,0.18145310878753662,-0.2806853652000427,-0.010908765718340874,-0.2920630872249603,0.08620104938745499,0.04706477001309395,0.17207393050193787,-0.06755515933036804,0.31330686807632446,-0.3119746148586273]},"backbone2":{"weight":[[-0.03275449201464653,-0.07769005745649338,-0.07797173410654068,0.09504060447216034,0.04465773329138756,0.06714107096195221,0.06462332606315613,-0.023831134662032127,-0.004975928459316492,-0.06809969246387482,0.07170064747333527,-0.008028939366340637,0.002375212265178561,0.05633571743965149,-0.01784869283437729,-0.08475342392921448,0.005313506815582514,0.06973718106746674,0.05133648216724396,-0.10328410565853119,0.07556028664112091,0.0242883563041687,-0.10542276501655579,-0.021633518859744072,-0.06129634752869606,0.008678262121975422,-0.1036616787314415,-0.027263058349490166,0.08736037462949753,-0.0046192859299480915,0.012001482769846916,-0.0655508041381836,0.061446499079465866,0.03892901912331581,-0.003979700151830912,-0.0010208600433543324,0.0786648616194725,-0.08909092098474503,0.062045738101005554,-0.06642972677946091,-0.03803224861621857,-0.07749471813440323,0.025943387299776077,0.06149008125066757,0.0005381047958508134,0.03338347747921944,-0.007165986113250256,-0.08103683590888977,-0.0925215408205986,0.004942568484693766,0.06312800943851471,0.03795166686177254,-0.030873242765665054,0.03014412336051464,0.08293109387159348,-0.07346463203430176,-0.11050291359424591,-0.10038411617279053,0.054624371230602264,-0.05828840658068657,-0.050732504576444626,0.026076627895236015,0.04948695749044418,0.019734829664230347,-0.07160355150699615,0.08123902231454849,0.04830784723162651,-0.037301063537597656,-0.07213728874921799,-0.05703168362379074,-0.03777441754937172,-0.07243959605693817,0.04299285262823105,0.08778706938028336,0.041681353002786636,0.06209362670779228,-0.05243261158466339,0.04702982306480408,0.06902456283569336,0.0680459588766098,0.05930876359343529,-0.042881086468696594,0.04285680875182152,-0.0505695566534996,-0.02909378707408905,0.09563605487346649,-0.008746001869440079,0.0013599139638245106,-0.015572093427181244,-0.0010322846937924623,-0.054486747831106186,0.04308431223034859,0.07100742310285568,-0.021824723109602928,-0.08710677176713943,0.0031549541745334864,-0.04431481659412384,0.068907730281353,-0.024980945512652397,0.08423915505409241,0.023738911375403404,-0.05482436344027519,-0.026055557653307915,0.009905808605253696,-0.05166368559002876,-0.0011475395876914263,-0.10482869297266006,-0.058146607130765915,-0.023898955434560776,0.05601432919502258,-0.08796582370996475,0.07751119136810303,-0.09526120871305466,-0.07956821471452713,0.0406663604080677,0.024084795266389847,0.07421249151229858,-0.007606656290590763,0.051941774785518646,0.08621502667665482,-0.05935897305607796,-0.07716202735900879,0.06303640455007553,0.09040594100952148,0.020125875249505043,0.06584589183330536,-0.05523514375090599,0.07872802764177322],[-0.02933805249631405,0.04599567502737045,-0.00906513724476099,-0.06104283407330513,-0.04760391265153885,-0.02350585348904133,0.014385482296347618,0.038383278995752335,-0.07212576270103455,-0.0441221222281456,-0.04700915887951851,0.010212375782430172,-0.05276352912187576,0.10153995454311371,-0.04975888878107071,0.0886547714471817,0.02384505607187748,0.05085811764001846,-0.03557930514216423,0.01498046051710844,-0.04616489261388779,0.011130247265100479,0.04030999168753624,-0.013271843083202839,-0.009920026175677776,-0.002919105114415288,-0.06358164548873901,-0.06562642753124237,0.0011749229161068797,0.007100993301719427,0.057415951043367386,-0.012043885886669159,-0.014607525430619717,0.018578873947262764,0.012026568874716759,-0.004070931579917669,0.020292222499847412,0.08415944129228592,-0.017946533858776093,-0.05134018510580063,-0.009076917544007301,0.0937744677066803,0.03904246166348457,-0.08050363510847092,0.08130397647619247,0.07046949863433838,0.07236537337303162,0.02699282020330429,-0.08861448615789413,0.009004877880215645,0.01857920177280903,-0.06311973184347153,-0.05647678300738335,0.0047136880457401276,0.08523938059806824,0.014154271222651005,-0.0013612111797556281,0.02057710662484169,-0.07793311029672623,0.049776531755924225,0.009707044810056686,-0.059109557420015335,-0.07457293570041656,-0.08015294373035431,0.0291303638368845,0.009942571632564068,0.02095513604581356,-0.022214552387595177,0.03017955832183361,-0.07109762728214264,0.057740453630685806,-0.030961375683546066,-0.0623643733561039,-0.07995381951332092,0.028016943484544754,-0.030661003664135933,0.04429937154054642,0.05017209053039551,-0.025041021406650543,0.06410665810108185,0.06936583667993546,0.04524615779519081,-0.06301052123308182,-0.02422627992928028,-0.026118414476513863,0.04180068522691727,-0.03423898294568062,0.002764031756669283,0.03976396843791008,0.041761364787817,0.0743471011519432,-0.02521684765815735,-0.07406176626682281,-0.058531612157821655,-0.035784997045993805,0.04019114375114441,-0.030017921701073647,-0.0819791704416275,-0.06722892075777054,-0.04204535484313965,-0.044210027903318405,-0.0109071284532547,-0.0023429379798471928,-0.051134463399648666,0.002211423125118017,-0.05127246305346489,-0.00951001513749361,0.062398843467235565,0.00846075639128685,-0.010021951049566269,-0.010196083225309849,0.060448091477155685,0.06376978754997253,-0.048719622194767,-0.06829683482646942,0.026699349284172058,0.03853972256183624,0.018387140706181526,0.06675103306770325,0.05542473495006561,-0.009250705130398273,0.04437118396162987,0.057976581156253815,-0.034735437482595444,-0.0474449023604393,0.02054029330611229,-0.029463760554790497,-0.05514272674918175],[-0.06017792224884033,0.05961814150214195,-0.04260553792119026,-0.06569302082061768,0.07146172225475311,0.013935873284935951,5.3111180022824556e-06,-0.051729436963796616,0.012758147902786732,0.05213700979948044,-0.05022139102220535,-0.009571455419063568,0.0028905165381729603,0.04309608414769173,0.07950122654438019,0.06361564248800278,-0.03150222823023796,-0.00921736378222704,0.008838217705488205,-0.0383063405752182,-0.060253679752349854,-0.018964506685733795,0.007842766121029854,0.03659973293542862,-0.07809801399707794,-0.033161964267492294,0.08930904418230057,0.018628155812621117,-0.08120480179786682,0.042704738676548004,-0.022970249876379967,-0.03569990396499634,-0.043685298413038254,-0.03262699767947197,-0.03774825111031532,0.011886004358530045,0.05651351436972618,0.05101193115115166,0.06758582592010498,0.08047378808259964,-0.04438169673085213,0.06491351127624512,-0.027661819010972977,0.056863293051719666,-0.05839382857084274,0.07709401845932007,-0.0042244126088917255,0.037478044629096985,0.0874013602733612,-0.0167426485568285,0.018604468554258347,0.04462902247905731,-0.03604039177298546,-0.011242136359214783,0.06381160765886307,0.02834167517721653,0.07845332473516464,0.058220334351062775,0.03774814307689667,-0.046241387724876404,-0.02222498506307602,0.06371843814849854,0.01610598899424076,0.06737865507602692,0.061357080936431885,0.04959425330162048,0.03402148559689522,-0.032907795161008835,0.039002981036901474,0.012612301856279373,0.04375962167978287,0.02106851153075695,-0.04104945808649063,0.053394947201013565,-0.015510733239352703,0.015505083836615086,-0.03195037692785263,-0.0803208202123642,0.05617727339267731,0.0253323782235384,0.0602465383708477,0.04946526885032654,0.036288946866989136,0.05575023591518402,0.03555968403816223,-0.03897644579410553,0.01821746863424778,-0.05407276749610901,-0.04674765467643738,0.09748437255620956,0.046744003891944885,0.04980036988854408,-0.004226444289088249,-0.10786055028438568,-0.011336078867316246,-0.03335154801607132,-0.02128404565155506,0.019490312784910202,-0.05312921106815338,-0.06541504710912704,-0.02564777433872223,-0.05791756883263588,-0.025517277419567108,0.002298248466104269,-0.025999678298830986,-0.034612201154232025,-0.010559598915278912,0.044029802083969116,0.026862675324082375,0.007660360541194677,-0.03234000504016876,-0.05686447024345398,0.0525740310549736,0.008650941774249077,-0.011407542042434216,-0.04459429159760475,-0.06698545813560486,-0.05788721889257431,0.060176603496074677,0.05515153706073761,0.0636024996638298,-0.03848043456673622,0.0052919150330126286,-0.09282877296209335,-0.07751913368701935,-0.08898599445819855,0.022707751020789146,-0.08683662116527557],[0.055074065923690796,0.06241169571876526,-0.013860301114618778,0.04263455793261528,0.022076314315199852,0.07652623951435089,0.02726922370493412,0.10673677176237106,0.047263648360967636,-0.021274562925100327,0.05770866200327873,0.02379777655005455,0.03941727802157402,0.03716348111629486,-0.050299420952796936,0.060287728905677795,0.015812532976269722,-0.005438684485852718,0.01284148171544075,-0.06823332607746124,0.026603825390338898,-0.0916290283203125,0.029681721702218056,0.05012451484799385,-0.052663665264844894,0.031069355085492134,-0.015458359383046627,-0.03667513281106949,0.10286694765090942,0.00650416873395443,-0.061794403940439224,-0.1024751141667366,0.008234902285039425,-0.07234156876802444,-0.09020987153053284,-0.06515977531671524,0.05783459544181824,-0.052710361778736115,-0.03309936448931694,-0.054629772901535034,0.008457404561340809,-0.010193096473813057,-0.062176235020160675,-0.0626896470785141,-0.045580290257930756,0.018496206030249596,0.0013393927365541458,0.06921186298131943,0.0214092880487442,0.019861934706568718,0.0806075930595398,-0.0056373621337115765,-0.039050523191690445,0.08554735779762268,-0.03163008391857147,-0.06173800304532051,0.04868263006210327,0.06486792862415314,0.05671592056751251,-0.005864059552550316,0.10299291461706161,0.037890367209911346,0.013631066307425499,-0.013474213890731335,0.053111035376787186,-0.04476208984851837,-0.039771921932697296,0.04624899849295616,0.0023468979634344578,-0.011630616150796413,0.00776151567697525,0.01409416738897562,0.07964745908975601,0.09790933132171631,-0.0768301710486412,-0.049142953008413315,-0.07290784269571304,-0.00100239017046988,0.010884062387049198,-0.029512975364923477,0.03155136480927467,-0.09053269773721695,0.0678827241063118,-0.01396999228745699,0.016399413347244263,0.06784232705831528,0.010760555975139141,-0.0502801388502121,-0.044830117374658585,0.06615525484085083,-0.031282681971788406,-0.0248640738427639,-0.07740145176649094,-0.030430903658270836,-0.011313563212752342,0.04108011722564697,-0.05699862167239189,0.010874453000724316,0.08124136924743652,0.10499601811170578,0.011101281270384789,0.06773150712251663,0.10058701038360596,0.038193490356206894,0.09104275703430176,0.026117324829101562,-0.054758913815021515,0.0927419438958168,0.05636446923017502,0.03136652335524559,-0.02596139721572399,-0.012587250210344791,-0.085480697453022,-0.0483146570622921,-0.053788136690855026,0.005159369669854641,0.054285772144794464,-0.036440979689359665,0.017983131110668182,-0.02081620693206787,-0.03899281844496727,0.008974306285381317,0.024306556209921837,0.09744325280189514,0.007342058699578047,0.08438128978013992,-0.05414552614092827,0.016030535101890564],[-0.002305361907929182,0.08338118344545364,0.05477370694279671,-0.03163949400186539,0.02760457806289196,-0.005559669341892004,-0.05552099645137787,-0.03181220591068268,-0.056068021804094315,0.07601839303970337,0.062332477420568466,-0.075225830078125,0.04781492054462433,0.11032889783382416,-0.0198285561054945,0.06389608234167099,0.06738918274641037,0.05601644143462181,-0.05009404569864273,0.051253367215394974,0.01948491856455803,0.04664285108447075,-0.09662016481161118,0.02693663351237774,0.05213218554854393,-0.07134774327278137,-0.07587768137454987,-0.03794325888156891,0.059273432940244675,-0.03613510727882385,-0.02540513314306736,-0.09969473630189896,-0.025090642273426056,-0.04128722473978996,-0.0960322842001915,0.03994414210319519,-0.007940149866044521,-0.08523982763290405,0.05914603918790817,0.045874886214733124,-0.058511245995759964,-0.024831334128975868,-0.03263160586357117,-0.03365461528301239,0.03502177447080612,0.0593489408493042,0.06673523038625717,-0.07131581753492355,0.07299608737230301,-0.001045259297825396,-0.06350793689489365,0.03313865140080452,0.07180730998516083,-0.000256045488640666,-0.07323522865772247,0.053356826305389404,-0.0608089379966259,-0.07955335825681686,-0.022863632068037987,0.005686142016202211,0.013080879114568233,0.024186644703149796,0.03153818100690842,-0.032643936574459076,-0.04821003973484039,-0.044293973594903946,0.056137729436159134,0.015794925391674042,0.04560975730419159,-0.010171059519052505,0.021216867491602898,-0.07272662222385406,-0.03172183409333229,-0.05269855633378029,-0.08229638636112213,0.0862254798412323,0.039282217621803284,0.08145143836736679,0.04763391613960266,0.07386509329080582,-0.03387916088104248,0.0785544216632843,-0.06879571825265884,0.014504343271255493,-0.07802998274564743,0.04979248717427254,-0.01812448352575302,0.05573176220059395,0.019335336983203888,0.0426957830786705,-0.02391519770026207,-0.08214940875768661,-0.08863285928964615,-0.06319122016429901,-0.059589654207229614,0.07222601026296616,0.021701732650399208,0.003938919864594936,0.05885937437415123,-0.05688638612627983,0.019954457879066467,0.030760321766138077,-0.07693122327327728,-0.08224629610776901,0.10243012011051178,-0.018285881727933884,-0.09055361896753311,0.09924977272748947,0.016593746840953827,0.05633733421564102,-0.019480520859360695,0.04016818851232529,0.05082147940993309,0.023711977526545525,-0.06510864943265915,0.06199367716908455,-0.06698029488325119,0.05097934603691101,-0.08726153522729874,-0.009330316446721554,-0.02299826592206955,-0.0009372421773150563,0.04304312542080879,-0.047475289553403854,-0.055225443094968796,0.07830466330051422,-0.05780806392431259,-0.06583848595619202],[-0.019599417224526405,-0.028248686343431473,-0.08320213109254837,-0.012446894310414791,0.04422682896256447,0.08657907694578171,0.01786363124847412,0.00915516633540392,0.011852797120809555,-0.054617539048194885,-0.0009434277890250087,-0.005796169862151146,0.02869519777595997,0.019783196970820427,0.08837191015481949,-0.06505348533391953,0.004237588029354811,-0.0010797522263601422,-0.03540031239390373,0.08521714061498642,0.07389754056930542,0.00681992806494236,-0.04029501602053642,0.073301300406456,0.07103066146373749,-0.033269722014665604,-0.0405656136572361,0.07528376579284668,-0.09328286349773407,-0.0011695809662342072,0.008972403593361378,-0.015548331663012505,-0.06403116136789322,-0.041832443326711655,-0.04465322569012642,0.00797225534915924,0.07717188447713852,-0.04914766922593117,0.06609237194061279,0.04548584669828415,-0.012574139051139355,0.054930973798036575,-0.022918332368135452,-0.02574383094906807,-0.09788700938224792,-0.024554627016186714,-0.027031749486923218,0.043011374771595,-0.07129506766796112,0.084494449198246,-0.024939056485891342,0.030829763039946556,-0.028600260615348816,-0.04037889838218689,-0.06615594774484634,0.011883599683642387,0.06764230877161026,0.03519420698285103,0.029278645291924477,-0.06214330345392227,0.055920232087373734,-0.019221888855099678,-0.06804937869310379,-0.022545170038938522,-0.06556892395019531,0.0001240247511304915,0.07435501366853714,-0.03521852567791939,-0.01927456259727478,0.0866890400648117,-0.04232899099588394,0.02514646388590336,0.08156304806470871,0.06339632719755173,0.04070290923118591,0.04701948165893555,0.0057653700932860374,-0.07305490225553513,-0.02410421147942543,-0.011275244876742363,-0.02978905476629734,0.006904753856360912,0.032211218029260635,-0.006353379227221012,0.049324072897434235,-0.07810448855161667,-0.0018403242575004697,-0.05840789154171944,0.02814123034477234,0.07921583950519562,-0.021573331207036972,-0.01179784256964922,0.04546802490949631,-0.05426503345370293,0.06152087822556496,-0.04579584300518036,0.014420154504477978,0.004779921378940344,-0.0708787813782692,-0.015202116221189499,-0.011716146022081375,0.015071997418999672,0.0797635018825531,-0.009452348574995995,0.033729687333106995,-0.016603700816631317,-0.044550348073244095,-0.03887559473514557,-0.06418980658054352,-0.04795388504862785,0.010032693855464458,0.004006078001111746,-0.03717677667737007,-0.03643699735403061,-0.0702984407544136,-0.06087247654795647,-0.082778200507164,-0.07029594480991364,0.0008423830149695277,-0.023434916511178017,0.0737733393907547,0.009936551563441753,-0.04196280241012573,-0.08571135997772217,-0.05161825940012932,-0.02517242170870304,-0.06633773446083069,-0.039103806018829346],[0.015154222026467323,0.088368721306324,-0.004759232979267836,-0.09954676777124405,-0.05332178995013237,-0.05838176980614662,0.039333242923021317,0.029497725889086723,-0.007350555621087551,-0.05851836875081062,-0.02776409313082695,-0.0462271086871624,0.07765752077102661,-0.0981246680021286,0.0229116789996624,0.05100448802113533,-0.07725779712200165,0.02726059965789318,0.0520978718996048,0.045591194182634354,0.08622089773416519,-0.03763442113995552,-0.062365442514419556,-0.045081015676259995,-0.07908832281827927,0.036010224372148514,0.04009475186467171,-0.035600561648607254,-0.04698203131556511,0.048006363213062286,0.01174950785934925,0.08874867111444473,-0.033856526017189026,0.03350198268890381,0.02982144057750702,-0.03216774761676788,0.07682739943265915,-0.022339824587106705,0.005688726902008057,-0.06479540467262268,0.02358171157538891,0.05173494294285774,-0.08934084326028824,0.09694541245698929,-0.008988835848867893,0.08672478049993515,0.056437212973833084,0.0557539165019989,0.006554848980158567,0.02841641567647457,0.014953111298382282,-0.0397145040333271,0.038297589868307114,0.06337875872850418,-0.036159541457891464,-0.05061303451657295,0.09342972189188004,0.09469734132289886,0.007971838116645813,-0.07505165040493011,-0.013130112551152706,0.007265965919941664,0.06086013466119766,-0.058340273797512054,-0.06439010053873062,-8.220873132813722e-05,-0.010028673335909843,0.013022325001657009,0.0958433747291565,0.0777759701013565,0.07225696742534637,-0.09737052768468857,0.09016458690166473,-0.07226219773292542,-0.032877568155527115,0.03335697576403618,-0.01464883703738451,-0.04048154130578041,0.0187374297529459,0.06690992414951324,-0.011338104493916035,-0.09096285700798035,-0.026980765163898468,-0.06185930594801903,0.013188999146223068,0.0637168288230896,0.07394329458475113,0.02735697478055954,-0.05053116753697395,-0.03640184551477432,0.06122806295752525,0.05280918627977371,-0.04373113065958023,0.0011342718498781323,-0.02055591158568859,-0.06893254071474075,0.0936804860830307,0.04101361706852913,-0.02943575754761696,0.035118214786052704,-0.06808046251535416,0.06559357792139053,0.01905236579477787,-0.019666481763124466,-0.0647144764661789,0.005859735421836376,0.07010336965322495,-0.015900593250989914,-0.09262066334486008,-0.06422580778598785,0.018234748393297195,0.03786579892039299,0.06412259489297867,0.07529038935899734,0.0640745460987091,-0.022696688771247864,-0.0559849739074707,-0.07807854562997818,0.0007061720825731754,0.06254220753908157,0.044185418635606766,0.04870879650115967,0.028647763654589653,-0.0933271124958992,-0.04469101503491402,-0.06428363174200058,-0.07692735642194748,0.05793824791908264],[0.050983548164367676,-0.012167486362159252,-0.078549325466156,0.05247065797448158,-0.04979712516069412,-0.07159427553415298,0.03961685672402382,0.03660716488957405,0.04925621300935745,0.08767575025558472,0.06637434661388397,-0.014004799537360668,0.050862427800893784,-0.08130242675542831,0.06423582136631012,-0.11201058328151703,-0.029097555205225945,0.04954647645354271,-0.006465977989137173,-0.07431278377771378,0.0344548374414444,0.047622717916965485,0.011933046393096447,0.05054308474063873,-0.03304662927985191,0.03509807959198952,-0.07797947525978088,-0.01465914212167263,0.018727140501141548,-0.05024231597781181,0.027439408004283905,-0.05139023810625076,-0.03579527139663696,-0.11764274537563324,0.03352142870426178,0.053488221019506454,0.10503306984901428,0.07414119690656662,-0.054884377866983414,0.06235316023230553,0.09103984385728836,0.048202648758888245,0.05905333533883095,0.05654038116335869,0.05752919241786003,0.01087800320237875,-0.05596397444605827,0.011916899122297764,-0.08276472240686417,0.08583516627550125,0.06058190017938614,-0.0493096299469471,0.08490423858165741,-0.019516902044415474,-0.06817407160997391,0.06258318573236465,0.05822507292032242,0.07061010599136353,0.05016223341226578,0.08169646561145782,0.07886341959238052,0.042825158685445786,-0.07500911504030228,-0.03261467441916466,0.021243711933493614,0.09670300036668777,-0.025358889251947403,0.04128147289156914,-0.084881991147995,-0.02581016719341278,0.03123335912823677,0.017496401444077492,0.02546088956296444,0.04141474887728691,0.05757272243499756,0.0001926382683450356,0.06221915781497955,0.08647716790437698,0.0075761908665299416,-0.058525241911411285,-0.0094413748010993,0.02128809131681919,0.04963226988911629,-0.0860709547996521,-0.008906151168048382,0.010242392309010029,0.0364951491355896,-0.00018734023615252227,0.04715267941355705,-0.02463383600115776,0.05241776257753372,-0.10193267464637756,0.09090720117092133,0.038199082016944885,-0.02859080210328102,0.08704718947410583,-0.013289389200508595,-0.03496056795120239,-0.02648228034377098,0.10770532488822937,0.0831562951207161,0.009715883992612362,0.0025482983328402042,-0.058752935379743576,-0.013602470979094505,-0.06797655671834946,-0.10576817393302917,-0.002635001437738538,0.0887271985411644,0.008350313641130924,-0.05173664167523384,-0.035691890865564346,0.052558742463588715,0.026435548439621925,0.013133477419614792,-0.0631658211350441,-0.02181103080511093,0.07711346447467804,-0.0015485548647120595,-0.03856471925973892,-0.05863368138670921,0.040730852633714676,0.019749274477362633,-0.007238985039293766,0.08758599311113358,0.047214243561029434,0.06100951135158539,0.05182832106947899],[-0.023775974288582802,-0.04404270648956299,-0.0533798448741436,0.030795466154813766,-0.0758795291185379,-0.03778180480003357,-0.033287663012742996,0.05383111536502838,0.04716287553310394,-0.04898729547858238,0.020413167774677277,0.010154240764677525,0.0762980580329895,0.08837694674730301,0.04423447325825691,0.04203962907195091,0.009710446931421757,0.08513526618480682,-0.09416712820529938,0.045048609375953674,0.06341738253831863,0.029627623036503792,-0.047377053648233414,-0.02988121472299099,0.043182022869586945,-0.004285901784896851,0.042183902114629745,0.021226467564702034,0.033332470804452896,-0.016000032424926758,-0.09039198607206345,-0.08433333039283752,-0.07628539204597473,-0.10243368148803711,-0.05907559022307396,-0.025249911472201347,0.055608589202165604,0.011888750828802586,0.06417298316955566,-0.07525645196437836,0.08188746124505997,0.0860932320356369,0.07536350935697556,-0.0411749966442585,0.016923880204558372,0.013147586025297642,-0.03125973418354988,0.034723732620477676,-0.030631817877292633,-0.06811557710170746,-0.019551314413547516,0.06558050960302353,0.04110889881849289,0.051592979580163956,0.021604783833026886,0.022431638091802597,0.009888358414173126,-0.06989523023366928,0.014682547189295292,-0.011772842146456242,-0.037484247237443924,-0.07148091495037079,-0.0201362706720829,-0.10355629771947861,-0.07978824526071548,0.0747959092259407,-0.0058616651222109795,-0.00761970691382885,-0.08110328763723373,0.014962145127356052,0.08316229283809662,0.09042784571647644,-0.07963641732931137,-0.008066928945481777,0.07865253835916519,0.09639915078878403,0.08175937831401825,-0.0809464156627655,-0.08066055178642273,-0.02891169674694538,0.0387858971953392,-0.07600492984056473,0.020539604127407074,0.03684723377227783,0.010696208104491234,-0.012884041294455528,0.043990954756736755,0.005245276726782322,0.030969630926847458,-0.07041464745998383,0.04396997019648552,-0.008589508943259716,-0.0729285329580307,0.049130309373140335,-0.06404800713062286,0.09117095917463303,0.018324347212910652,-0.060784321278333664,0.00239385012537241,0.008174706250429153,-0.03039357252418995,-0.10672280937433243,-0.0414278507232666,-0.08119875937700272,0.03774155676364899,0.014413570053875446,-0.004990292713046074,-0.06674298644065857,-0.030213672667741776,-0.04652389883995056,-0.010818817652761936,-0.08311832696199417,0.04588695243000984,-0.06008182838559151,0.02457437478005886,0.09886489808559418,-0.02483419142663479,0.08826407045125961,-0.06661068648099899,0.023227283731102943,-0.08486002683639526,-0.026943156495690346,0.07200508564710617,0.07963746786117554,0.02884610928595066,-0.027064219117164612,0.05610647052526474,-0.06091141328215599],[0.060360945761203766,-0.05561716482043266,-0.05085954815149307,0.06246776133775711,-0.08604712039232254,-0.04848320037126541,0.004368912894278765,0.0028637233190238476,-0.004530465696007013,-0.04861147329211235,-0.03687382489442825,0.07271165400743484,0.0662330761551857,-0.04493894800543785,-0.004252047277987003,-0.03822599723935127,0.06215800344944,0.008261552080512047,-0.050437044352293015,0.07211495190858841,0.0438133180141449,0.0007208057795651257,-0.027317576110363007,0.012323803268373013,-0.05759270861744881,-0.00866376981139183,-0.01692713424563408,-0.05377599969506264,0.04508887231349945,-0.06493539363145828,-0.049437038600444794,-0.0583721362054348,0.0178641639649868,0.06650305539369583,0.03206032142043114,-0.013533753342926502,-0.002737093949690461,-0.07149390131235123,-0.09652853012084961,-0.024955233559012413,-0.07975967228412628,-0.019136948511004448,0.08326521515846252,-0.06858397275209427,-0.0541398786008358,0.04569122940301895,-0.049847476184368134,0.02688520960509777,-0.012529783882200718,-0.08511412143707275,0.051391102373600006,-0.019675716757774353,-0.04763757064938545,0.07264716178178787,-0.004573478363454342,0.011063004843890667,0.004570606630295515,-0.05720745772123337,0.0012646624818444252,0.013062100857496262,-0.03444848954677582,0.0010161930695176125,0.03601359575986862,0.0490272082388401,-0.0023810318671166897,-0.03167615830898285,-0.03993551805615425,-0.03230040520429611,-0.04444922134280205,-0.05952038615942001,-0.054807960987091064,0.01129890140146017,-0.07278549671173096,-0.014502299018204212,0.021241124719381332,0.06952167302370071,-0.0025172000750899315,0.06516113132238388,-0.08526277542114258,-0.027077773585915565,-0.007529895752668381,-0.014142808504402637,-0.07432620227336884,-0.07313612103462219,-0.07170016318559647,0.06511133164167404,-0.03985026106238365,0.021349120885133743,0.04260733723640442,-0.0013309995410963893,0.013553902506828308,-0.005707993172109127,-0.03466564416885376,-0.0007738762069493532,-0.10338832437992096,0.022211039438843727,-0.027630023658275604,-0.0768006294965744,0.07705341279506683,-0.08234851062297821,-0.02916780114173889,0.014147701673209667,0.04495680704712868,-0.008506965823471546,-0.011583284474909306,0.04686309024691582,0.08102481067180634,0.021770978346467018,-0.061156660318374634,-0.061681199818849564,-0.0015650676796212792,-0.05153994262218475,0.02826598286628723,-0.008113246411085129,0.04183954373002052,-0.06890974193811417,-0.07790451496839523,-0.03322767838835716,-0.07103686034679413,0.08749241381883621,-0.02465682476758957,-0.02381300739943981,-0.05111277475953102,-0.019759437069296837,0.012580146081745625,-0.028135675936937332,0.06104180961847305,-0.05802981182932854],[-0.09243316948413849,0.037177275866270065,0.050080347806215286,0.10196178406476974,-0.09016972035169601,0.0063355243764817715,0.03850594162940979,0.006426994223147631,-0.012630009092390537,0.03285737708210945,-4.928892303723842e-05,-0.0002474616630934179,0.03117617778480053,0.08488395065069199,-0.007619362790137529,0.028483660891652107,-0.019811362028121948,0.024932553991675377,0.04944923520088196,0.012069874443113804,-0.04240020737051964,-0.085026815533638,-0.03523366525769234,0.06842266023159027,0.05933969095349312,0.006356136407703161,0.008541391231119633,-0.04932372644543648,-0.02845035120844841,0.004883674439042807,0.04515314847230911,0.07241670787334442,0.052871037274599075,-0.10378000885248184,0.04536885395646095,0.004145816899836063,-0.055263277143239975,-0.09018345922231674,0.046937283128499985,-0.07858113199472427,0.011740502901375294,0.09322948753833771,-0.054443616420030594,0.022856108844280243,-0.04864548519253731,-0.029712457209825516,0.06747180968523026,0.033420905470848083,0.013998790644109249,-0.050870850682258606,0.09409566223621368,-0.07191959768533707,0.06618703901767731,-0.054422955960035324,-0.059709418565034866,0.040453989058732986,0.044549208134412766,-0.0792834684252739,0.05045902356505394,0.02092660777270794,0.04355888068675995,0.01630685105919838,0.012415320612490177,0.015086675994098186,-0.05936913564801216,0.03721506521105766,-0.02450512908399105,-0.05629708990454674,0.0279270987957716,0.06068958714604378,0.08222078531980515,0.08209753036499023,-0.08611759543418884,-0.008790351450443268,0.05789459869265556,-0.009322529658675194,0.07227159291505814,-0.026608066633343697,0.05636371299624443,0.02993105910718441,-0.001588862156495452,-0.007950731553137302,0.0282692052423954,0.06544341892004013,-0.0032835942693054676,-0.0610775426030159,0.053175363689661026,-0.009293198585510254,-0.09374503046274185,0.07268919050693512,-0.07112203538417816,0.04855126887559891,-0.07982179522514343,0.023923596367239952,0.05193200707435608,-0.004202235955744982,-0.0870392769575119,-0.07438519597053528,0.023502711206674576,0.021681910380721092,0.07526815682649612,0.0037853277754038572,0.054958492517471313,-0.0007451605051755905,-0.013114760629832745,-0.07164479792118073,-0.06333852559328079,-0.043409254401922226,-0.03246251493692398,-0.016884081065654755,-0.05534300208091736,0.015594706870615482,-0.09637459367513657,0.03865420073270798,0.042548634111881256,0.03552224487066269,0.006602890323847532,-0.04399573430418968,-0.08524565398693085,0.012159124948084354,0.007208222523331642,-0.008294772356748581,0.000165629229741171,-0.046087730675935745,0.07955148071050644,-0.0419529527425766,0.0701393336057663,-0.06615639477968216],[-0.0690426304936409,0.007210736162960529,-0.014949554577469826,-0.08101857453584671,-0.059479426592588425,0.07820121943950653,-0.1017809733748436,-0.0016937506152316928,0.051925815641880035,0.04948800429701805,0.08747950941324234,0.011523429304361343,-0.07791741192340851,-0.0644138976931572,0.0066169146448373795,-0.0013570338487625122,0.015316980890929699,-0.04249006509780884,-0.016871310770511627,-0.023982470855116844,0.00439868401736021,-0.0550825409591198,-0.009516553953289986,0.04514901712536812,-0.0038842493668198586,0.0587816946208477,-0.008233376778662205,0.082573302090168,-0.03744306415319443,0.011464482173323631,-0.05322584882378578,0.06093931943178177,0.006791654974222183,0.05612662807106972,0.057430971413850784,-0.013934889808297157,-0.0915815457701683,-0.018197838217020035,-0.04845280200242996,0.08298217505216599,-0.0007468526600860059,0.0340472012758255,0.03849048912525177,-0.01749270223081112,-0.02469210885465145,0.06795665621757507,0.07654304057359695,-0.00013023178325966,0.09584350883960724,0.01943831518292427,0.08952940255403519,0.019575603306293488,0.05369715765118599,0.034120917320251465,0.047181565314531326,0.035104166716337204,0.07584121823310852,0.012109526433050632,-0.02753940410912037,-0.06286077946424484,-0.048659246414899826,0.015756838023662567,-0.0851832777261734,0.07970543950796127,0.06904231011867523,0.028598623350262642,0.022485703229904175,-0.05513827130198479,0.01563122868537903,-0.013886463828384876,-0.007426468189805746,0.07678636163473129,-0.0004011625424027443,-0.09954828768968582,0.04262237623333931,-0.10561442375183105,0.029925014823675156,0.04190122336149216,0.07027298957109451,-0.08652757853269577,0.10650795698165894,-0.0430038683116436,0.02275208570063114,-0.06738633662462234,0.07461981475353241,-0.08521907031536102,0.07455319911241531,0.04328514263033867,0.08048491925001144,-0.056542716920375824,-0.0497402660548687,-0.050762295722961426,-0.00154152512550354,-0.018568171188235283,0.010889166034758091,-0.018883487209677696,-0.04206698387861252,-0.07600925117731094,0.04071328416466713,0.03645950183272362,-0.04419714957475662,0.04964601621031761,-0.04266710579395294,0.07319270074367523,-0.008464259095489979,0.037705425173044205,0.03254371136426926,0.013252160511910915,0.018033448606729507,-0.05916668474674225,0.024478986859321594,0.07486378401517868,-0.03453324735164642,0.018512792885303497,-0.08837109804153442,0.019974149763584137,-0.01640663668513298,-0.008654596284031868,0.021600885316729546,0.06259582936763763,0.002104338724166155,-0.002007356146350503,0.02867717668414116,-0.034605104476213455,-0.1121973767876625,0.07975903153419495,0.04455885663628578,-0.0708472803235054],[0.06349099427461624,0.04590761289000511,0.0395299457013607,-0.09700470417737961,0.014787817373871803,-0.049318816512823105,-0.10191536694765091,-0.08149698376655579,-0.08174487948417664,0.03248601406812668,-0.006886489223688841,-0.036958761513233185,-0.004440737422555685,0.04148895666003227,0.0330532006919384,-0.042132195085287094,0.07916933298110962,-0.07362451404333115,-0.05811605975031853,0.07666045427322388,-0.07928266376256943,-0.07439779490232468,0.09593214839696884,0.08508163690567017,0.06985320895910263,-0.021607331931591034,-0.06742700189352036,0.08288326114416122,-0.09514732658863068,-0.03084172122180462,0.064097099006176,0.0038174642249941826,0.06357201933860779,0.09936045110225677,0.014602947048842907,0.046514179557561874,0.09604950249195099,0.008968152105808258,-0.06375008821487427,0.012435700744390488,-0.02646121196448803,0.04515458643436432,-0.010838237591087818,0.07350655645132065,-0.05349221080541611,-0.06396622210741043,-0.055639948695898056,0.060025159269571304,-0.04135054722428322,0.03581143170595169,0.040792591869831085,-0.004001358523964882,0.0032892306335270405,-0.05462881550192833,0.07558764517307281,0.021774476394057274,-0.059694092720746994,-0.04621519893407822,-0.04390234500169754,0.057575542479753494,-0.05740397423505783,-0.007575931493192911,-0.06895224004983902,-0.03471553325653076,-0.07224749773740768,0.0798785537481308,-0.05048849433660507,-0.0730462446808815,0.003000612836331129,-0.058442894369363785,-0.08416595309972763,-0.03966689854860306,-0.02655440755188465,-0.06481631845235825,-0.057941872626543045,-0.08512713015079498,0.0276106558740139,-0.018358707427978516,-0.053642161190509796,0.0053597246296703815,-0.07854766398668289,0.0553566999733448,-0.09352084994316101,-0.05514287203550339,-0.004497162532061338,-0.06322044879198074,0.04545527696609497,-0.03452939912676811,0.004797476809471846,0.0989159643650055,0.015046395361423492,0.058636125177145004,-0.07807547599077225,0.03360185772180557,0.0567929670214653,-0.027989065274596214,-0.0073210145346820354,-0.013362530618906021,-0.0763545110821724,0.02890695631504059,-0.0003250319277867675,-0.029477601870894432,0.04895160347223282,-0.01283161249011755,-0.047660741955041885,0.05322534963488579,-0.055207058787345886,-0.10381514579057693,-0.09254045784473419,-0.05602656304836273,0.10000593960285187,-0.012003961019217968,0.04456380382180214,-0.04351086542010307,-0.003637762274593115,0.06889783591032028,0.05029796063899994,-0.01592888869345188,-0.00817024614661932,-0.03917215019464493,-0.01759384758770466,0.02240915037691593,0.08242981880903244,-0.02550402842462063,-0.006849661003798246,-0.08355014771223068,0.07904060184955597,0.009513690136373043],[0.06991486996412277,0.057900428771972656,-0.06502623111009598,-0.04466083273291588,0.06383216381072998,-0.03475719690322876,0.051899198442697525,-0.04341402277350426,0.03903986141085625,-0.05272521823644638,-0.0012064104666933417,0.08240339159965515,-0.039121825248003006,0.06574073433876038,0.04859346151351929,-0.0006968197412788868,-0.00720011442899704,0.02506357990205288,-0.032135166227817535,-0.110117606818676,0.060178499668836594,-0.02645515650510788,0.05832745507359505,0.07039953768253326,-0.012757940217852592,0.05163824185729027,-0.04106459394097328,-0.012139354832470417,-0.05280858278274536,0.09060461074113846,0.03759013116359711,-0.09052132070064545,0.03255502134561539,-0.05023961886763573,0.044266652315855026,0.007569188717752695,-0.029568273574113846,-0.020380333065986633,0.00833156332373619,-0.045152727514505386,-0.05389824137091637,-0.014531726017594337,0.023058300837874413,-0.0871969610452652,0.08742108941078186,-0.0035220440477132797,0.06382354348897934,-0.04953369125723839,0.0318719781935215,0.02709101140499115,-0.011489855125546455,-0.05941556766629219,0.02658720687031746,-0.03703576698899269,-0.07603833824396133,0.04539647325873375,0.047578539699316025,0.022272082045674324,-0.062280382961034775,0.015201406553387642,0.031208736822009087,0.07279424369335175,-0.05619794502854347,-0.012504888698458672,0.006612827535718679,0.05310894921422005,-0.08616451919078827,0.03998744860291481,0.042319852858781815,0.07416350394487381,0.078936368227005,-0.035337138921022415,-0.047580163925886154,-0.01712150126695633,0.027661949396133423,0.023074833676218987,-0.07704765349626541,-0.08180373162031174,-0.01921006105840206,-0.06912782043218613,-0.020295413210988045,-0.009407502599060535,0.010662723332643509,-0.09513609856367111,0.027486184611916542,0.022020887583494186,0.017620645463466644,-0.023118402808904648,0.047543518245220184,0.05227028578519821,-0.06611184030771255,0.00517745828256011,-0.06337499618530273,-0.029401440173387527,-0.04037782922387123,-0.016879232600331306,0.08427371084690094,0.08495468646287918,-0.03333121910691261,0.07361486554145813,0.09550963342189789,0.022800790145993233,0.07289531826972961,0.06030105799436569,0.09433453530073166,0.014691894873976707,0.036582160741090775,0.08662688732147217,-0.0028328641783446074,-0.03760634735226631,-0.0073325373232364655,-0.05618215724825859,0.004150253254920244,-0.040973130613565445,-0.0522821806371212,0.09193838387727737,0.08759523928165436,0.061729274690151215,0.0945010632276535,0.020474743098020554,0.018317123875021935,-0.08166278898715973,-0.01853219047188759,-0.07413326948881149,0.06224159896373749,-0.02150890603661537,-0.025919020175933838,0.06982056051492691],[0.0907907485961914,0.062103647738695145,0.02653363160789013,0.03592238575220108,0.05448497459292412,0.031094996258616447,-0.003214361146092415,-0.013566277921199799,0.04046612232923508,-0.07771347463130951,0.037411224097013474,0.009819775819778442,0.0820794478058815,-0.05878942087292671,-0.015823546797037125,0.10044905543327332,0.037884727120399475,-0.04164383187890053,-0.07792496681213379,-0.024980105459690094,0.03861697390675545,0.10301268100738525,0.10664303600788116,-0.035358551889657974,-0.0549587719142437,0.05289024859666824,0.01582369953393936,0.06890923529863358,-0.08601351082324982,0.020907312631607056,-0.02604827471077442,0.005999109707772732,-0.04978388175368309,-0.055216219276189804,-0.05524979904294014,0.0010793970432132483,-0.08010896295309067,-0.018534861505031586,-0.0494794137775898,0.009431741200387478,0.07065705209970474,-0.014304516837000847,0.0029758159071207047,-0.07405515015125275,0.0006286224233917892,-0.07634732127189636,0.014481140300631523,-0.06488484144210815,-0.06684250384569168,-0.0513174794614315,0.06708358973264694,0.0683501735329628,0.0780516117811203,-0.011360435746610165,-0.039659470319747925,0.01811201311647892,-0.031626470386981964,0.06700648367404938,0.07632149755954742,-0.06554531306028366,0.05106288567185402,-0.03225966915488243,0.043817393481731415,-0.012385902926325798,-0.04613322764635086,0.010477946139872074,0.04250694438815117,0.027795763686299324,-0.006648228503763676,0.07563632726669312,-0.050618115812540054,0.012819874100387096,0.03193894773721695,-0.1164778620004654,0.02549790032207966,-0.07217012345790863,0.03854125738143921,-0.057354576885700226,-0.014194903895258904,-0.0897940844297409,0.037674807012081146,0.09142263978719711,0.049155883491039276,-0.03156249225139618,0.0704893097281456,0.006302155088633299,0.002357994206249714,-0.02583419159054756,0.11176440864801407,-0.05915728583931923,0.08335663378238678,0.08847897499799728,0.020260045304894447,0.0011873692274093628,-0.04946688190102577,0.01461927592754364,0.0008743845392018557,-0.054901447147130966,0.01695244200527668,0.060762014240026474,0.023258473724126816,-0.0392010398209095,0.02990938536822796,0.037497613579034805,-0.04396072030067444,-0.042778484523296356,0.06681869924068451,0.059294383972883224,-0.06709803640842438,-0.06258025020360947,0.0924752801656723,-0.05790435150265694,0.00856881495565176,-0.040859825909137726,0.015549801290035248,-0.07810575515031815,0.046398892998695374,0.04936867207288742,-0.08591055124998093,0.015425829216837883,0.005647077690809965,0.09677787125110626,-0.05284634232521057,-0.06488728523254395,-0.0415094755589962,-0.07593555003404617,-0.04039418697357178,-0.05686236917972565],[0.0032027512788772583,0.029962608590722084,0.008369533345103264,0.047971755266189575,0.03864685818552971,-0.08793969452381134,-0.03255992382764816,0.09639321267604828,0.06490398943424225,-0.0809820368885994,0.0373002253472805,-0.09201356023550034,0.06986426562070847,0.07224194705486298,0.0015637303004041314,-0.06368552893400192,-0.05090361088514328,0.09905614703893661,-0.07704286277294159,-0.10470771789550781,-0.08378410339355469,0.0031223162077367306,0.02639474906027317,-0.053780391812324524,0.06136304512619972,0.05245859548449516,-0.048625461757183075,-0.05083581432700157,0.06364207714796066,0.052353281527757645,-0.007280547637492418,0.035412468016147614,0.01600487530231476,-0.05235889181494713,-0.08652309328317642,-0.06677920371294022,-0.10887208580970764,-0.061296045780181885,-0.02790064737200737,-0.027792546898126602,-0.06839001923799515,0.08711597323417664,-0.04521762579679489,0.021817952394485474,-0.0616442933678627,-0.018352322280406952,-0.0635601207613945,0.07704184949398041,-0.04575350880622864,-0.025714023038744926,0.09639899432659149,-0.013489477336406708,0.06085296720266342,-0.030014660209417343,-0.04745429381728172,0.05365286394953728,0.03362859785556793,0.018727824091911316,0.06560208648443222,0.019668355584144592,0.039136920124292374,-0.04896007478237152,-0.020708391442894936,0.0533173643052578,-0.06935467571020126,-0.0216615479439497,-0.05866267532110214,0.0460670068860054,0.07734954357147217,0.04627598449587822,0.03636015206575394,-0.04564205929636955,-0.03425363823771477,-0.09848635643720627,0.023921767249703407,0.07976960390806198,-0.01842324808239937,-0.005686908029019833,0.021515846252441406,-0.03478451818227768,0.10609794408082962,0.023506999015808105,-0.022979285567998886,0.025867808610200882,0.01687701605260372,-0.021310899406671524,0.07146921008825302,-0.10692474246025085,0.09953544288873672,-0.09373949468135834,0.0034033949486911297,-0.022029267624020576,-0.011916580609977245,0.007274532690644264,0.04839722439646721,-0.0656275674700737,0.045721154659986496,-0.009201125241816044,-0.0009190876153297722,0.017167706042528152,0.025921469554305077,-0.008323525078594685,-0.07590323686599731,-0.07525407522916794,0.08267449587583542,0.04593916982412338,0.027877382934093475,0.03301559388637543,-0.015083389356732368,0.07930599898099899,0.04812341928482056,0.05371531471610069,-0.06975793838500977,0.019981656223535538,0.0155566968023777,0.030179644003510475,0.05847848951816559,0.08937114477157593,-0.0008190996595658362,0.06686139106750488,-0.06384330242872238,0.03841523081064224,0.018923606723546982,0.09438636153936386,0.020894762128591537,0.0984860509634018,-0.009376992471516132,0.019164294004440308],[0.06918966770172119,0.055308397859334946,0.055589184165000916,-0.045132480561733246,-0.04008471220731735,-0.051028843969106674,-0.029686111956834793,0.06656710803508759,0.07806233316659927,0.032241661101579666,0.0017511696787551045,0.04900592565536499,0.03373671695590019,-0.1156352236866951,0.0052418177947402,0.027194824069738388,-0.01768866740167141,-0.09541811048984528,-0.0022664221469312906,0.09333794564008713,-0.017778148874640465,-0.0928678885102272,0.0965573638677597,0.015974586829543114,0.0189861748367548,0.028313545510172844,0.026424510404467583,-0.06339341402053833,-0.09118378162384033,-0.0013320505386218429,0.006908732932060957,-0.08093664050102234,0.08218417316675186,-0.06046418100595474,-0.0767284408211708,-0.0008683226187713444,-0.0021551826503127813,-0.01724633015692234,-0.07538741827011108,0.05461212620139122,-0.04950179532170296,-0.015994984656572342,0.05709508806467056,0.06375354528427124,0.06973128765821457,-0.04832369089126587,0.05783779174089432,-0.03470896929502487,-0.07283759862184525,0.0029837770853191614,-0.004724111873656511,0.0738929808139801,-0.061413515359163284,-0.01175794005393982,-0.003628653706982732,-0.039095863699913025,0.07364100962877274,-0.05244694650173187,-0.08405236154794693,0.00027852729544974864,0.03940355405211449,-0.06577812880277634,0.08046267181634903,0.0747942328453064,-0.03943463787436485,-0.029027050361037254,-0.020807212218642235,0.08069834113121033,-0.01019961852580309,0.06252800673246384,-0.05852128192782402,-0.01775929518043995,0.09423359483480453,0.04602443426847458,0.02957119420170784,-0.050887614488601685,0.01046305987983942,0.07806333154439926,0.003845281433314085,-0.030321791768074036,0.05971049889922142,-0.019360188394784927,0.07503367960453033,0.021093333140015602,0.04690375179052353,0.03789587691426277,0.08645749092102051,-0.03228684887290001,0.025320464745163918,-0.036789070814847946,0.07190384715795517,0.07843800634145737,0.05735434964299202,0.02732909470796585,0.09830942004919052,0.017827188596129417,-0.014154159463942051,0.028109639883041382,-0.011496814899146557,0.04690791293978691,-0.021318648010492325,-0.07478462159633636,0.016132615506649017,0.06977666169404984,-0.0714690089225769,0.08993589133024216,-0.046454012393951416,-0.08805582672357559,0.02632227912545204,0.006869690027087927,0.01130941417068243,0.0713031068444252,-0.01083992701023817,0.06731358915567398,-0.008568535558879375,0.07632923126220703,-0.052957478910684586,-0.032267872244119644,0.06001732870936394,-0.014315146952867508,-0.00962848961353302,-0.04811457172036171,0.058929841965436935,0.03712856024503708,-0.027699407190084457,0.04775557294487953,-0.009896129369735718,0.029914207756519318],[0.010488346219062805,0.07066777348518372,0.04584020748734474,0.030683433637022972,0.010685901157557964,0.05281616374850273,-0.019181130453944206,-0.03196217119693756,0.030782071873545647,-0.05558879300951958,-0.09603969007730484,-0.06075207516551018,-0.07544001936912537,-0.03660744056105614,-0.025599893182516098,0.034497328102588654,-0.037035055458545685,-0.0166922677308321,0.040739987045526505,-0.029030615463852882,0.024964382871985435,-0.04749181494116783,-0.08920701593160629,-0.06150870770215988,0.002384714549407363,0.024002280086278915,0.03655855730175972,-0.0012093237601220608,0.06789985299110413,-0.0812937319278717,-0.07226835191249847,-0.03326176851987839,0.04251331835985184,-0.013944635167717934,0.005039232783019543,-0.08143024146556854,-0.041125740855932236,0.07480967789888382,-0.028276758268475533,-0.07930053770542145,0.023035937920212746,-0.05724985897541046,0.021838122978806496,-0.035562075674533844,0.08992259949445724,-0.04432274401187897,-0.019343968480825424,-0.016491279006004333,0.018220679834485054,-0.02822219207882881,0.09268539398908615,0.025482306256890297,0.020111188292503357,-0.0031303889118134975,0.0028030951507389545,-0.01468703057616949,0.055580250918865204,-0.09224288910627365,-0.01964295282959938,-0.019771987572312355,-0.027793165296316147,0.056654609739780426,-0.014237403869628906,0.0022878998424857855,0.029254166409373283,0.04476567730307579,0.0191415473818779,-0.03713167831301689,0.05345671623945236,0.0014561144635081291,0.08940534293651581,-0.07093874365091324,-0.05932987853884697,-0.10653714835643768,0.02286394312977791,-0.05931374430656433,0.03689117357134819,-0.08194564282894135,-0.025048810988664627,-0.024148544296622276,-0.04347985237836838,-0.011814091354608536,-0.030225206166505814,-0.06062254309654236,-0.032904621213674545,-0.05075055733323097,-0.001654416206292808,-0.09643828123807907,0.056469663977622986,-0.030400045216083527,0.05147489532828331,-0.07347849011421204,-0.027441972866654396,0.05592289939522743,-0.07452961057424545,0.058662548661231995,-0.04751069098711014,-0.035081539303064346,0.0047219060361385345,-0.08064020425081253,-0.07462340593338013,0.020159302279353142,0.012005683034658432,0.038826797157526016,-0.05428887531161308,-0.08382765203714371,-0.05435774847865105,-0.06058855727314949,0.02700253203511238,-0.056620825082063675,-0.10223748534917831,0.0005768919945694506,-0.06634213775396347,0.007460279390215874,0.08248777687549591,-0.08397277444601059,0.0009663060773164034,0.007818327285349369,-0.05073026940226555,0.05311382934451103,0.011232982389628887,-0.01857597939670086,-0.04506109282374382,-0.0025006632786244154,-0.04380185157060623,0.06945931911468506,-0.041554003953933716,0.05437203124165535],[0.09422388672828674,-0.015767281875014305,0.018406115472316742,0.01208131667226553,-0.07943212240934372,-0.057758819311857224,0.03852114826440811,0.012163352221250534,0.0730411633849144,0.04767508804798126,0.08424244821071625,-0.03359781578183174,-0.05230339616537094,-0.07824966311454773,-0.06880875676870346,-0.00267796847037971,-0.06533704698085785,0.02839663065969944,-0.06417829543352127,-0.02899637445807457,-0.07002796977758408,-0.0017621825681999326,0.09856816381216049,0.0007307141786441207,-0.05362109839916229,-0.0355125330388546,-0.012818396091461182,-0.07815785706043243,0.03890017420053482,0.07614564150571823,-0.05436746031045914,0.07532690465450287,0.01075713336467743,-0.03160622715950012,0.07722844928503036,-0.06266738474369049,-0.023354683071374893,-0.0508350245654583,0.027898896485567093,0.056226592510938644,-0.0003591635904740542,-0.09611736983060837,-0.0665278509259224,-0.05059478059411049,-0.01879475824534893,-0.026962684467434883,-0.0008023350965231657,0.05082184448838234,0.03698483854532242,-0.0460021086037159,0.06976369768381119,0.06573091447353363,0.07001277059316635,0.054099276661872864,0.06053008884191513,0.009020292200148106,-0.04863865673542023,-0.0075270733796060085,0.07839582115411758,0.06329227238893509,-0.014834003522992134,0.04569825902581215,-0.06465713679790497,0.08281955122947693,0.07299760729074478,-0.048924416303634644,0.04268648475408554,0.08387671411037445,0.04426420480012894,-0.07748955488204956,-0.062329430133104324,0.029475117102265358,-0.051896605640649796,-0.0012068309588357806,0.04907480999827385,-0.028841471299529076,0.041462451219558716,-0.04184616729617119,0.09306825697422028,0.024153348058462143,0.07914438098669052,-0.006988375913351774,0.035747285932302475,0.04830028861761093,-0.05235587805509567,0.024980587884783745,0.03665776550769806,0.06093917787075043,0.005817338824272156,0.09751929342746735,0.042024292051792145,0.10649121552705765,0.034702595323324203,0.049256082624197006,-0.07349791377782822,-0.03451796621084213,-0.055866703391075134,-0.02677857130765915,0.07951652258634567,0.016137540340423584,0.06213303282856941,-0.05276630073785782,-0.01170238759368658,-0.04957151785492897,-0.07206542789936066,-0.045554667711257935,0.007077782414853573,-0.10104693472385406,-0.11212459206581116,0.07677505910396576,-0.028993379324674606,-0.080333411693573,-0.045785047113895416,0.02627655491232872,-0.006630267016589642,-0.005387680605053902,-0.047975100576877594,-0.015582608990371227,-0.010352675803005695,0.06301745772361755,0.0493970587849617,0.02184355817735195,-0.07882589101791382,-0.0009415541426278651,-0.017325805500149727,0.04067618027329445,0.013382185250520706,0.030163167044520378],[0.0334293358027935,-0.051967933773994446,0.017556780949234962,0.02219538949429989,-0.03935268893837929,0.043810538947582245,-0.015692776069045067,0.03871813043951988,-0.0017859487561509013,0.07271090149879456,-0.06289318948984146,0.04634621739387512,0.06919275969266891,-0.026588594540953636,0.043437447398900986,0.06848960369825363,-0.03966692090034485,0.04425402730703354,-0.07594867050647736,-0.013370220549404621,-0.03524915501475334,0.045399244874715805,0.07658084481954575,-0.055610254406929016,-0.012618143111467361,0.0689394623041153,-0.03788929432630539,0.02867010608315468,-0.016944553703069687,-0.08215882629156113,-0.014132306911051273,0.07444930076599121,0.05129377916455269,0.11581992357969284,0.03362533822655678,-0.06695029139518738,0.04458439722657204,0.051811784505844116,-0.03703567013144493,-0.07059518247842789,0.05342792719602585,-0.06704183667898178,0.07899043709039688,0.08258330076932907,0.019882237538695335,-0.028145872056484222,0.026599818840622902,0.04204103723168373,0.04468458518385887,-0.03005959652364254,0.051748618483543396,0.10338093340396881,0.03539359197020531,0.06758549064397812,-0.051342424005270004,0.044695619493722916,0.044125597923994064,-0.02293945476412773,-0.030909745022654533,0.07302773743867874,-0.017117641866207123,-0.07587467133998871,0.07311815768480301,0.00740450294688344,-0.09409960359334946,-0.08399134874343872,0.052743349224328995,0.08882587403059006,0.061838578432798386,-0.08165586739778519,0.03320968151092529,0.015755094587802887,-0.052480101585388184,-0.014300313778221607,-0.08848729729652405,-0.03354150801897049,0.050820570439100266,0.0651954710483551,-0.0437459833920002,0.07134025543928146,-0.07146649062633514,0.03184380382299423,0.028949711471796036,0.006378966383635998,-0.015610644593834877,0.0269332118332386,0.08118464052677155,-0.06407548487186432,-0.0387142188847065,0.08392800390720367,-0.07064143568277359,0.050952017307281494,0.07104738056659698,-0.08405684679746628,-0.04650232195854187,-0.02290939725935459,-0.004171616397798061,0.05569324642419815,0.054605431854724884,0.023029284551739693,0.043205901980400085,0.07341274619102478,-0.03958868607878685,-0.06657763570547104,0.02436974085867405,-0.0018064610194414854,0.03162115439772606,-0.06245670095086098,0.013207060284912586,0.011615007184445858,-0.03789060562849045,-0.04944431036710739,0.0673682689666748,0.08212453871965408,0.03705112636089325,0.052602626383304596,-0.0067966110073029995,0.014118722639977932,0.03708365559577942,-0.07420214265584946,-0.03133159875869751,-0.063046894967556,-0.027502989396452904,-0.07737702876329422,0.05720027536153793,-0.07237277179956436,-0.025851164013147354,-0.013213736936450005],[0.06469149142503738,-0.05143585056066513,0.08715392649173737,0.05791603773832321,-0.09243977814912796,-0.007028492167592049,0.0681658387184143,0.02254009246826172,0.08336152136325836,-0.060058366507291794,0.05603204295039177,-0.03642723336815834,0.020667091012001038,-0.015147601254284382,0.011970078572630882,0.05992400273680687,0.022474156692624092,0.04979763180017471,-0.05861221253871918,0.002669123699888587,-0.03948115557432175,0.025556595996022224,-0.07154686003923416,0.07341594249010086,0.05066681653261185,-0.0649634301662445,0.040975283831357956,0.05559263378381729,0.0945340022444725,0.034510497003793716,-0.031600698828697205,-0.07329689711332321,0.05867654085159302,0.03698103502392769,-0.015014870092272758,0.058203354477882385,0.06434042006731033,-0.08361319452524185,0.0016969111748039722,0.007999330759048462,0.043118733912706375,0.0269705131649971,-0.04745163023471832,0.010125291533768177,-0.06909333914518356,-0.03249877691268921,-0.03644620627164841,-0.07513254880905151,0.04373252019286156,0.007192189805209637,0.05797101557254791,0.06542698293924332,0.06700178235769272,0.07014459371566772,-0.02798803523182869,0.07179372757673264,-0.09015893191099167,-0.06123927980661392,-0.05820488929748535,0.02681024745106697,0.09158550202846527,0.029699301347136497,0.07962905615568161,0.04015073925256729,0.06712791323661804,-0.00489713903516531,-0.07802307605743408,0.04484575614333153,0.00528647331520915,0.06885331869125366,-0.04810449853539467,0.01409899815917015,-0.08193669468164444,0.04432306066155434,0.08465620130300522,0.043961137533187866,0.07122359424829483,0.08564452081918716,-0.003415386425331235,0.01425405964255333,-0.009821790270507336,0.001936093787662685,-0.02656916156411171,0.00791777390986681,0.047454483807086945,-0.036447640508413315,0.04564005881547928,0.03586704656481743,0.015075876377522945,-0.022782044485211372,-0.08892756700515747,0.04633622616529465,0.0021047242917120457,-0.00015098159201443195,-0.06393323838710785,-0.021911032497882843,-0.043659012764692307,2.961439167847857e-05,-0.05352448299527168,0.08759462088346481,-0.015486238524317741,-0.10614550113677979,0.03817848116159439,-0.08332851529121399,0.11236047744750977,0.07700993120670319,-0.061906177550554276,0.0933951586484909,-0.06447184830904007,-0.049335792660713196,-0.07749761641025543,-0.07611259818077087,-0.07794226706027985,-0.02087746001780033,0.09359293431043625,-0.06263130158185959,-0.035582635551691055,0.009735998697578907,0.05068183317780495,0.02299441210925579,-0.08515472710132599,0.02919306606054306,-0.07441984862089157,0.09885556995868683,0.03367585688829422,-0.05628166347742081,0.03009927086532116,-0.055196139961481094],[-0.03641897439956665,-0.07735909521579742,-0.05864406004548073,0.011134815402328968,0.04112636297941208,0.017598304897546768,0.04060773551464081,0.016347745433449745,0.08303774893283844,-0.03083554096519947,0.06619102507829666,-0.06878127157688141,0.09066788852214813,-0.04408661276102066,-0.07551752775907516,-0.04853292554616928,0.032924164086580276,0.06207546219229698,0.048128265887498856,-0.10561119019985199,0.010516103357076645,-0.07478842884302139,-0.0614037923514843,0.0010115043260157108,-0.019158389419317245,0.07809751480817795,-0.06351693719625473,0.09368801862001419,-0.06697238236665726,-0.06310607492923737,-0.09662126749753952,-0.047077927738428116,-0.03303065896034241,-0.008058922365307808,-0.06130389869213104,-0.005306674633175135,-0.04053058847784996,-0.04333095997571945,0.031107928603887558,0.05938625708222389,0.023301176726818085,-0.06475069373846054,-0.08416373282670975,0.03221955522894859,-0.026173185557127,-0.05015411972999573,0.08241721987724304,0.059212908148765564,-0.03599138557910919,-0.07441513985395432,-0.04170510917901993,0.06391468644142151,0.024128634482622147,-0.007915081456303596,0.006103998050093651,0.018522953614592552,0.04576091095805168,-0.07378394901752472,0.015655305236577988,-0.0756906047463417,0.056063249707221985,-0.07402557134628296,0.06421969830989838,-0.09426083415746689,0.07368186116218567,0.003862171433866024,-0.0454418770968914,-0.03425304591655731,-0.047385890036821365,0.04910973459482193,-0.001001934171654284,-0.03894134610891342,-0.022928383201360703,0.030830183997750282,0.028519056737422943,-0.01674177311360836,-0.04851904883980751,0.02457689866423607,0.024915996938943863,0.016629276797175407,-0.03800530731678009,0.03635628521442413,-0.011567221954464912,0.0199600737541914,-0.005068555008620024,-0.029848430305719376,-0.0738254114985466,0.03577239438891411,0.09867474436759949,0.0595390647649765,0.011838662438094616,0.009340249933302402,-0.003571984823793173,-0.06084495410323143,-0.09919123351573944,-0.05356581136584282,0.019792385399341583,-0.04445922002196312,0.05746282637119293,-0.08431054651737213,-0.04997045546770096,-0.06936363130807877,0.04813007637858391,-0.08050744980573654,-0.04647001624107361,-0.08263169229030609,0.06516817957162857,0.024372782558202744,-0.05326386168599129,0.09022445976734161,0.0021947622299194336,-0.03853403404355049,0.004888901486992836,0.007057087495923042,-0.016434963792562485,-0.03088122420012951,-0.03071223571896553,-0.003524076659232378,-0.08881630003452301,0.08431336283683777,-0.019479788839817047,-0.018186956644058228,-0.009660295210778713,0.008786236867308617,-0.05484812334179878,0.029334472492337227,0.043357960879802704,0.025946667417883873],[0.06212001293897629,-0.0762859582901001,-0.05313184857368469,-0.03354271501302719,-0.039000049233436584,-0.024527177214622498,-0.017082475125789642,0.0011514747748151422,0.0819166973233223,-0.08652258664369583,-0.08611985296010971,-0.04005150496959686,0.008177686482667923,0.06195996329188347,-0.02997530996799469,0.06084642931818962,0.07953863590955734,0.09432313591241837,-0.05029621720314026,-0.032110534608364105,-0.011858250945806503,0.04389379918575287,0.0683426484465599,0.08049508184194565,0.0043144384399056435,0.03792792558670044,0.012692708522081375,-0.08367152512073517,0.012049198150634766,-0.0008505579899065197,-0.025469431653618813,0.014908342622220516,-0.04523462429642677,-0.039038460701704025,0.060749705880880356,0.017459319904446602,-0.10775573551654816,-0.06034890562295914,0.059208884835243225,0.017110364511609077,0.026529651135206223,-0.052081767469644547,-0.02589184232056141,-0.005324214231222868,-0.010768010281026363,0.061775755137205124,-0.0897422730922699,0.056401822715997696,-0.045147739350795746,0.05978241562843323,0.09444968402385712,-0.01686207205057144,-0.0014994129305705428,0.06268929690122604,0.04180879890918732,-0.018261218443512917,-0.04993165284395218,0.02272677980363369,0.0007717043627053499,0.027028126642107964,0.029711034148931503,0.013104209676384926,-0.03290063515305519,0.04651416838169098,0.01986624114215374,-0.06079980731010437,-0.0022975464817136526,0.01991431787610054,0.01142449676990509,0.059610091149806976,0.0063704210333526134,0.045288749039173126,-0.09034688025712967,-0.012183673679828644,0.06754778325557709,0.09893827885389328,0.004588008392602205,0.0014655252452939749,-0.06010004132986069,0.06381549686193466,0.08475419133901596,-0.017866846174001694,-0.0757538378238678,0.0404292568564415,0.009655979461967945,-0.038210444152355194,0.010182318277657032,-0.04892696067690849,-0.049136485904455185,-0.031653136014938354,0.048863813281059265,0.021251603960990906,-0.029133686795830727,0.011702273041009903,0.04452880099415779,-0.09903933107852936,-0.047014020383358,-0.058757297694683075,-0.07401125133037567,0.045431364327669144,0.08102594316005707,-0.06877017021179199,-0.03495822846889496,0.05875585973262787,0.029225602746009827,-0.03178982809185982,0.08581909537315369,0.10046479105949402,-0.004802661947906017,0.03321695327758789,0.05226403474807739,-0.005003616213798523,0.025383707135915756,0.041256096214056015,0.07418321073055267,-0.07762237638235092,0.06550279259681702,0.049927614629268646,-0.05485784262418747,0.028130216524004936,-0.011254854500293732,-0.0876675620675087,0.048038531094789505,0.031079605221748352,0.0665028989315033,-0.06885668635368347,0.03245982527732849,0.06527582556009293],[0.08120810240507126,-0.08163641393184662,-0.006373443175107241,0.0035544175188988447,0.06594566255807877,0.07710408419370651,0.002068545203655958,-0.03663279488682747,-0.02962188795208931,0.07560878992080688,-0.023428449407219887,0.06311611086130142,-0.044192004948854446,-0.10493143647909164,-0.07179712504148483,0.010763294994831085,-0.08872520923614502,-0.03858104348182678,-0.0019417182775214314,-0.037355389446020126,0.009675434790551662,-0.03390992060303688,-0.05468808114528656,0.004437181632965803,-0.045289162546396255,-0.015177800320088863,0.03724446892738342,-0.011694272980093956,0.06750635802745819,0.06310365349054337,0.01919032447040081,0.03610866516828537,0.015195023268461227,-0.09037988632917404,-0.052652277052402496,-0.006228194106370211,0.06939204037189484,0.018533198162913322,-0.07332226634025574,-0.007889347150921822,0.08229943364858627,0.043435271829366684,0.0635446086525917,-0.026542991399765015,0.07164090126752853,-0.03176233544945717,0.07602532207965851,-0.04068692773580551,0.039160262793302536,0.027947556227445602,0.043410513550043106,0.015013668686151505,0.023865999653935432,-0.0021725439000874758,-0.06439030170440674,-0.06360404938459396,-0.030009903013706207,-0.011497261933982372,0.017077242955565453,0.08136078715324402,0.0729292631149292,-0.009742897003889084,0.0787149965763092,0.07527636736631393,-0.02278376929461956,-0.043111588805913925,-0.012757093645632267,-0.024424700066447258,-0.055534251034259796,0.07836419343948364,0.059233296662569046,-0.002378291916102171,0.02655685879290104,-0.01620103418827057,0.04395710304379463,-0.061041343957185745,-0.05335383489727974,0.06396046280860901,0.09098149091005325,0.07541455328464508,-0.03579540178179741,0.016402652487158775,-0.005625749938189983,-0.014107756316661835,0.09034828841686249,0.07839515060186386,0.09031818062067032,0.08493789285421371,0.05000609904527664,-0.014754408039152622,0.045045994222164154,0.00041045784018933773,-0.04952612891793251,-0.0036667082458734512,0.04998394474387169,-0.03503793850541115,0.10385396331548691,-0.04258505627512932,0.08570218086242676,0.010927418246865273,0.06784535944461823,0.005839642137289047,0.03441439941525459,0.025246482342481613,-0.04540944844484329,-0.03833251819014549,-0.09166710823774338,0.041700974106788635,-0.023253479972481728,-0.07289501279592514,-0.059648096561431885,-0.08963491022586823,-0.0004361250903457403,-0.028780324384570122,-0.027157315984368324,-0.07454343885183334,-0.05094893276691437,0.04017367959022522,0.016700107604265213,0.026883922517299652,0.015900863334536552,0.08806417882442474,-0.005876448936760426,0.07416416704654694,0.02682468853890896,-0.04359196871519089,0.0035207390319556,0.05763237178325653],[0.03385145589709282,0.03787432610988617,0.07574205100536346,-0.06841177493333817,0.05743873864412308,-0.05269716680049896,0.0651017427444458,0.009849495254456997,0.0687367245554924,0.07171718776226044,-0.03556538745760918,-0.04248407110571861,-0.013499708846211433,0.04819682240486145,0.0630224421620369,0.07034970819950104,-0.07263154536485672,-0.03363296017050743,-0.04453372582793236,0.054175227880477905,-0.050190865993499756,0.0033367848955094814,0.04123967885971069,0.05880185589194298,0.041947152465581894,-0.0841032862663269,0.04065268859267235,-0.01513094175606966,0.04471132159233093,-0.06734298169612885,0.006517110392451286,0.04886956512928009,-0.08358003199100494,-0.005743104033172131,-0.022703466936945915,-0.003666725242510438,-0.08309771120548248,-0.08810461312532425,-0.04946292191743851,-0.05991031602025032,0.049316927790641785,0.08180595189332962,-0.06355588883161545,0.07916168123483658,0.027127733454108238,-0.04734824225306511,-0.08339009433984756,0.0077614388428628445,-0.06439687311649323,0.03995406627655029,0.011146524921059608,0.04292818158864975,-0.06833910942077637,0.0136721171438694,0.04506680369377136,0.015113295055925846,-0.08774001896381378,-0.05801285430788994,0.03718428686261177,-0.016281913965940475,0.034502506256103516,-0.03496292978525162,0.02407672442495823,-0.015368753112852573,0.008431794121861458,-0.09861642122268677,0.01293399278074503,0.049749914556741714,0.00016680882254149765,0.00483324471861124,-0.017027946189045906,0.07060296833515167,-0.07809386402368546,0.02882431261241436,0.049638330936431885,0.09989888966083527,0.05230063572525978,-0.04084788262844086,-0.024425828829407692,0.03079962357878685,0.09110894054174423,-0.01713363453745842,0.041089024394750595,-0.09577222168445587,0.005955027416348457,0.055763110518455505,-0.006357186008244753,0.06439341604709625,0.09421252459287643,-0.06332504004240036,-0.0031674313358962536,-0.09261874109506607,0.0023231555242091417,0.0008688250090926886,0.059004154056310654,0.015439107082784176,0.044317472726106644,-0.0536593534052372,-0.03585760295391083,-0.00653292378410697,0.051716651767492294,0.011231602169573307,-0.07531310617923737,0.044014766812324524,0.08412234485149384,-0.06481967121362686,-0.0794176459312439,0.08142533153295517,-0.016479739919304848,0.04864419251680374,-0.059755731374025345,0.055770814418792725,0.03846154734492302,-0.03445057570934296,0.07680651545524597,-0.028518715873360634,0.009941905736923218,-0.004504442680627108,-0.0403028167784214,-0.013770940713584423,0.0014367956900969148,0.06576099991798401,-0.056777238845825195,-0.07035396993160248,0.06353165954351425,0.07483001798391342,0.037489116191864014,0.09061478823423386],[-0.0023782888893038034,-0.07147743552923203,-0.00925770215690136,-0.005597288254648447,0.055355485528707504,0.07342825829982758,0.053288642317056656,-0.048695843666791916,0.00015673683083150536,-0.04625740274786949,0.007945425808429718,-0.025745926424860954,-0.06312620639801025,0.04630070924758911,-0.015573925338685513,-0.059595074504613876,-0.04963602125644684,-0.05086209997534752,-0.052582789212465286,-0.04398661479353905,-0.05173812434077263,0.01651495322585106,0.06540770828723907,0.04944777116179466,-0.07761277258396149,-0.017456622794270515,0.048109445720911026,-0.011866794899106026,-0.0013887181412428617,0.03268813341856003,-0.004701454658061266,0.055721696466207504,0.06270503997802734,0.014207342639565468,-0.04492848366498947,0.05006124824285507,0.10626272112131119,0.04071749374270439,0.0779234915971756,0.002467650920152664,0.08644476532936096,0.05279037356376648,0.07917442917823792,0.08225086331367493,-0.061450693756341934,-0.015649456530809402,0.06694988906383514,-0.03813980892300606,-0.04309530556201935,0.024685265496373177,-0.08366812765598297,-0.06571268290281296,-0.04665224254131317,0.03314164653420448,-0.07377580553293228,-0.03550964966416359,0.05235647037625313,-0.05299719423055649,-0.00976649858057499,0.08879032731056213,0.07824763655662537,-0.02366586960852146,0.006301944609731436,0.01025646273046732,0.04434950649738312,0.09400776773691177,-0.05188322439789772,0.01557488925755024,0.06576307117938995,0.029919510707259178,0.012201892212033272,0.018251800909638405,0.09264469891786575,-0.07551786303520203,-0.08437071740627289,-0.10245725512504578,-0.04516850784420967,-0.07799622416496277,0.10355804860591888,0.005300262942910194,-0.10565120726823807,0.023707449436187744,0.07304850965738297,-0.05359160155057907,0.07284072041511536,-0.018758883699774742,0.05740462243556976,-0.05626697093248367,-0.02179352380335331,0.046373676508665085,-0.03738795593380928,0.04113593325018883,0.07522769272327423,0.06179329752922058,-0.007323901634663343,-0.0436258427798748,-0.013832124881446362,0.061075255274772644,-0.014706825837492943,0.028849409893155098,-0.07353278994560242,0.03515917807817459,-0.06245041638612747,0.011042505502700806,-0.057428520172834396,0.035893794149160385,0.004338872618973255,-0.05403749272227287,0.01967819221317768,-0.08880520612001419,-0.04254818335175514,-0.009754559956490993,0.09776061028242111,0.03245483338832855,0.07257167249917984,0.03635050356388092,-0.08793092519044876,-0.04193856567144394,0.011146006174385548,-0.04904044046998024,-0.027216387912631035,0.05469636619091034,0.052006542682647705,0.021599380299448967,-0.10385103523731232,-0.013492616824805737,-0.06536146998405457,0.01350739598274231],[-0.05478941276669502,-0.06735840439796448,0.0218246728181839,0.08747775107622147,-0.05672208219766617,-0.055205341428518295,0.07273442298173904,-0.04661906510591507,-0.07466699928045273,0.09024430811405182,0.0666406974196434,-0.06171049550175667,0.0826730877161026,0.10813891142606735,-0.07925604283809662,-0.013801854103803635,0.08565513789653778,0.08679896593093872,-0.050613489001989365,0.005002324469387531,0.01620998978614807,-0.036725498735904694,-0.09492788463830948,-0.048152342438697815,0.0517699159681797,0.02399890497326851,-0.05196923762559891,-0.0740446150302887,0.09093654155731201,-0.06869848817586899,0.054998014122247696,0.009067647159099579,0.05616075545549393,0.04916895180940628,-0.013366445899009705,-0.002679638797417283,0.036738961935043335,0.04585306718945503,-0.03532148897647858,-0.06617830693721771,0.0867554247379303,-0.03423801437020302,0.084304079413414,0.05824949964880943,0.09587566554546356,0.0552862174808979,0.025118708610534668,0.06262996792793274,-0.037316132336854935,0.009031961672008038,0.051224399358034134,0.05129585042595863,-0.07296907156705856,0.04850494861602783,0.007788072340190411,0.025553468614816666,-0.04557351395487785,-0.05069846287369728,0.0288607869297266,-0.004656500183045864,0.03635593131184578,-0.04419440031051636,-0.07488943636417389,0.05093244090676308,-0.02999737299978733,0.053319647908210754,0.06515789777040482,-0.045372772961854935,-0.03376780077815056,-0.07667097449302673,-0.04144320264458656,-0.06377720832824707,-0.007383395917713642,0.004298254381865263,-0.018705101683735847,0.00263401516713202,-0.013032719492912292,0.01023868191987276,-0.04152875021100044,0.03792949765920639,-0.0009953948901966214,0.03667445480823517,-0.053044144064188004,0.026796313002705574,-0.09026062488555908,0.061163537204265594,-0.051720455288887024,0.01392422616481781,-0.022518908604979515,-0.10387282073497772,-0.09004733711481094,-0.01781451515853405,-0.007626239210367203,0.07838451862335205,-0.0018828007159754634,0.07801792025566101,0.0039519635029137135,-0.011429591104388237,0.07032546401023865,-0.0678037777543068,-0.035060614347457886,-0.02101297676563263,0.049464013427495956,-0.005114252679049969,-0.03155606985092163,-0.01637856662273407,0.015000180341303349,0.06601765751838684,0.0545152872800827,0.012962178327143192,-0.02193073183298111,0.007575321476906538,-0.04152374342083931,-0.03728027641773224,-0.0750843808054924,0.026124749332666397,0.0742197334766388,-0.05111508071422577,-0.08415950834751129,0.006704230327159166,-0.05028257519006729,-0.07973144203424454,0.01409410871565342,-0.06240260228514671,-0.028034094721078873,-0.06498238444328308,0.08004344254732132,0.019187472760677338],[0.07735128700733185,-0.05839348956942558,0.0046463957987725735,0.048412077128887177,0.07002130150794983,0.07535583525896072,0.0604281947016716,-0.0703962966799736,-0.022259540855884552,0.02556159533560276,0.07644359022378922,-0.05071678385138512,-0.013618073426187038,-0.03316198289394379,0.05601350590586662,0.0815172791481018,-0.06989802420139313,0.0695171058177948,-0.016760651022195816,0.024665188044309616,0.0033784201368689537,-0.06459666788578033,-0.01577196829020977,0.07518856227397919,0.0579376257956028,-0.02725333347916603,-0.006187496706843376,0.08465678989887238,0.03173089027404785,-0.09360769391059875,0.006805570796132088,0.07042419910430908,