{"name":"AI Pong right-side PPO policy (zero step checkpoint)","format":"ai-pong-mlp-json-v1","sourceCheckpoint":"initialized-from-training-seed-7","checkpointUpdate":0,"observationSize":9,"actionSize":3,"hiddenSize":128,"actions":["stay","up","down"],"side":"right","deterministicAction":"argmax(logits)","envConfig":{"width":900,"height":600,"paddle_width":16,"paddle_height":96,"paddle_margin":36,"paddle_speed":540.0,"ball_radius":9,"serve_speed":360.0,"max_ball_speed":920.0,"ball_speedup":1.045,"max_bounce_angle":1.1344640137963142,"dt":0.016666666666666666,"score_to_win":7,"max_steps":100000,"hit_reward":0.05},"trainingConfig":{"updates":1000,"steps_per_update":128,"ppo_epochs":8,"batch_size":256,"learning_rate":0.0003,"gamma":0.99,"gae_lambda":0.95,"clip_eps":0.2,"entropy_coef":0.01,"value_coef":0.5,"hidden_size":128,"num_envs":64,"num_workers":24,"save_every":25,"checkpoint_dir":"checkpoints","seed":7,"device":"cuda","amp":true,"torch_compile":false},"layers":{"backbone0":{"weight":[[0.18586686253547668,0.20117905735969543,-0.11188051104545593,0.29783549904823303,-0.23500356078147888,-0.05712196230888367,-0.16674324870109558,-0.04189002513885498,-0.22068485617637634],[0.04645729064941406,-0.31703752279281616,-0.09984783828258514,0.25951114296913147,0.22552993893623352,-0.15767168998718262,-0.2180725783109665,0.3181057274341583,0.02227950096130371],[-0.3306626081466675,-0.28577202558517456,-0.11715137958526611,0.06283891201019287,-0.0611821711063385,0.005704432725906372,0.07349324226379395,0.007880568504333496,-0.2829563021659851],[-0.09281079471111298,0.22150751948356628,-0.11565014719963074,-0.1514991968870163,-0.1804240643978119,-0.2279941737651825,-0.32700473070144653,-0.1285722702741623,-0.28126704692840576],[0.19686374068260193,0.20217284560203552,0.07662889361381531,0.0466635525226593,0.24188902974128723,0.27248963713645935,-0.09657642245292664,-0.2462957799434662,-0.03192833065986633],[0.31552794575691223,0.1140967309474945,0.33098796010017395,-0.06837162375450134,0.11667695641517639,-0.0547318160533905,0.2811272442340851,0.22408708930015564,-0.06189084053039551],[0.16234233975410461,0.2863371670246124,-0.008250117301940918,-0.16224496066570282,0.11991190910339355,-0.01299130916595459,0.12371227145195007,-0.15879639983177185,-0.3193851411342621],[0.2661953270435333,-0.3168414235115051,-0.1127721518278122,-0.008450150489807129,-0.20823368430137634,-0.23309354484081268,-0.0523531436920166,-0.2007487714290619,-0.21033863723278046],[0.14430436491966248,-0.2700659930706024,-0.19757887721061707,0.2107240855693817,-0.028693825006484985,0.32620760798454285,-0.013509124517440796,0.024874001741409302,-0.20707695186138153],[-0.005030989646911621,-0.18907277286052704,-0.1819990873336792,0.3243902027606964,-0.12411999702453613,0.12256333231925964,-0.17570734024047852,-0.11682403087615967,0.20640829205513],[0.2843210995197296,0.1536388397216797,0.2762196362018585,0.03699672222137451,0.09062004089355469,0.2999015748500824,-0.24599456787109375,0.021712929010391235,-0.27148470282554626],[0.1385861337184906,-0.29546910524368286,-0.12993018329143524,0.19008323550224304,-0.1941671371459961,0.13726112246513367,0.08138155937194824,0.3121500313282013,-0.2893897294998169],[0.1721450388431549,0.23184266686439514,0.21107694506645203,0.2294028103351593,-0.3032965064048767,0.10158434510231018,0.018571585416793823,-0.012904882431030273,-0.25537702441215515],[0.07552564144134521,-0.13623318076133728,0.06134650111198425,-0.19840845465660095,0.11885297298431396,-0.08184754848480225,0.25318291783332825,-0.12699425220489502,-0.2837018370628357],[-0.2667788863182068,0.03922557830810547,-0.2809029817581177,0.09806081652641296,0.2560631334781647,0.2323860228061676,0.19537249207496643,-0.052295833826065063,-0.03794381022453308],[0.25113430619239807,-0.28111860156059265,0.10812795162200928,0.22518286108970642,-0.22050361335277557,0.14410150051116943,-0.3003109395503998,0.03589853644371033,0.05318954586982727],[-0.21971385180950165,-0.12026739120483398,0.051331013441085815,0.16777268052101135,-0.07468059659004211,0.09715494513511658,0.038518428802490234,0.22217556834220886,-0.11639711260795593],[-0.32931363582611084,-0.3175680339336395,-0.26069462299346924,0.08154726028442383,-0.1382266730070114,-0.07480743527412415,0.3296196758747101,-0.18084967136383057,-0.02178695797920227],[0.15921008586883545,-0.2969547212123871,-0.3205823302268982,-0.2813394069671631,-0.05293270945549011,0.3249962627887726,-0.09959809482097626,0.12774726748466492,0.09013879299163818],[-0.09408485889434814,0.3094809353351593,0.1817869246006012,0.15547430515289307,-0.2606975734233856,-0.19798636436462402,0.05442619323730469,-0.18344339728355408,0.20923689007759094],[0.0980704128742218,-0.11443230509757996,-0.18728205561637878,0.2067566215991974,-0.32581841945648193,0.16316881775856018,0.18165746331214905,0.23926487565040588,-0.1290491819381714],[0.13076603412628174,0.24514010548591614,-0.13347959518432617,-0.05410432815551758,-0.13091203570365906,-0.11463972926139832,0.3085925281047821,0.3071726858615875,0.14868369698524475],[0.09292897582054138,-0.265006959438324,0.01319575309753418,0.24572542309761047,-0.24808239936828613,-0.05971989035606384,-0.3143739402294159,0.17785117030143738,0.2530118525028229],[0.16118809580802917,0.026614785194396973,-0.08515560626983643,-0.07251343131065369,0.1776135265827179,-0.15349984169006348,-0.2813621759414673,0.0910416841506958,0.2003624141216278],[0.32546356320381165,0.2852090895175934,-0.16215960681438446,-0.32955870032310486,-0.08542105555534363,0.09409204125404358,-0.06745803356170654,0.24953410029411316,-0.13947033882141113],[0.13258066773414612,0.22604599595069885,-0.3026798963546753,-0.2442900836467743,0.058709949254989624,-0.16148126125335693,0.07439160346984863,0.18395259976387024,0.06893265247344971],[-0.3198266625404358,-0.0485074520111084,-0.2551003694534302,-0.055376261472702026,-0.03666695952415466,-0.19032022356987,-0.09827928245067596,-0.12638704478740692,0.16693606972694397],[0.14525732398033142,-0.25951844453811646,0.011954784393310547,-0.17253661155700684,-0.3202103078365326,0.16680899262428284,-0.07060301303863525,-0.007219642400741577,0.10394212603569031],[0.12104558944702148,-0.03471270203590393,-0.2749427258968353,-0.3132227063179016,-0.272714227437973,0.23339083790779114,0.2177678644657135,-0.1376888006925583,-0.07962235808372498],[0.1128699779510498,0.04689931869506836,-0.24650511145591736,-0.13412432372570038,0.2897661030292511,-0.2675635814666748,-0.31285879015922546,-0.2638646364212036,-0.2855628728866577],[-0.2680334746837616,-0.12876646220684052,0.33180662989616394,0.03097328543663025,-0.3079279065132141,0.20575109124183655,-0.02090156078338623,0.314052015542984,-0.15230195224285126],[-0.05443701148033142,0.15761685371398926,0.28599849343299866,-0.003745347261428833,0.31187668442726135,0.002247542142868042,-0.19032251834869385,-0.09983973205089569,0.051264166831970215],[0.20283642411231995,-0.0299854576587677,-0.1125236451625824,0.2504975497722626,-0.14486655592918396,0.22378066182136536,0.14899089932441711,0.16017484664916992,0.08382761478424072],[0.19588437676429749,-0.130288764834404,-0.07991054654121399,0.3124389946460724,0.03973183035850525,-0.30924874544143677,-0.3066819906234741,0.3005707561969757,0.13828015327453613],[0.04899027943611145,0.3290580213069916,-0.19480805099010468,-0.29710325598716736,0.26175400614738464,-0.2468963861465454,-0.2735975980758667,-0.16124658286571503,-0.12890934944152832],[-0.03195083141326904,-0.17959384620189667,-0.1800692081451416,-0.2832373082637787,0.32931748032569885,0.019408494234085083,0.2611894905567169,-0.29554128646850586,-0.10652081668376923],[-0.024781733751296997,-0.015291363000869751,-0.27723193168640137,-0.249314546585083,-0.198891282081604,-0.21420332789421082,0.1197977364063263,0.19393107295036316,-0.1824685037136078],[0.2734786570072174,0.09704673290252686,0.13265332579612732,-0.03847417235374451,-0.13184881210327148,-0.28120681643486023,-0.3183773159980774,0.20002111792564392,0.1605227291584015],[-0.12044787406921387,-0.1560848206281662,-0.16372081637382507,-0.09975597262382507,0.08702966570854187,-0.23714908957481384,-0.2204161137342453,-0.003199368715286255,0.26946142315864563],[0.21176663041114807,0.08918824791908264,-0.10191497206687927,0.10947167873382568,0.21699735522270203,0.21942177414894104,0.228348046541214,-0.13551613688468933,0.002205461263656616],[0.08681309223175049,0.0020258724689483643,-0.2544773519039154,-0.22800013422966003,0.11112746596336365,0.13262203335762024,0.07637143135070801,0.2969824969768524,-0.14084641635417938],[-0.2819429337978363,-0.1148659884929657,-0.10124751925468445,-0.1760890930891037,0.02454468607902527,-0.18669483065605164,0.1704595386981964,-0.10350596904754639,0.31685522198677063],[0.26334646344184875,0.23445740342140198,-0.25913006067276,0.28276851773262024,0.0326591432094574,-0.3238537907600403,-0.2886704206466675,-0.09670321643352509,-0.21391654014587402],[0.1305086314678192,0.1511693298816681,0.298035591840744,-0.23125402629375458,-0.2388140857219696,0.2324528992176056,0.1637064516544342,0.17265275120735168,-0.07033702731132507],[-0.14773063361644745,0.3048398196697235,-0.31235748529434204,0.06431838870048523,-0.07765457034111023,0.23144963383674622,0.08797106146812439,-0.10876008868217468,0.25432541966438293],[-0.12274691462516785,0.2112131416797638,-0.13995182514190674,-0.2663833498954773,0.09374606609344482,-0.018817543983459473,-0.02269423007965088,0.0797249972820282,-0.09098407626152039],[0.18411841988563538,-0.2506588101387024,0.09055396914482117,0.10820963978767395,0.3261165916919708,-0.3184703290462494,0.09912869334220886,0.06707289814949036,-0.10146424174308777],[-0.25191205739974976,0.14114561676979065,0.1940995752811432,-0.00566670298576355,0.17989304661750793,-0.09177955985069275,0.26209816336631775,-0.012961596250534058,-0.19028207659721375],[0.09531638026237488,0.2573135793209076,0.2854437530040741,0.14574792981147766,0.09587931632995605,-0.05512991547584534,0.18144294619560242,-0.06679630279541016,0.0781988799571991],[0.014220207929611206,0.226413756608963,-0.1273559033870697,0.10994800925254822,0.23516592383384705,-0.2802240550518036,0.005287677049636841,-0.019434690475463867,-0.23360216617584229],[-0.31290262937545776,0.1856839954853058,0.14684250950813293,-0.19600343704223633,-0.06388643383979797,-0.16936346888542175,0.13610506057739258,-0.25355321168899536,0.22962728142738342],[0.2270597517490387,-0.0011243820190429688,-0.27002009749412537,0.16491234302520752,0.22062614560127258,0.08698806166648865,0.06899908185005188,-0.33004486560821533,0.08198300004005432],[-0.08505325019359589,0.12605777382850647,0.08234333992004395,0.1053934395313263,0.1683938205242157,0.0654132068157196,0.24356427788734436,-0.002227991819381714,0.3113934099674225],[0.24559202790260315,-0.32324159145355225,0.23444446921348572,-0.13393239676952362,-0.3167140483856201,-0.2117299735546112,0.11635002493858337,0.2655990421772003,0.22865018248558044],[-0.16690754890441895,0.11173677444458008,-0.2988356351852417,-0.30523213744163513,0.2623043358325958,-0.16845238208770752,-0.14129853248596191,0.2875605523586273,-0.03577980399131775],[0.1406719982624054,-0.08821062743663788,0.1645965874195099,0.12979742884635925,0.07544541358947754,-0.278175950050354,0.1394481658935547,0.09845122694969177,0.19177767634391785],[0.28431686758995056,0.08791318535804749,0.21745142340660095,-0.23504380881786346,0.022715121507644653,0.2395772635936737,-0.3037989139556885,-0.23693184554576874,0.3034110367298126],[-0.29757094383239746,-0.3095633387565613,-0.2992316484451294,0.09392157196998596,0.026481986045837402,-0.22086715698242188,-0.07465994358062744,-0.2838309705257416,0.18381372094154358],[-0.21648237109184265,-0.1450592279434204,0.026341527700424194,-0.16135796904563904,-0.11577165126800537,-0.2798944413661957,0.18616929650306702,0.00070914626121521,0.3029354512691498],[-0.13830217719078064,0.03908297419548035,-0.3303428292274475,-0.28718918561935425,-0.04067686200141907,0.06850120425224304,-0.19478163123130798,-0.10212115943431854,0.2549193203449249],[-0.2204388827085495,0.18300142884254456,-0.06518426537513733,0.26276883482933044,0.04836246371269226,-0.22478096187114716,0.15185251832008362,0.09132322669029236,0.1467641294002533],[-0.1070743054151535,-0.15638098120689392,-0.2857217788696289,-0.2705410122871399,-0.07291725277900696,0.04843047261238098,-0.22117793560028076,0.15132960677146912,0.10566523671150208],[-0.3205150067806244,-0.20429830253124237,-0.2994001805782318,0.13763442635536194,0.11069989204406738,0.20170453190803528,0.024302393198013306,0.12315168976783752,-0.32197123765945435],[0.027579814195632935,-0.1773192137479782,0.22652027010917664,0.21677497029304504,-0.012249618768692017,-0.25291261076927185,0.2964356243610382,0.2185356318950653,-0.19355404376983643],[-0.3314632177352905,0.23101595044136047,-0.2845343351364136,-0.3115099370479584,0.20005908608436584,-0.013357788324356079,0.1949404776096344,0.22531118988990784,-0.01079300045967102],[-0.311779260635376,0.0305425226688385,-0.02262890338897705,-0.06984266638755798,0.28355851769447327,0.02801331877708435,0.29676052927970886,-0.2884446084499359,0.27947142720222473],[-0.09880027174949646,-0.05180680751800537,0.07388302683830261,0.0847882330417633,-0.3084520697593689,-0.13884982466697693,-0.1899186074733734,0.19042393565177917,-0.040660709142684937],[0.11329397559165955,0.0944426953792572,-0.07722631096839905,0.11701047420501709,0.11223754286766052,-0.11764097213745117,0.3259889781475067,0.3092581331729889,-0.06079748272895813],[0.32477429509162903,0.03219199180603027,-0.29193514585494995,0.3024354875087738,-0.04721519351005554,0.04480743408203125,-0.23585788905620575,0.024566650390625,0.0721689760684967],[0.2824629843235016,0.07002195715904236,-0.18757745623588562,-0.1479683369398117,-0.12895044684410095,-0.12410537898540497,-0.2714361846446991,-0.06971290707588196,-0.13678324222564697],[-0.10420374572277069,0.08131572604179382,0.09657835960388184,-0.2807254493236542,0.3260347545146942,-0.22292356193065643,-0.18596021831035614,-0.18633215129375458,0.15286388993263245],[0.06906887888908386,0.14879074692726135,0.1559082269668579,-0.30225223302841187,-0.32636404037475586,0.07575154304504395,-0.3083706498146057,-0.16089940071105957,-0.03576222062110901],[0.2036077082157135,-0.013057678937911987,0.295513778924942,-0.2501504123210907,-0.03754815459251404,0.07796776294708252,-0.24868842959403992,0.2633638083934784,0.1881064474582672],[-0.319999098777771,0.27684399485588074,-0.12411880493164062,0.008789300918579102,0.19093766808509827,-0.3207019567489624,0.02190902829170227,-0.2826436161994934,-0.024153202772140503],[0.1675477921962738,0.11663344502449036,0.12803426384925842,0.12181052565574646,0.28679969906806946,0.026615113019943237,-0.0009550750255584717,0.260363906621933,-0.12723807990550995],[-0.19604480266571045,0.07298323512077332,0.16883060336112976,0.0969325602054596,-0.2849310338497162,-0.3098956346511841,0.11987283825874329,0.09636428952217102,-0.3032136857509613],[0.2281768023967743,-0.16866931319236755,0.11981740593910217,0.20595428347587585,-0.29577404260635376,0.24387219548225403,-0.05403229594230652,0.12021753191947937,0.021795839071273804],[-0.20591697096824646,0.11009898781776428,0.31671950221061707,-0.2865152060985565,-0.2807403802871704,-0.08833202719688416,0.17303255200386047,-0.04001471400260925,-0.32721179723739624],[0.0444260835647583,-0.24161264300346375,-0.16445574164390564,0.06777051091194153,0.3014087975025177,0.03156670928001404,0.17483916878700256,0.218296080827713,-0.14340147376060486],[-0.20150785148143768,0.05181989073753357,0.22003582119941711,-0.20636284351348877,-0.0588165819644928,-0.2997773587703705,0.09906211495399475,-0.20076200366020203,-0.050452619791030884],[0.21264973282814026,-0.12815964221954346,0.12052848935127258,0.05099019408226013,0.24411985278129578,0.04703119397163391,-0.2798592746257782,-0.10337464511394501,-0.01763784885406494],[0.2933848798274994,0.2905312478542328,-0.10333713889122009,0.07274165749549866,-0.3213944435119629,0.2816566526889801,-0.22834989428520203,0.2736211121082306,0.18952617049217224],[-0.2374117076396942,-0.03868663311004639,0.13567569851875305,0.25038352608680725,-0.24028901755809784,-0.22057318687438965,-0.32607007026672363,-0.09347066283226013,-0.24642221629619598],[0.2092985212802887,0.09807133674621582,0.16471755504608154,0.2704356014728546,-0.2666793465614319,0.11556091904640198,0.13744917511940002,0.07073107361793518,-0.07698968052864075],[0.23699358105659485,0.20855548977851868,-0.2680361866950989,0.3081274926662445,0.13036596775054932,-0.020907282829284668,0.09076127409934998,-0.05469277501106262,-0.12015664577484131],[0.24937501549720764,-0.05623939633369446,0.22535833716392517,0.321052223443985,0.28674909472465515,-0.050310879945755005,-0.22125153243541718,-0.007398009300231934,-0.2546534538269043],[0.07261636853218079,0.2781819999217987,-0.20601367950439453,-0.23060524463653564,-0.006116002798080444,0.02119019627571106,-0.23869061470031738,0.1326441764831543,0.31879737973213196],[-0.046665340662002563,0.08821821212768555,-0.27570387721061707,0.05546775460243225,-0.09527921676635742,0.24205073714256287,-0.07538601756095886,0.16513219475746155,-0.06883907318115234],[-0.08159372210502625,0.22257301211357117,-0.14769718050956726,0.12241208553314209,0.3328916132450104,0.006829738616943359,0.3189409077167511,0.18046113848686218,-0.19967854022979736],[0.07317468523979187,-0.3094758987426758,-0.16841542720794678,-0.08836345374584198,0.19040098786354065,0.0939871072769165,0.06426453590393066,0.1464461088180542,0.2631370723247528],[-0.18130478262901306,0.32474836707115173,0.037457942962646484,-0.24069321155548096,0.05744782090187073,0.03739944100379944,0.30659613013267517,-0.3034057021141052,-0.1822582185268402],[0.24474671483039856,-0.06750687956809998,0.19864872097969055,0.32722219824790955,-0.23056726157665253,0.19448354840278625,0.29568949341773987,0.05861499905586243,-0.21737179160118103],[-0.07063135504722595,0.2101387083530426,0.31105008721351624,0.30744513869285583,-0.250755250453949,0.058177947998046875,0.0982498824596405,0.020263224840164185,-0.14991521835327148],[-0.1249188631772995,-0.15748628973960876,0.08135846257209778,-0.29833516478538513,-0.26891645789146423,-0.027478575706481934,-0.28686589002609253,0.20017728209495544,-0.11442792415618896],[-0.1661010980606079,-0.24787752330303192,0.24214640259742737,0.2851093113422394,0.0047560930252075195,0.09060588479042053,0.06480726599693298,-0.17166809737682343,0.16680577397346497],[-0.09621536731719971,-0.2583385109901428,0.07626757025718689,0.009086966514587402,0.1713062822818756,0.022694557905197144,-0.16699838638305664,-0.03538861870765686,0.23099061846733093],[-0.2638729512691498,-0.25161081552505493,-0.07785895466804504,-0.1652129590511322,-0.14867965877056122,-0.2884535789489746,-0.24636006355285645,-0.24035203456878662,0.12053915858268738],[-0.19764277338981628,-0.16926488280296326,0.25117143988609314,-0.2939940392971039,0.1757695972919464,0.1491764485836029,-0.2842509150505066,-0.2039075791835785,0.1186525821685791],[-0.22827696800231934,-0.31144413352012634,-0.10086262226104736,0.09244588017463684,0.2890003025531769,-0.1784335821866989,-0.1803400218486786,0.14552459120750427,-0.1308433711528778],[0.2611589729785919,0.08366617560386658,0.07017853856086731,0.15326666831970215,-0.025884240865707397,0.06796184182167053,0.036053210496902466,-0.0017521679401397705,-0.17934644222259521],[-0.03269791603088379,0.30062219500541687,-0.09719547629356384,0.20333507657051086,0.2531335651874542,-0.10694703459739685,0.10314062237739563,0.16832569241523743,0.04627987742424011],[0.11779728531837463,0.3266722857952118,-0.18018552660942078,-0.029134750366210938,0.24759051203727722,-0.30035972595214844,0.051761358976364136,0.13096460700035095,0.06246766448020935],[0.01707625389099121,-0.2937520444393158,-0.2149820327758789,-0.05018138885498047,0.3003334105014801,-0.1647881716489792,-0.22164404392242432,0.014785975217819214,-0.032453179359436035],[0.24784055352210999,0.0713144838809967,0.23143461346626282,-0.33092495799064636,-0.20327886939048767,-0.16431927680969238,-0.07680949568748474,0.060074061155319214,0.14898908138275146],[-0.10285302996635437,-0.06329429149627686,-0.11000148952007294,0.27695438265800476,-0.12958550453186035,0.09569713473320007,-0.18548302352428436,0.0946577787399292,-0.09312145411968231],[0.2637084424495697,-0.03964996337890625,0.09503832459449768,0.041643619537353516,-0.11848907172679901,-0.009546399116516113,-0.04545918107032776,0.30337098240852356,0.10420641303062439],[-0.22742681205272675,0.28029051423072815,-0.1376776397228241,-0.2924850583076477,-0.09394845366477966,0.2370857298374176,-0.13390827178955078,0.11052918434143066,0.04127359390258789],[-0.1216718852519989,-0.2876661419868469,0.1716536581516266,0.31174519658088684,-0.13078396022319794,-0.05970132350921631,-0.009887218475341797,0.047192007303237915,-0.3178982734680176],[-0.16953444480895996,-0.24151413142681122,0.16763386130332947,0.2475384771823883,-0.2919652462005615,-0.007110714912414551,0.2851593792438507,0.30861642956733704,-0.2735561728477478],[-0.108062744140625,0.3253861367702484,0.33223971724510193,0.1697191298007965,0.18175294995307922,-0.2951603829860687,-0.009954065084457397,-0.13304774463176727,0.20221570134162903],[0.007228493690490723,0.13655412197113037,0.11106327176094055,-0.21935462951660156,-0.13080856204032898,-0.32539433240890503,0.006155520677566528,0.22243812680244446,0.09444203972816467],[0.22951272130012512,0.3323349058628082,-0.31113898754119873,0.283351331949234,0.06762680411338806,0.26074710488319397,0.13187691569328308,-0.21263229846954346,-0.07726046442985535],[0.24657806754112244,0.21414926648139954,0.0820155143737793,0.10030379891395569,0.15325045585632324,0.18820735812187195,0.025106817483901978,0.2661704123020172,-0.03960058093070984],[0.28419235348701477,-0.32516294717788696,0.277314156293869,-0.30386048555374146,0.1786135733127594,-0.18835429847240448,-0.30651015043258667,-0.3050558269023895,0.1390146017074585],[0.14826107025146484,-0.16459056735038757,-0.213346928358078,0.2638491094112396,-0.04927077889442444,-0.2672295570373535,0.04188695549964905,-0.0286102294921875,0.006244271993637085],[-0.2390144318342209,-0.10377809405326843,0.251285582780838,-0.23671996593475342,0.22647252678871155,-0.2789543569087982,0.05810689926147461,0.0021137893199920654,0.19843468070030212],[0.07997956871986389,-0.016095280647277832,-0.1333301067352295,0.29899612069129944,-0.310543417930603,0.14671730995178223,0.24196168780326843,0.06573924422264099,0.011872053146362305],[-0.2771686017513275,-0.007956862449645996,0.18498358130455017,0.08507677912712097,0.1515878438949585,-0.10279187560081482,0.1409236490726471,0.12269091606140137,0.26418665051460266],[-0.21585917472839355,0.10385763645172119,0.19728466868400574,0.1466219127178192,0.17535391449928284,0.02256271243095398,0.11074221134185791,0.03587496280670166,-0.13559532165527344],[0.3262907564640045,0.20549455285072327,0.1851593554019928,0.16334077715873718,0.23820051550865173,0.16962072253227234,0.07079550623893738,-0.1239466667175293,-0.0904194563627243],[0.2989865839481354,-0.3070777654647827,0.24922367930412292,0.20744726061820984,-0.19170284271240234,-0.05635547637939453,-0.1515505015850067,-0.2320517748594284,0.2605448067188263],[0.22519853711128235,0.09951019287109375,-0.0542425811290741,-0.11693970859050751,0.005365461111068726,0.20614221692085266,-0.26352083683013916,-0.26280897855758667,0.22834011912345886],[-0.3050016760826111,-0.1576215922832489,0.19501712918281555,-0.04271805286407471,0.30594876408576965,0.1857919991016388,0.13859525322914124,0.19278785586357117,0.10951375961303711],[-0.2412165403366089,-0.27783018350601196,-0.18915724754333496,0.07903710007667542,0.1927083432674408,-0.17450234293937683,-0.2884521186351776,0.17341133952140808,0.09847104549407959],[0.2899656593799591,0.2420159876346588,-0.03281891345977783,-0.20940670371055603,0.09332039952278137,-0.24227850139141083,0.009875863790512085,0.15231668949127197,0.2505241930484772],[-0.09559735655784607,-0.15600678324699402,0.2996152341365814,-0.25054115056991577,-0.1678399294614792,0.2055436670780182,-0.11882874369621277,-0.23681411147117615,0.09264400601387024],[0.038177281618118286,-0.06842303276062012,-0.19990453124046326,-0.1929069459438324,0.1751326620578766,-0.13651005923748016,-0.06262648105621338,0.2583032548427582,-0.23367659747600555],[0.07631412148475647,0.3200874626636505,-0.1735205352306366,0.27921155095100403,-0.13577954471111298,-0.17459189891815186,-0.3298930823802948,-0.21840941905975342,-0.06516668200492859]],"bias":[0.09043404459953308,-0.3181447982788086,0.13101613521575928,-0.06527522206306458,0.07230082154273987,0.017954468727111816,0.014791041612625122,-0.01850101351737976,-0.013189822435379028,0.2173343002796173,0.06953072547912598,0.2789837419986725,-0.29583224654197693,-0.039572447538375854,-0.04084023833274841,0.1469755470752716,-0.298079252243042,-0.1360044926404953,0.1977861225605011,-0.05353736877441406,0.09520331025123596,0.3193366825580597,-0.29572829604148865,0.16671863198280334,-0.10703083872795105,0.08811905980110168,0.3149292767047882,-0.2256309688091278,-0.2511475682258606,-0.2416592538356781,0.18789127469062805,-0.20519602298736572,-0.15140998363494873,-0.19172263145446777,-0.09606015682220459,-0.3203900456428528,-0.024569720029830933,0.010643601417541504,0.2797907888889313,-0.017290115356445312,-0.1922926902770996,0.002580612897872925,-0.3006405830383301,-0.10020136833190918,-0.014203876256942749,-0.1609054058790207,-0.2792606055736542,-0.011254161596298218,0.24372586607933044,0.10328257083892822,-0.3172330856323242,0.07602548599243164,-0.2900002896785736,-0.16109077632427216,0.08974722027778625,-0.1498573273420334,-0.14881229400634766,-0.14094111323356628,0.17620626091957092,0.17726823687553406,0.012755721807479858,-0.1303149163722992,-0.05030319094657898,0.124502032995224,-0.057593464851379395,0.10663807392120361,0.04315611720085144,-0.018523573875427246,0.019052058458328247,-0.14626941084861755,0.12464627623558044,-0.06121227145195007,-0.25379490852355957,0.005538821220397949,-0.047659724950790405,0.09358298778533936,-0.21963489055633545,-0.0799165666103363,0.25672200322151184,0.2670675218105316,-0.20763039588928223,-0.19026872515678406,-0.23051393032073975,0.2775522768497467,0.08358487486839294,0.2030009925365448,0.011989474296569824,0.07551607489585876,0.05270659923553467,-0.1440839022397995,0.2683883011341095,-0.031504273414611816,-0.06258812546730042,0.13325658440589905,-0.2009700983762741,0.17828688025474548,0.021175742149353027,0.2792488634586334,-0.26485931873321533,-0.20839059352874756,-0.04437151551246643,0.32791993021965027,0.23928192257881165,-0.2581561505794525,-0.10415995121002197,-0.08929011225700378,-0.08414694666862488,-0.17210762202739716,-0.10740658640861511,0.30758848786354065,0.24749115109443665,0.13491961359977722,0.1469203233718872,0.011563926935195923,0.19005385041236877,-0.08966243267059326,0.08797323703765869,-0.02570667862892151,0.1632080078125,0.10551825165748596,0.10884404182434082,-0.25768232345581055,0.17001816630363464,0.20775660872459412,0.30727526545524597,-0.3186044692993164,-0.1737997978925705,0.28080621361732483],"activation":"tanh"},"backbone2":{"weight":[[0.08397047966718674,0.04043952375650406,-0.018170736730098724,0.025996088981628418,-0.03987318277359009,8.431822061538696e-05,-0.031297553330659866,-0.08679214119911194,0.06623124331235886,0.030649788677692413,-0.062068745493888855,0.042511261999607086,0.07162659615278244,-0.06946253776550293,-0.02559077739715576,0.08792392164468765,0.048389650881290436,-0.06123637780547142,-0.06496457755565643,-0.05635177716612816,0.04228843003511429,0.07661431282758713,-0.023788943886756897,-0.0628446713089943,-0.023559637367725372,0.08674677461385727,-0.04214281216263771,0.005662262439727783,-0.046589504927396774,-0.0017924308776855469,-0.024567820131778717,0.033832915127277374,0.06421106308698654,0.023288175463676453,-0.059971727430820465,0.022603511810302734,0.0037250742316246033,0.043937377631664276,0.02936546504497528,0.05150526016950607,-0.0644594207406044,-0.04962097108364105,-0.0812688022851944,-0.0864495187997818,-0.04578119143843651,-0.07098160684108734,0.040556229650974274,0.06817161291837692,0.08630692213773727,0.04260008782148361,0.010093346238136292,-0.0027209073305130005,0.013316087424755096,-0.04003278166055679,-0.05018800124526024,-0.06514658033847809,-0.045078035444021225,-0.0758131891489029,-0.0862230733036995,-0.02998366951942444,0.07135143131017685,-0.05700084939599037,0.03526880592107773,0.043245188891887665,-0.0850309506058693,-0.07787565886974335,0.018617264926433563,-0.07381589710712433,0.00481376051902771,0.0704178437590599,0.07456771284341812,0.006855577230453491,-0.06369709223508835,0.012725241482257843,-0.061591535806655884,0.03841761499643326,0.01345759630203247,-0.05170217156410217,-0.02640582248568535,-0.05756211280822754,0.06978289037942886,-0.025838807225227356,-0.07619613409042358,0.03922843188047409,0.08602658659219742,-0.03128090500831604,0.054803065955638885,0.007605336606502533,-0.009178206324577332,-0.035591453313827515,0.02908024936914444,0.0727868303656578,0.02004125714302063,0.049920596182346344,-0.01262759417295456,0.07517284899950027,0.025481313467025757,-0.03995613753795624,-0.049629390239715576,-0.009387314319610596,0.034677885472774506,0.06319611519575119,0.08221105486154556,-0.052855223417282104,-0.024915337562561035,-0.07799389213323593,-0.03713792562484741,0.03485295921564102,0.07721143215894699,-0.029031086713075638,0.04239306598901749,-0.008608818054199219,-0.03531325235962868,-0.05704531446099281,0.03503284603357315,0.03944746404886246,0.02139785885810852,0.013140901923179626,-0.047371603548526764,0.03846514970064163,0.08580554276704788,0.008917830884456635,0.054278843104839325,0.04179836064577103,-0.01419975608587265,-0.08164305984973907,-0.0337541364133358,0.059129707515239716],[0.00824718177318573,0.017396219074726105,-0.02255929261445999,-0.07039964199066162,0.019113436341285706,-0.0315280444920063,0.04171878844499588,0.01477043330669403,-0.0388103649020195,0.0333310142159462,0.08772546797990799,0.07693339139223099,0.04917042702436447,-0.025497809052467346,0.030418694019317627,-0.015623502433300018,0.07160519808530807,0.06778200715780258,0.07562876492738724,0.03648307919502258,0.015295810997486115,-0.06115403026342392,0.05700763314962387,0.0051438212394714355,-0.049929969012737274,-0.01711104065179825,0.07103558629751205,0.07553144544363022,0.05316997319459915,0.08315994590520859,-0.03838636726140976,0.0838705524802208,-0.03308728709816933,-0.01038234680891037,-0.06867516785860062,0.022393517196178436,-0.044166840612888336,0.04184193164110184,-0.020236767828464508,0.047075800597667694,-0.06584899127483368,0.04054195433855057,-0.0475410558283329,-0.07380619645118713,0.049024902284145355,0.056503064930438995,0.04046272486448288,0.007430322468280792,-0.051828525960445404,-0.008328631520271301,-0.07901093363761902,0.0109933540225029,0.04998702555894852,-0.05744487792253494,0.05764629691839218,0.023311592638492584,0.03412683308124542,-0.013701878488063812,-0.07511663436889648,0.06236539036035538,0.031006023287773132,-0.010409124195575714,0.010603807866573334,0.07046445459127426,0.05095479637384415,0.023762807250022888,-0.04847321659326553,-0.06698788702487946,0.05123720318078995,-0.0089804008603096,0.04688436537981033,-0.04118354991078377,0.04563929885625839,-0.07903588563203812,-0.07363921403884888,-0.07640767097473145,-0.0702802836894989,0.06921347230672836,-0.08697228878736496,-0.04990755766630173,0.057680703699588776,0.0009163469076156616,0.011040620505809784,0.07644922286272049,-0.08227630704641342,0.0028557032346725464,0.024134866893291473,0.04788597673177719,0.06934971362352371,-0.07115454226732254,0.05451592057943344,0.03396886587142944,0.000880606472492218,0.06773456186056137,-0.03465570881962776,0.03486248850822449,0.08130442351102829,0.004414215683937073,0.011906474828720093,0.03781004995107651,0.0496271476149559,-0.048798199743032455,0.06661001592874527,-0.028683047741651535,-0.048357173800468445,-0.015334658324718475,-0.03476449102163315,0.03441967815160751,-0.07561138272285461,-0.03987272083759308,0.06048662215471268,-0.020072847604751587,0.02544955164194107,-0.04812870919704437,0.08323351293802261,-0.07547979056835175,0.06958473473787308,0.06137260049581528,-0.024865873157978058,0.008259862661361694,-0.06509862840175629,0.07626456767320633,-0.06791338324546814,0.06397906690835953,-0.07774478942155838,0.05877762287855148,-0.05094166100025177,-0.0553416982293129],[0.03461486101150513,0.03439658135175705,0.08390503376722336,-0.05036656931042671,0.00926828384399414,0.016597703099250793,0.0722980871796608,-0.04117252677679062,-0.028963841497898102,-0.006947368383407593,-0.07973071187734604,0.07703747600317001,-0.0024201422929763794,-0.0572260320186615,-0.03803639113903046,-0.06963169574737549,-0.021043792366981506,0.003498755395412445,0.08368653804063797,-0.07682546228170395,-0.011814340949058533,-0.014539964497089386,-0.034615565091371536,-0.04966125264763832,-0.06912504136562347,0.0657527968287468,-0.06175224483013153,0.03195688873529434,-0.03327937051653862,0.028156757354736328,-0.052400995045900345,-0.0029045715928077698,-0.01100243628025055,-0.05941527336835861,0.020689383149147034,-0.08034155517816544,0.00527171790599823,-0.04355236142873764,0.02572406828403473,0.04892098158597946,-0.010012216866016388,0.038443587720394135,0.03552178293466568,0.06022161990404129,0.06315154582262039,-0.054463841021060944,-0.08045816421508789,0.05042888969182968,0.08085934072732925,0.06001802533864975,0.0586145743727684,0.075755275785923,0.05851190537214279,-0.0010762810707092285,0.03293995559215546,0.08201918751001358,0.0019571632146835327,-0.03920021280646324,0.01994638890028,-0.009986959397792816,-0.05249704048037529,0.04745864123106003,-0.024128109216690063,-0.08595617860555649,-0.08055651187896729,0.004152581095695496,0.08047150820493698,0.0761113241314888,0.08284223824739456,0.06867756694555283,0.03716690093278885,0.06032440811395645,-0.029585547745227814,0.059866540133953094,-0.06880079954862595,0.01780783385038376,-0.06432925164699554,-0.03592563420534134,0.07243648916482925,0.03856522589921951,0.004425346851348877,0.042163945734500885,0.07432089000940323,0.001920655369758606,-0.07306712120771408,-0.040695637464523315,0.013430513441562653,-0.020490005612373352,0.033653318881988525,0.01151379942893982,-0.06585334241390228,0.056599490344524384,-0.06792007386684418,0.027166321873664856,-0.05840625613927841,-0.0025073811411857605,0.012093901634216309,0.08631248027086258,-0.08286873251199722,0.07706072181463242,-0.04885638505220413,0.003832116723060608,-0.015040621161460876,0.051497943699359894,0.012752838432788849,-0.011866740882396698,-0.0022528991103172302,0.01986655592918396,-0.08786589652299881,-0.0065084099769592285,-0.05015803501009941,-0.001474231481552124,-0.06146204471588135,0.0009488612413406372,-0.07039957493543625,-0.06352768838405609,-0.060979217290878296,0.0015766695141792297,-0.0015002265572547913,-0.028276804834604263,-0.05343335121870041,-0.03969069942831993,0.013834312558174133,-0.054723404347896576,0.032408230006694794,-0.07187125831842422,0.05132196098566055,0.06539710611104965],[0.025378279387950897,-0.034662242978811264,0.07581006735563278,-0.03874384984374046,-0.04561657831072807,-0.06925840675830841,0.02891797572374344,0.08207420259714127,0.07000672072172165,-0.011412069201469421,-0.06135409325361252,0.0009361431002616882,-0.07546044141054153,-0.05595352128148079,-0.005954928696155548,-0.041928548365831375,0.06737253814935684,-0.08647673577070236,-0.02193377912044525,0.06956510990858078,-0.007625885307788849,-0.08266273885965347,-0.07812516391277313,-0.07960202544927597,0.014763988554477692,-0.020990222692489624,-0.05506810173392296,-0.010540112853050232,0.013610512018203735,-0.01984858512878418,-0.05570955574512482,0.04294837266206741,-0.0028344914317131042,-0.08141809701919556,-0.040658432990312576,0.023180127143859863,-0.012834355235099792,0.04252760857343674,0.07219170778989792,-0.053037192672491074,-0.018827512860298157,-0.056751806288957596,0.056007348001003265,0.06918822973966599,-0.043162040412425995,0.048091329634189606,-0.007233873009681702,0.04813513904809952,0.07736022025346756,-0.010242857038974762,0.08046657592058182,0.07564843446016312,-0.04525980353355408,0.05550422519445419,-0.05043579638004303,0.058540455996990204,0.011225827038288116,0.013020552694797516,0.00489816814661026,-0.04575083404779434,-0.009651534259319305,-0.06906937807798386,-0.011541575193405151,0.07393550127744675,0.051670365035533905,-0.006688408553600311,-0.018161021173000336,-0.08772973716259003,0.0673878863453865,0.07669974118471146,0.033136241137981415,0.0023016706109046936,-0.08468130975961685,-0.020720086991786957,-0.0628182515501976,-0.04977211728692055,-0.0865788459777832,0.07574620097875595,0.06164518743753433,-0.016496464610099792,0.013993784785270691,-0.041020285338163376,0.03974948078393936,-0.033549048006534576,-0.05275632441043854,0.04499780386686325,0.06939490884542465,-0.04344378039240837,0.0485125407576561,-0.0667298287153244,0.02054627239704132,0.08337322622537613,-0.0009334459900856018,0.04752335697412491,-0.05701153352856636,0.08635320514440536,0.028080180287361145,-0.045196592807769775,0.07781820744276047,0.03181080520153046,0.031003370881080627,0.054627008736133575,-0.059168845415115356,0.03276669979095459,0.0810084417462349,-0.004437945783138275,0.02260064333677292,-0.028399337083101273,0.08501102775335312,-0.06314051151275635,0.040957532823085785,-0.04156126081943512,0.0010836347937583923,-0.08354411274194717,-0.0051362887024879456,0.04391779750585556,-0.06165046989917755,0.013027429580688477,-0.06827342510223389,-0.019745826721191406,0.015752844512462616,-0.08327318727970123,-0.0034380555152893066,0.002384491264820099,0.004939854145050049,-0.0009718015789985657,0.021145187318325043,0.05263809114694595],[0.03434766083955765,0.06469161063432693,0.032078154385089874,-0.0034991130232810974,0.06598903983831406,0.026608675718307495,-0.05267158895730972,0.03868653625249863,0.0036571547389030457,-0.02952037751674652,0.07074221223592758,-0.04627063125371933,-0.029475629329681396,-0.03433496132493019,0.05860067158937454,-0.0511765256524086,0.07194233685731888,-0.04793306067585945,0.0764879360795021,-0.0723060667514801,0.07733624428510666,-0.0636410117149353,0.007131047546863556,-0.0012595057487487793,0.07672948390245438,-0.013281367719173431,0.04862033575773239,0.07169345766305923,-0.04523539915680885,-0.07052375376224518,0.04392995685338974,0.08391769975423813,-0.016654707491397858,0.07152167707681656,0.04179372638463974,-0.06903226673603058,0.06713717430830002,0.044416241347789764,-0.007073558866977692,0.07783100754022598,-0.07928832620382309,-0.02903781831264496,0.00012937188148498535,0.021286532282829285,0.04474925249814987,-0.0685018002986908,0.039102934300899506,-0.014596261084079742,0.0026275813579559326,-0.034491777420043945,-0.05377582833170891,-0.02432769536972046,-0.00923188030719757,-0.060761697590351105,0.029230177402496338,0.013912782073020935,0.010034196078777313,0.0450541153550148,-0.08757570385932922,-0.06678395718336105,-0.006847091019153595,0.05985289067029953,-0.027658730745315552,0.07359430938959122,-0.029904156923294067,-0.025164544582366943,0.07924995571374893,-0.059310004115104675,-0.0811036229133606,-0.016189754009246826,0.06031646579504013,0.0794854685664177,-0.05778574198484421,0.015722356736660004,-0.019180327653884888,0.044663600623607635,0.03732212632894516,0.008605904877185822,-0.006438024342060089,-0.057496413588523865,-0.006169646978378296,0.07759631425142288,-0.010595820844173431,0.034198857843875885,0.08810289949178696,0.07026895135641098,-0.03276357799768448,0.0600375160574913,-0.0183664932847023,-0.07855053246021271,0.047716908156871796,-0.08743946254253387,-0.05251525714993477,0.04681674391031265,-0.08119995892047882,-0.03332633525133133,-0.036947306245565414,-0.08504260331392288,-0.01574154943227768,-0.06533583253622055,-0.0446549654006958,0.08528516441583633,-0.05858380347490311,-0.02750328555703163,0.06664172559976578,-0.05375219136476517,-0.06919635832309723,-0.039238009601831436,-0.005225837230682373,0.0724046602845192,-0.004018671810626984,-0.07039417326450348,-0.04683323949575424,-0.08833190053701401,-0.08271979540586472,-0.011907629668712616,-0.08648936450481415,-0.0619271956384182,-0.060536887496709824,-0.031952422112226486,-0.07187484204769135,0.0709269568324089,0.043711356818675995,0.06087984889745712,-0.018862970173358917,0.03326956182718277,0.006875291466712952,-0.006522707641124725],[0.08258364349603653,-0.018442846834659576,-0.08394937962293625,-0.015861377120018005,0.06836811453104019,0.03946451097726822,0.048724465072155,-0.002094939351081848,-0.07911793887615204,-0.07774287462234497,0.009203985333442688,0.017568320035934448,0.0063542574644088745,-0.048118412494659424,-0.07599455863237381,-0.008124291896820068,0.051855020225048065,0.04794309288263321,0.08238504081964493,0.014853611588478088,-0.00322529673576355,0.0021218806505203247,-0.029171783477067947,-0.07733626663684845,0.060215748846530914,-0.023341506719589233,-0.07111647725105286,-0.0782780572772026,-0.032792333513498306,0.009156294167041779,0.06704292446374893,-0.035981278866529465,-0.08546024560928345,-0.051311857998371124,0.010960765182971954,-0.046444594860076904,-0.05085932835936546,-0.02496236562728882,-0.053215231746435165,0.0006031244993209839,-0.042565904557704926,-0.03463517501950264,0.06081833690404892,-0.06389622390270233,0.08315781503915787,-0.0769311711192131,-0.01696116477251053,0.05262076109647751,0.013551205396652222,0.02473144233226776,-0.026504088193178177,-0.010150238871574402,-0.010374307632446289,0.0806005671620369,0.06677524000406265,-0.019599951803684235,0.028058670461177826,0.07509417086839676,-0.056663233786821365,-0.039326317608356476,0.01908177137374878,-0.07849281281232834,-0.007868088781833649,0.041675545275211334,-0.0012694746255874634,0.036212772130966187,-0.03756128251552582,0.04781343787908554,0.05240016430616379,0.03543221205472946,0.06882215291261673,-0.01608525961637497,0.008075818419456482,-0.0033792704343795776,-0.017123334109783173,0.08193328231573105,-0.0456756129860878,-0.056584883481264114,0.026183046400547028,0.030729517340660095,-0.07465619593858719,-0.038239266723394394,-0.029419299215078354,-0.00498257577419281,0.011940591037273407,0.002833649516105652,-0.07343463599681854,-0.08670041710138321,0.04050246626138687,-0.07353425025939941,0.03556413948535919,-0.08110365271568298,0.03508811444044113,-0.02443757653236389,-0.06334353983402252,-0.054135341197252274,0.05078060179948807,-0.022068671882152557,0.03439667820930481,0.07274966686964035,-0.01983983814716339,0.024049699306488037,0.00825006514787674,-0.020934894680976868,0.049541257321834564,0.07232814282178879,0.07052697986364365,0.0199749618768692,0.05797971040010452,0.027928173542022705,0.0538073405623436,-0.027500111609697342,-0.05770183727145195,-0.035117797553539276,-0.01961563527584076,-0.010063499212265015,-0.010839812457561493,-0.0700417011976242,0.029221482574939728,0.0851924940943718,-0.05300687998533249,0.0059132203459739685,-0.039112601429224014,0.012605883181095123,0.05391822010278702,0.08766361325979233,0.01991620659828186,-0.06252387166023254],[-0.03093050792813301,0.009953513741493225,0.010510042309761047,0.0003527402877807617,-0.07312333583831787,0.0012496188282966614,-0.022507362067699432,0.05985521525144577,-0.06694409251213074,0.08054820448160172,0.054030947387218475,0.08212100714445114,0.08486197143793106,0.05167955905199051,-0.05587927997112274,0.05667165666818619,0.07031328231096268,-0.024812966585159302,0.02496272325515747,-0.027696695178747177,0.019521847367286682,0.03438712656497955,-0.048676133155822754,-0.05143783614039421,-0.02958071231842041,-0.023829825222492218,-0.05669166147708893,-0.046909525990486145,-0.008457615971565247,0.08041345328092575,0.011206276714801788,0.07578996568918228,-0.007975995540618896,0.08577411621809006,0.005122676491737366,-0.04457291588187218,-0.06343353539705276,0.055072613060474396,0.060103170573711395,-0.06731293350458145,-0.02178538590669632,-0.03738788887858391,-0.07129506021738052,-0.020607195794582367,-0.08098810911178589,-0.015255965292453766,0.0738769993185997,0.06266384571790695,-0.06746259331703186,0.012659430503845215,0.04410319775342941,-0.017112918198108673,-0.029071778059005737,-0.08445705473423004,0.06432893127202988,0.08685091882944107,-0.0026428624987602234,0.05211191624403,0.0475132092833519,-0.0821353867650032,-0.00974266231060028,0.08691153675317764,0.04219595342874527,0.07021202892065048,-0.014123812317848206,0.012260518968105316,0.031977370381355286,-0.005008287727832794,0.047745101153850555,-0.006079554557800293,0.014204353094100952,-0.044744137674570084,0.037276752293109894,-0.029951676726341248,0.07324763387441635,-0.003746926784515381,0.0189240500330925,-0.034634899348020554,-0.05923570692539215,-0.04262227565050125,-0.05000989884138107,0.08101455122232437,-0.06900794059038162,0.06368621438741684,0.04590371996164322,-0.02945997193455696,-0.0785558745265007,0.06251133233308792,-0.033044204115867615,0.08196849375963211,0.058208219707012177,-0.014473013579845428,-0.004501022398471832,0.04565016180276871,0.05867087095975876,0.04788794368505478,-0.036432020366191864,0.07562258094549179,-0.05927666276693344,-0.04873977228999138,-0.036654260009527206,0.054265864193439484,0.06297750025987625,0.05463182181119919,-0.07178366929292679,-0.04348119720816612,0.04186350852251053,-0.03458718955516815,0.04438447207212448,-0.06766209006309509,-0.04941512271761894,0.021999962627887726,-0.04717789590358734,0.029251568019390106,-0.03274800628423691,0.018245145678520203,0.02464994043111801,0.08158152550458908,0.0021966397762298584,0.012242697179317474,0.048871614038944244,-0.08394207805395126,0.045313723385334015,-0.0854559913277626,-0.040812406688928604,-0.025014415383338928,0.05465627461671829,-0.028507117182016373],[0.029505282640457153,0.07676095515489578,-0.05085645243525505,-0.029934093356132507,0.017418041825294495,-0.07044366002082825,-0.0363282635807991,-0.025539956986904144,-0.030771814286708832,-0.0639406219124794,-0.08372106403112411,0.06338345259428024,-0.0009793415665626526,-0.01887594908475876,0.021834269165992737,0.046484701335430145,-0.05430271476507187,0.07005055993795395,-0.030277252197265625,-0.0833912044763565,-0.08026956766843796,0.06929583102464676,-0.04749373346567154,-0.07088029384613037,-0.062264423817396164,0.03698558360338211,0.03406345844268799,-0.08759713172912598,-0.025864750146865845,0.08033441752195358,-0.032882265746593475,0.035927534103393555,0.039337433874607086,0.06736565381288528,-0.007426179945468903,-0.018417857587337494,0.0396733358502388,-0.023334026336669922,-0.003866538405418396,0.06559950858354568,0.06781753152608871,-0.02348342537879944,0.015465766191482544,0.0825924500823021,0.06292282789945602,0.049021653831005096,0.07491111010313034,-0.08586779236793518,0.014476999640464783,-0.05898506939411163,0.07471933215856552,-0.057742856442928314,0.006658412516117096,0.03161714971065521,-0.05024160444736481,0.0877123549580574,0.018823549151420593,-0.0041552260518074036,0.05792706459760666,0.04732305556535721,0.07293625921010971,-0.07406025379896164,0.05966334789991379,0.06622927635908127,0.009875103831291199,0.08752451092004776,0.04058436304330826,-0.026386961340904236,-0.0009811148047447205,0.06027656048536301,0.019074514508247375,0.07366044074296951,-0.025412946939468384,-0.08691754937171936,0.08613754063844681,-0.03967897221446037,-0.022409342229366302,0.005703002214431763,-0.08000384271144867,-0.03885512799024582,-0.0733761414885521,0.016032777726650238,0.04153583198785782,0.032435812056064606,-0.07518621534109116,-0.0232975035905838,0.011605516076087952,-0.0546870194375515,-0.04368182644248009,0.018714718520641327,0.04522021859884262,0.028276361525058746,-0.03836250305175781,0.08302698284387589,-0.05864740163087845,0.01889427751302719,0.04223368316888809,-0.0634709820151329,-0.0548124723136425,0.017365209758281708,0.06932619959115982,0.007477127015590668,0.06181240826845169,0.04121566563844681,-0.06993777304887772,0.07981928437948227,-0.08526566624641418,0.016580551862716675,-0.08616528660058975,0.07494417577981949,-0.0796012133359909,-0.01918625831604004,-0.08284667879343033,-0.021935030817985535,0.04382241517305374,-0.0672280490398407,-0.04397344961762428,0.034016191959381104,0.02010372281074524,-0.023357853293418884,0.006891399621963501,-0.0747927725315094,-0.08038885146379471,0.03764239698648453,0.03923984616994858,0.031333185732364655,-0.022470109164714813,-0.0759521946310997],[-0.03001490980386734,0.0577986016869545,0.004660293459892273,0.04749796539545059,0.004647456109523773,0.04532214254140854,-0.03755916282534599,0.03847386687994003,-0.023991800844669342,0.07256253808736801,0.03942698985338211,0.04927261918783188,-0.018854781985282898,-0.05088324844837189,-0.07358872145414352,-0.025304079055786133,-0.08323249965906143,-0.029476840049028397,0.0660371407866478,-0.07376004010438919,0.021868348121643066,-0.04790882766246796,0.03784959763288498,0.011974938213825226,0.0023971572518348694,0.029832057654857635,-0.048886097967624664,-0.023285262286663055,0.040164537727832794,0.06351576000452042,0.00325775146484375,0.07000181823968887,-0.01231750100851059,0.03224622458219528,0.016623899340629578,0.0287681445479393,-0.0668196827173233,-0.03512927144765854,0.04135660082101822,0.021899797022342682,0.0017020702362060547,0.02558683604001999,0.014120310544967651,0.008443474769592285,0.06876637786626816,-0.060892269015312195,-0.08820900321006775,-0.06064343452453613,-0.011434674263000488,-0.0743429958820343,-0.04809878394007683,0.08426935225725174,0.009728893637657166,0.04055171459913254,-0.02777669206261635,0.07445944100618362,-0.0860343724489212,0.07276596873998642,-0.07434816658496857,-0.02457309514284134,0.05598299950361252,-0.07618086785078049,-1.2286007404327393e-05,0.05110681802034378,0.020172595977783203,0.00914878398180008,0.007517985999584198,-0.04792539030313492,0.009376809000968933,0.04762358218431473,0.01406726986169815,-0.046667128801345825,0.0038194209337234497,-0.053232479840517044,0.019539743661880493,-0.04860805347561836,-0.05438551306724548,-0.0316646434366703,0.04485069960355759,-0.03464943915605545,0.05000182241201401,-0.048779748380184174,-0.06893757730722427,-0.002226099371910095,-0.07507975399494171,-0.03558172658085823,-0.08211519569158554,0.06599196046590805,-0.008412964642047882,-0.04565685987472534,-0.05335558205842972,-0.022195138037204742,0.05362475663423538,0.020403943955898285,0.016507349908351898,-0.08372926712036133,0.059989623725414276,-0.014233559370040894,0.04027629643678665,-0.0831129178404808,-0.04456137865781784,-0.006593264639377594,-0.006948500871658325,0.083079032599926,-0.08331628888845444,0.08730503171682358,0.07703196257352829,0.07712431997060776,-0.05718076601624489,0.06540282815694809,-0.011419601738452911,-0.060213811695575714,-0.06600438058376312,-0.03678290173411369,-0.08737225830554962,0.022820159792900085,0.059260375797748566,-0.0019050613045692444,0.07874593883752823,-0.08449459075927734,0.02377401292324066,-0.023668967187404633,-0.08816884458065033,-0.00800374150276184,-0.0428827628493309,0.0398959144949913,0.08499058336019516,-0.053461771458387375],[-0.056277789175510406,-0.029448095709085464,0.005829773843288422,-0.0003070533275604248,0.08616306632757187,-0.011796049773693085,-0.05051716789603233,-0.07905419170856476,-0.026137810200452805,-0.0398828350007534,0.07842833548784256,-0.08364838361740112,-0.0396798774600029,-0.05273432657122612,0.015151768922805786,0.07323537021875381,-0.04456232488155365,0.03051517903804779,0.08000487834215164,-0.04713377729058266,-0.05731160193681717,0.013485021889209747,-0.07133111357688904,0.08639422804117203,0.031689129769802094,0.027547970414161682,-0.01753249764442444,-0.0148063525557518,-0.019480764865875244,0.04900025576353073,0.07713329046964645,0.04472050815820694,-0.08558053523302078,-0.03457530215382576,-0.045855600386857986,0.018351800739765167,-0.03837829828262329,0.07497056573629379,0.08214003592729568,-0.039524272084236145,-0.02830859273672104,0.04028455168008804,0.003826342523097992,-0.036483343690633774,-0.0763196274638176,-0.015679500997066498,-0.02315780520439148,-0.020506851375102997,-0.06367944926023483,0.05615279823541641,-0.061880141496658325,0.02496887743473053,0.02582770586013794,0.039395712316036224,0.057145483791828156,-0.07963374257087708,0.044905178248882294,-0.0019875317811965942,0.007247224450111389,0.03768794983625412,-0.021350853145122528,0.023716993629932404,-0.05276810750365257,0.012114867568016052,-0.08374476432800293,0.07508502155542374,-0.08258993923664093,-0.0062983110547065735,0.0637623593211174,-0.042577262967824936,-0.01201753318309784,0.06424135714769363,0.033988386392593384,0.007720977067947388,-0.03715406730771065,-0.0838075652718544,0.0746394619345665,0.03129351884126663,0.015203505754470825,0.04458589106798172,0.0580127015709877,0.08780946582555771,0.0578327551484108,-0.04398991912603378,-0.026743311434984207,-0.055311162024736404,0.03645288199186325,-0.05878426134586334,0.020801924169063568,0.08024238795042038,0.006898142397403717,0.03113921731710434,0.0431564524769783,0.0301995649933815,-0.019712716341018677,-0.021804049611091614,-0.07061444967985153,0.042996712028980255,-0.07805883884429932,-0.04015278443694115,0.0479002520442009,0.00794132798910141,0.04073373228311539,-0.03418884798884392,0.037600137293338776,0.026948750019073486,0.08407437056303024,-0.06255878508090973,0.054142408072948456,0.027076438069343567,0.009046822786331177,0.04801463335752487,-0.04087940603494644,0.05872777849435806,-0.06500755995512009,0.022967152297496796,0.0758165791630745,0.02825237065553665,0.06104395538568497,0.05497003346681595,-0.047380391508340836,0.03213895112276077,-0.06817202270030975,0.04718761891126633,0.08592212945222855,0.011824533343315125,0.00507470965385437,0.07086265832185745],[-0.06660813838243484,-0.021845743060112,0.027689814567565918,-0.018704853951931,-0.0030795931816101074,0.05030771344900131,0.03402666747570038,-0.0020129308104515076,0.007270447909832001,0.06939133256673813,0.02388250082731247,0.07105628401041031,-0.01017141342163086,0.06994613260030746,-0.08797482401132584,0.0051113516092300415,-0.023909181356430054,0.006094641983509064,0.08119013160467148,0.0018296241760253906,0.03537614643573761,0.0009745806455612183,0.03604589402675629,-0.07705598324537277,-0.015152327716350555,-0.08374443650245667,-0.02754390239715576,-0.021118320524692535,0.01159898191690445,0.04617860168218613,-0.014872834086418152,0.06581800431013107,0.0538400337100029,-0.07266166806221008,-0.04509200528264046,-0.07124952226877213,-0.06190246343612671,-0.026216108351945877,0.06029807776212692,-0.08585894852876663,-0.05881919339299202,-0.0020051151514053345,0.08351852744817734,0.01073358952999115,-0.03540343791246414,-0.06381961703300476,0.07020657509565353,0.002843804657459259,0.0712149515748024,-0.03818646818399429,0.04875797778367996,-0.02793990448117256,0.020706303417682648,0.007374458014965057,0.02685868740081787,0.07327461987733841,0.05806694179773331,-0.05295702815055847,0.05347573012113571,-0.020743392407894135,0.0523381307721138,-0.07090145349502563,0.06378332525491714,0.04047388583421707,0.030978523194789886,0.004835918545722961,0.013810798525810242,0.009649187326431274,0.05443023890256882,0.04306737333536148,0.056016214191913605,0.07496985048055649,0.04305150359869003,0.015010438859462738,0.06269124895334244,-0.0880381390452385,0.014252230525016785,-0.028377853333950043,0.07442986220121384,0.05835121124982834,-0.02948727458715439,0.027735911309719086,0.053084440529346466,-0.026537004858255386,0.07850132137537003,-0.011077284812927246,-0.03999903425574303,-0.052138715982437134,-0.08779070526361465,-0.06880580633878708,0.026330210268497467,0.005473136901855469,0.018737994134426117,-0.007222168147563934,0.07647012919187546,0.07382991164922714,-0.012393303215503693,0.07908786088228226,0.054135359823703766,-0.037522464990615845,0.0043394193053245544,-0.009523309767246246,0.07023452967405319,0.030219413340091705,0.004503168165683746,-0.06729166954755783,0.046734146773815155,0.05586733669042587,0.01629158854484558,-0.013668246567249298,0.011594787240028381,-0.0349930003285408,0.05985664576292038,0.031311385333538055,-0.0765695720911026,-0.046193767338991165,0.05499177426099777,-0.020548515021800995,-0.08721636980772018,-0.05113228037953377,-0.07136203348636627,0.0380425825715065,-0.015113510191440582,-0.07803194224834442,-0.03956224396824837,-0.03542764112353325,-0.0026153698563575745,0.05309902876615524],[-0.021321512758731842,0.060381047427654266,0.033437952399253845,-0.003301553428173065,0.052419595420360565,0.01502317190170288,-0.010472722351551056,0.06693076342344284,-0.07532817870378494,-0.03132663667201996,-0.06072153151035309,0.021531805396080017,0.07872604578733444,0.02011255919933319,0.0019357800483703613,0.024192936718463898,-0.03811633586883545,0.05716865509748459,0.06334478408098221,0.033074088394641876,0.059738315641880035,-0.06346047669649124,0.05724062770605087,-0.010794095695018768,0.0160403773188591,-0.058773450553417206,-0.06483212113380432,0.015080377459526062,0.03601975739002228,0.08721228688955307,0.08176537603139877,-0.06435288488864899,0.030412182211875916,0.07307390123605728,-0.05707070976495743,-0.029830999672412872,0.05537725239992142,0.04844257980585098,0.06833652406930923,0.014164365828037262,0.02759747952222824,0.08288238197565079,-0.08079776167869568,-0.07634294778108597,-0.005930133163928986,0.05327988415956497,-0.03895624727010727,-0.034774258732795715,0.08793138712644577,-0.06489984691143036,-0.03451329469680786,0.025106564164161682,-0.0270601324737072,0.05841848999261856,0.013702154159545898,-0.008267663419246674,-0.016571201384067535,0.01028132438659668,-0.027245640754699707,0.08221548050642014,-0.022819623351097107,-0.00044073164463043213,0.08238673955202103,0.06424970179796219,0.08752476423978806,-0.016619496047496796,0.05271775275468826,-0.06053374707698822,-0.08007616549730301,0.026274599134922028,-0.008660584688186646,-0.05282179266214371,-0.011451445519924164,0.0630517527461052,-0.07224129885435104,-0.004283882677555084,0.014242544770240784,-0.05442636460065842,-0.048672307282686234,0.02979172021150589,0.0038676559925079346,-0.018125861883163452,0.04698992520570755,0.043917588889598846,0.04406171292066574,-0.04888737201690674,-0.03972925245761871,0.02540195733308792,-0.022201672196388245,-0.02067744731903076,-0.015642546117305756,0.08733981102705002,0.05803989619016647,-0.06920961290597916,-0.07199801504611969,0.07405997067689896,-0.07267030328512192,-0.06610344350337982,0.007674805819988251,0.014125652611255646,0.08086621016263962,0.023610569536685944,-0.07576101273298264,0.06217587739229202,-0.05665580555796623,0.052837662398815155,0.0009132623672485352,-0.030628640204668045,-0.015434227883815765,0.08042360097169876,-0.022781938314437866,-0.027253028005361557,0.054218925535678864,0.03472431004047394,0.048539645969867706,0.057497404515743256,-0.07150676101446152,0.021395690739154816,-0.07565067708492279,0.060979969799518585,0.04752548784017563,0.06448983401060104,0.04995516687631607,-0.03937755897641182,-0.03816234692931175,0.05030723661184311,-0.023050688207149506,-0.07457318902015686],[0.03518030792474747,-0.07551443576812744,-0.004195995628833771,-0.008286848664283752,-0.03911496326327324,-0.04963313043117523,-0.04331786558032036,-0.0841992124915123,-0.022402137517929077,-0.07189023494720459,-0.03815425559878349,-0.014327019453048706,0.07416877895593643,-0.06772057712078094,-0.028707757592201233,-0.005605563521385193,0.013952210545539856,0.06798318773508072,0.060926906764507294,0.05326666682958603,0.07305478304624557,0.027236253023147583,-0.03788501024246216,-0.001394130289554596,-0.009397812187671661,-0.07620902359485626,0.01658765971660614,-0.08337288349866867,0.018500298261642456,0.04036826640367508,0.069026879966259,-0.006721168756484985,-0.07338033616542816,-0.01049014925956726,0.08630003780126572,-0.07235032320022583,-0.0056573376059532166,-0.051289308816194534,0.001335538923740387,-0.04416029900312424,-0.06801353394985199,0.03473470360040665,-0.032969288527965546,-0.052350662648677826,0.06682667881250381,-0.010390408337116241,0.03777984529733658,-0.07593894004821777,0.06728246062994003,-0.08082817494869232,0.018352486193180084,0.07491015642881393,0.04017900675535202,-0.07610125839710236,-0.04404067248106003,0.03353157639503479,0.04436739534139633,0.050590597093105316,0.007694140076637268,0.08783329278230667,0.08120930939912796,-0.050349678844213486,0.042123325169086456,0.032175302505493164,0.08785120397806168,0.01812390238046646,-0.06518259644508362,0.05497346073389053,0.010211050510406494,-0.05539204180240631,-0.0879865363240242,-0.05397921800613403,0.04473774880170822,0.07273074239492416,0.039272330701351166,-0.048476818948984146,-0.06397803127765656,0.074664406478405,0.06524989753961563,-0.050769153982400894,0.0019009783864021301,-0.06204117089509964,-0.08346584439277649,0.06440886110067368,-0.0028901025652885437,-0.07085605710744858,0.009855657815933228,0.06913002580404282,-0.0194152370095253,-0.023220986127853394,-0.0218830406665802,-0.04036204516887665,0.042285092175006866,-0.041578520089387894,-0.08345919847488403,0.050433896481990814,-0.03459623083472252,0.004416964948177338,0.015030331909656525,-0.016438208520412445,-0.015301220118999481,-0.0498194620013237,-0.0625649094581604,0.0867435559630394,-0.08235041797161102,0.05890578776597977,0.06965603679418564,0.06601246446371078,0.0464835986495018,-0.08307277411222458,-0.07629303634166718,-0.014011338353157043,0.013777509331703186,-0.04969914257526398,-0.045353326946496964,0.03458070755004883,0.057834528386592865,0.029809199273586273,0.02983495593070984,-0.06648784130811691,0.028293907642364502,-0.0248526930809021,-0.08176236599683762,0.08374353498220444,0.023173317313194275,-0.07286609709262848,-0.014995425939559937,0.08669709414243698],[-0.06544230878353119,-0.06718162447214127,0.0817379578948021,-0.007599592208862305,0.005731008946895599,0.06383805721998215,0.04180438071489334,0.02183302491903305,0.05356154590845108,-0.021403327584266663,0.0022714734077453613,0.06076810508966446,-0.0011103302240371704,-0.01076006144285202,0.020984865725040436,0.016582831740379333,0.05633043497800827,-0.007900692522525787,-0.005837582051753998,0.04272045940160751,0.059375934302806854,0.0681517943739891,0.027535535395145416,-0.0840115025639534,0.04633817821741104,-0.04607745260000229,0.0431271567940712,-0.052546001970767975,0.06879042834043503,0.06055986136198044,0.08819485455751419,-0.01581908017396927,0.0873144194483757,-0.08528891950845718,0.011861689388751984,0.04622536152601242,0.05710688978433609,-0.07224158197641373,0.08405906707048416,0.08065464347600937,-0.03830352798104286,0.0780213251709938,0.01326616108417511,-0.006248451769351959,-0.08157199621200562,-0.0619468167424202,0.03150609880685806,-0.029711969196796417,0.03521367162466049,-0.07645818591117859,0.0496964231133461,-0.008253246545791626,0.02074536681175232,-0.04464620724320412,-0.0014741942286491394,-0.059106625616550446,0.04327356070280075,-0.03705244138836861,0.0016512274742126465,-0.05221215635538101,0.02516321837902069,0.003004409372806549,-0.013846546411514282,0.040542759001255035,0.05945000797510147,-0.025493532419204712,-0.06882651150226593,0.011960431933403015,0.03497827798128128,0.05912432819604874,-0.03403124958276749,0.05996646732091904,-0.07532346248626709,-0.07796861231327057,0.06880631297826767,-0.06765713542699814,0.033282630145549774,-0.07732614874839783,-0.035154685378074646,-0.025436773896217346,0.08010558038949966,0.0849427655339241,0.008358299732208252,-0.04214998707175255,-0.016621284186840057,-0.04121865704655647,-0.008552037179470062,0.07708936184644699,-0.03634665161371231,0.00857795774936676,-0.08600524812936783,0.055183179676532745,-0.07544359564781189,-0.049895029515028,-0.048151616007089615,0.02117346227169037,0.037193648517131805,0.060987167060375214,0.04461463540792465,0.05541171878576279,0.04145070165395737,0.08432164043188095,-0.0568971186876297,-0.0037776604294776917,-0.067548468708992,-0.014461711049079895,-0.04102316126227379,-0.016491279006004333,-0.07400394231081009,-0.08589322119951248,0.01762370765209198,0.03514998406171799,0.08624733239412308,0.022036954760551453,-0.023856662213802338,0.04528283327817917,0.04333669692277908,0.05740564316511154,-0.028257396072149277,0.06716472655534744,-0.07532858848571777,0.016645289957523346,-0.013896122574806213,0.026867814362049103,0.06649216264486313,0.03377562016248703,0.013688601553440094,0.04914761334657669],[-0.01669584959745407,-0.07617214322090149,0.03480926901102066,0.024401120841503143,-0.06722556054592133,-0.04340215027332306,-0.08491659164428711,-0.04108172282576561,0.020991742610931396,0.0018940716981887817,-0.05205264315009117,-0.07604910433292389,0.009325876832008362,-0.042500123381614685,-0.01515679806470871,-0.07062777131795883,0.05235428363084793,0.06580737978219986,-0.08097917586565018,-0.020359687507152557,-0.04622555524110794,0.0799243375658989,0.0340300053358078,0.010595820844173431,0.002744153141975403,0.031352005898952484,-0.06337615102529526,0.06295878440141678,-0.05484872683882713,-0.08204706013202667,-0.0663556382060051,-0.03922755643725395,-0.02503035217523575,0.07699849456548691,0.037264637649059296,0.06662743538618088,0.031359121203422546,0.0882483497262001,-0.005419053137302399,0.009046629071235657,-0.06344150006771088,0.060103125870227814,-0.05293561890721321,0.0036591365933418274,0.06468594819307327,0.02758539468050003,0.053918056190013885,0.02728380262851715,-0.054397325962781906,-0.06474432349205017,-0.0292825885117054,-0.01989147812128067,-0.022157691419124603,0.04616967588663101,-0.04409278929233551,-0.04202984645962715,-0.0783427283167839,0.018033653497695923,0.04644342511892319,-0.025006622076034546,-0.05377298220992088,0.02812439203262329,-0.07578588277101517,-0.0347469262778759,0.049771688878536224,-0.07588708400726318,-0.025224246084690094,0.017188623547554016,-0.024733923375606537,0.032025061547756195,0.030488915741443634,-0.019444964826107025,-0.007807500660419464,0.036501288414001465,0.02426423877477646,0.07944317907094955,-0.01886272430419922,-0.03063138946890831,0.012099631130695343,-0.011202529072761536,-0.04998597130179405,-0.08819975703954697,0.0880328044295311,0.025216467678546906,-0.032061170786619186,0.07782136648893356,-0.019907191395759583,0.042823679745197296,-0.02324742078781128,-0.0488409698009491,-0.014234557747840881,-0.015706636011600494,-0.05038582906126976,-0.0535152330994606,0.0400238111615181,-0.08275510370731354,-0.07466030865907669,0.0301196426153183,-0.01210232824087143,0.040467776358127594,-0.03973817825317383,0.030335508286952972,0.06270086020231247,0.08203522115945816,-0.03713274374604225,0.0654735192656517,-0.035718630999326706,-0.008232161402702332,0.08026676625013351,0.005195893347263336,0.0790627971291542,0.05222418159246445,-0.04922934249043465,-0.07727830111980438,-0.0624702163040638,-0.027587536722421646,-0.004418008029460907,-0.045492157340049744,-0.009702689945697784,-0.056229814887046814,0.02659812569618225,-0.08441069722175598,0.02912222594022751,0.08805657178163528,-0.07396674901247025,-0.01299642026424408,-0.07736782729625702,0.021656200289726257],[-0.0034034624695777893,0.008822090923786163,-0.01652296632528305,-0.043178655207157135,0.015163339674472809,0.06273948401212692,0.06596315652132034,-0.05061903968453407,0.006564989686012268,0.06784356385469437,0.02485039085149765,0.005384281277656555,-0.030830852687358856,0.014009140431880951,-0.0020055994391441345,0.00981486588716507,0.007124774158000946,-0.06809650361537933,-0.03653775528073311,-0.07688389718532562,-0.07306166738271713,0.06294242292642593,0.06197402626276016,0.029614537954330444,0.03304501622915268,0.01348751038312912,-0.0683048665523529,-0.031082522124052048,-0.06805978715419769,-0.04021510109305382,0.011509969830513,0.04981573671102524,0.06089598685503006,-0.07343155890703201,-0.06742006540298462,-0.07383357733488083,-0.04526970908045769,0.015915431082248688,0.011830396950244904,-0.00627242773771286,-0.07899681478738785,0.02570916712284088,-0.062035366892814636,-0.05023454502224922,0.054835833609104156,-0.07723167538642883,0.08267325907945633,0.00012373179197311401,-0.0835157185792923,-0.00258433073759079,-0.017919406294822693,0.02143789827823639,0.004938684403896332,-0.07608185708522797,0.07300899177789688,-0.056495100259780884,4.2028725147247314e-05,0.0858376994729042,-0.000534936785697937,-0.04111640900373459,0.033876508474349976,0.03865524381399155,0.07481003552675247,-0.053240057080984116,0.005833864212036133,-0.03925465792417526,0.05032502859830856,-0.0745985209941864,0.04274827986955643,0.06595862656831741,0.052359528839588165,-0.04812456667423248,-0.014701925218105316,0.03601189702749252,0.07649920135736465,-0.07648967951536179,0.008885808289051056,-0.05462773144245148,0.06540725380182266,-0.08771230280399323,-0.031050361692905426,0.025457561016082764,-0.0498836375772953,0.0754908099770546,0.0660834088921547,-0.056429699063301086,0.07002093642950058,0.008298374712467194,-0.022127829492092133,-0.018458381295204163,0.03310510516166687,0.035014428198337555,0.014364637434482574,-0.02572091668844223,-0.013613946735858917,-0.01903417706489563,0.050538383424282074,-0.07521364092826843,-0.0023064464330673218,-0.03724115341901779,0.025765947997570038,-0.06246776878833771,0.04658324271440506,-0.0030556991696357727,-0.025726698338985443,-0.04173610731959343,-0.04677966237068176,0.04942973703145981,0.027873501181602478,-0.01515968143939972,-0.016216471791267395,0.062452249228954315,0.01632685959339142,-0.015484698116779327,0.011136800050735474,0.0531516894698143,0.002221152186393738,-0.0652407854795456,-0.08157920837402344,0.008623972535133362,-0.048478346318006516,0.0189802348613739,0.08464152365922928,-0.08809509873390198,-0.06281951814889908,0.02638886868953705,0.03310677409172058,0.06707949191331863],[0.01504894345998764,-0.06561645865440369,-0.04492494836449623,-0.05441170558333397,0.008193545043468475,0.023870445787906647,0.0883193388581276,0.06565796583890915,-0.024548761546611786,0.04764769226312637,-0.07479455322027206,-0.0011915937066078186,0.04607146233320236,0.0024560019373893738,0.02848968654870987,0.02502356469631195,-0.02003408968448639,0.039530880749225616,-0.03238147497177124,0.06930718570947647,-0.0018677711486816406,-0.07213027775287628,-0.00592494010925293,0.07690723985433578,-0.08570927381515503,0.0569734200835228,-0.0419013537466526,0.009395577013492584,0.05306985229253769,0.05577372759580612,0.03349491208791733,-0.058551717549562454,-0.03944362327456474,0.08335014432668686,0.04700955003499985,0.015887431800365448,0.06723055988550186,0.02399574965238571,-0.030393850058317184,0.007141701877117157,-0.021585077047348022,-0.06138274073600769,-0.04536054655909538,0.05186513811349869,0.07523743063211441,0.0002170354127883911,-0.00856422632932663,-0.03251563012599945,0.0401938334107399,-0.06583666801452637,-0.08827066421508789,0.016954146325588226,-0.000668652355670929,0.081568144261837,0.041648007929325104,0.06080193072557449,0.003268688917160034,-0.03202046826481819,0.06887366622686386,-0.03656373918056488,0.0013313740491867065,0.03570040315389633,0.08706334978342056,0.07438140362501144,-0.00784464180469513,0.017002426087856293,-0.017923280596733093,0.023420803248882294,-0.08832378685474396,0.07184147089719772,-0.0040961578488349915,0.07689578086137772,-0.08312176913022995,-0.07187766581773758,0.03886578232049942,-0.02225734293460846,0.08464250713586807,0.055619917809963226,-0.0744142085313797,0.06968957930803299,0.03291935473680496,0.03146451711654663,-0.04557197540998459,-0.06043552607297897,-0.08039835095405579,-0.052947305142879486,-0.02891043946146965,0.03914584964513779,-0.051036398857831955,-0.022558681666851044,-0.01847657561302185,-0.08442578464746475,0.0447135791182518,0.004644989967346191,-0.06108027696609497,-0.08083571493625641,-0.03255642578005791,0.06622464209794998,0.06741497665643692,-0.0716669112443924,0.029717139899730682,-0.017262674868106842,-0.044589973986148834,0.023150883615016937,-0.07256551086902618,-0.04981960728764534,0.04772690683603287,0.03425426781177521,0.07586277276277542,0.05921918898820877,0.01197071373462677,-0.04481758922338486,0.08760973066091537,-0.034837447106838226,-0.027380309998989105,-0.08457640558481216,0.05521731823682785,-0.050156403332948685,0.06262942403554916,0.06959765404462814,0.020148247480392456,0.05766197293996811,-0.006735771894454956,0.08734764903783798,-0.002357378602027893,0.08174716681241989,0.06291841715574265,-0.009382471442222595],[-0.025982245802879333,0.0637039914727211,0.06743348389863968,-0.0030630677938461304,0.01263204962015152,-0.06438422203063965,0.06710507720708847,-0.04666070267558098,-0.037554483860731125,-0.05954119935631752,0.010847195982933044,0.06221739202737808,-0.05617984011769295,0.0011474788188934326,0.06233280152082443,-0.07953334599733353,-0.032596372067928314,-0.056874167174100876,-0.06617727130651474,-0.023164764046669006,-0.06600598990917206,-0.042847856879234314,0.053698934614658356,0.0570843443274498,0.0628543570637703,-0.004789523780345917,0.079253189265728,-0.07091746479272842,-0.041597411036491394,-0.06669379770755768,-0.052015289664268494,-0.06829424202442169,0.04671303182840347,0.019779346883296967,0.06694632023572922,-0.06459047645330429,0.011789277195930481,-0.03766929358243942,-0.033194709569215775,0.04964665323495865,-0.016602538526058197,0.005096167325973511,0.06402643769979477,0.029370494186878204,-0.0538778118789196,-0.08135437220335007,-0.025848418474197388,-0.014393337070941925,0.028591476380825043,-0.06937579810619354,0.06629554182291031,0.0699191763997078,-0.03473011776804924,0.04928428679704666,-0.0708269327878952,0.03665252774953842,0.08368391543626785,-0.06684338301420212,0.018478751182556152,0.05449175089597702,0.08101286739110947,-0.061820805072784424,-0.05974429473280907,0.03514701873064041,0.07286671549081802,0.054940469563007355,-0.017504006624221802,0.07377815991640091,0.05230378359556198,0.04616238921880722,0.008316963911056519,8.55177640914917e-05,0.024020925164222717,0.018765859305858612,0.08173442631959915,0.04599601775407791,-0.0844075009226799,0.07129169255495071,0.04424203187227249,0.0670386478304863,-0.03746402636170387,0.041853852570056915,-0.024233929812908173,0.006135307252407074,-0.012628741562366486,0.08836368471384048,0.008878380060195923,0.06748274713754654,-0.0306522436439991,-0.044342003762722015,-0.07713916152715683,0.050817809998989105,-0.08640027046203613,-0.027153782546520233,-0.013358034193515778,0.08241907507181168,0.05837560445070267,-0.007344655692577362,0.0458652600646019,-0.05337417870759964,-0.08623217791318893,-0.07147976011037827,0.04218681901693344,0.021642573177814484,-0.027207180857658386,0.05908716470003128,0.02290179580450058,0.013909220695495605,0.030568711459636688,0.07780789583921432,0.005302391946315765,0.0030972734093666077,0.0388774648308754,-0.01915012300014496,-0.03621292859315872,0.06607752293348312,0.010971784591674805,0.013490699231624603,-0.05989621579647064,0.0435149148106575,0.05144808441400528,-0.07232539355754852,0.01795043796300888,0.019717834889888763,0.00831226259469986,-0.07361216843128204,0.07588223367929459,-0.07267816364765167],[-0.055667947977781296,-0.05122470110654831,0.061101995408535004,-0.05548103526234627,0.03303362429141998,-0.011769212782382965,-0.015801772475242615,0.0565338060259819,-0.015569068491458893,0.045192934572696686,0.04943802207708359,0.0460696741938591,0.03530140221118927,-0.0555562786757946,0.07001247256994247,-0.06503001600503922,0.08667420595884323,0.021591179072856903,-0.0518745519220829,-0.049557264894247055,0.0007644146680831909,0.02829425036907196,-0.05296862870454788,-0.026879701763391495,-0.04510824382305145,0.028358064591884613,-0.08230061084032059,0.025968968868255615,-0.048982106149196625,0.035959772765636444,-0.012068837881088257,-0.08326568454504013,0.05476146191358566,0.0860917791724205,-0.08050886541604996,0.04459211975336075,0.03436338156461716,0.0693022683262825,-0.06416044384241104,-0.07500581443309784,-0.04318488389253616,-0.0639633759856224,-0.048577193170785904,0.0067346543073654175,-0.02475550025701523,0.08185520023107529,-0.048203930258750916,0.052916280925273895,-0.0799676701426506,-0.030717507004737854,0.0158814936876297,0.02618326246738434,-0.025370366871356964,-0.026314541697502136,0.00405527651309967,0.08564857393503189,0.03217572718858719,-0.025871865451335907,-0.04884608834981918,0.02015865594148636,0.08141431957483292,0.0043012648820877075,0.028212592005729675,-0.08572891354560852,0.019462212920188904,0.08642301708459854,-0.02725468948483467,-0.01610313355922699,-0.06782646477222443,0.017890512943267822,-0.06499248743057251,0.03374914079904556,0.019493468105793,-0.01834460347890854,-0.054426342248916626,-0.00914030522108078,-0.07915832102298737,0.052565254271030426,0.05032307654619217,0.047586165368556976,0.07951418310403824,-0.0369180366396904,-0.04038246348500252,-0.011638380587100983,0.07129154354333878,-0.008653439581394196,0.05195566266775131,0.04551927000284195,0.0775047168135643,-0.03442526236176491,0.05483867973089218,-0.010797657072544098,-0.07758866995573044,-0.012646712362766266,0.054999835789203644,0.07270532101392746,-0.020584754645824432,-0.08558445423841476,0.016141369938850403,0.08197782188653946,0.03847191482782364,0.055227600038051605,0.05595903843641281,0.010430566966533661,0.08781106024980545,0.08603409677743912,0.06192215532064438,0.0693184956908226,-0.07441557198762894,-0.08253441005945206,-0.08137039095163345,0.06177333742380142,0.06653549522161484,-0.007049567997455597,0.021747581660747528,0.011997796595096588,0.0395490899682045,-0.04323935881257057,-0.0722198635339737,0.04251305013895035,-0.0030265748500823975,0.03339865803718567,0.023391731083393097,0.07378845661878586,-0.03444909304380417,0.025400996208190918,0.025203116238117218,-0.058543603867292404],[-0.07933961600065231,0.05940964072942734,0.054068051278591156,0.0012995228171348572,-0.012668676674365997,-0.08532688021659851,-0.038623202592134476,-0.0058274045586586,0.01998016983270645,0.039111725986003876,-0.0452488549053669,0.05470886081457138,-0.022573113441467285,-0.0426204614341259,0.07250475138425827,0.0015405714511871338,-0.010143555700778961,-0.027663927525281906,-0.0626649335026741,-0.07607702910900116,0.08233018964529037,0.08078966289758682,0.02843049168586731,0.0847175344824791,0.01622140407562256,-0.014760531485080719,0.03311941772699356,0.03471415489912033,0.03659825026988983,0.001136593520641327,0.009525798261165619,-0.01974719762802124,0.06478001922369003,-0.013340845704078674,-0.035635706037282944,-0.06409143656492233,0.08699960261583328,0.009370267391204834,0.07386735826730728,-0.053388066589832306,0.009264007210731506,0.05293191224336624,0.008874960243701935,0.051296450197696686,0.0069725289940834045,-0.042112257331609726,-0.008029244840145111,0.0335044339299202,0.05295603722333908,0.04167468100786209,-0.03823492303490639,-0.07167862355709076,0.08833453804254532,-0.016237884759902954,0.08281490951776505,-0.0627310648560524,0.03521845489740372,0.04528070241212845,-0.05702706798911095,-0.01913806051015854,-0.08785980194807053,0.017780311405658722,0.07191937416791916,-0.008449740707874298,-0.0558277890086174,-0.0038642212748527527,0.0009257793426513672,0.010231934487819672,0.05988659709692001,-0.05802341550588608,0.05212128907442093,-0.07524881511926651,0.03231506049633026,-0.06140967458486557,-0.049093205481767654,0.06675798445940018,0.06849648803472519,0.08255084604024887,0.043430395424366,0.020819224417209625,0.030511580407619476,0.05629921704530716,-0.01330433040857315,-0.0015311986207962036,-0.07635829597711563,-0.023693017661571503,0.001545935869216919,0.00420699268579483,0.00033407658338546753,0.04174848645925522,-0.06818443536758423,-0.037579044699668884,-0.06961917877197266,0.0016212314367294312,0.06704431027173996,-0.055747296661138535,0.00493168830871582,0.08074121922254562,0.01817261427640915,0.0029495209455490112,-0.014828935265541077,-0.08420877903699875,0.03058762103319168,0.04490602761507034,0.054171301424503326,0.028964325785636902,-0.03407501056790352,0.0880063995718956,-0.04323038086295128,0.02026204764842987,-0.003551475703716278,0.02434040606021881,0.027699455618858337,0.0584292933344841,0.0710868164896965,-0.07904963940382004,0.07359408587217331,-0.05733903497457504,0.03866616636514664,-0.01772279292345047,0.0067832693457603455,0.030825182795524597,-0.031027812510728836,0.08071056753396988,0.008403196930885315,0.07691308110952377,0.015246160328388214,0.06661950796842575],[0.03214103728532791,-0.043414339423179626,0.027210228145122528,-0.08577915281057358,0.018672816455364227,-0.04432959109544754,-0.014230377972126007,0.07207799702882767,-0.07771109789609909,-0.006367526948451996,-0.0243879035115242,-0.062140122056007385,-0.03541208803653717,0.08522019535303116,-0.06607737392187119,0.010237246751785278,0.05103188008069992,-0.013088315725326538,0.007783256471157074,0.08366688340902328,-0.01314479112625122,-0.04746273532509804,0.08563122898340225,-0.041716959327459335,-0.06587765365839005,-0.04260919988155365,0.029835298657417297,-0.0503300279378891,0.03948836773633957,-0.05695099011063576,0.03346707671880722,0.017863333225250244,0.032604560256004333,-0.06609010696411133,0.064720518887043,0.08831065148115158,-0.08329635113477707,0.03580854833126068,0.005873657763004303,-0.028010521084070206,-0.023268871009349823,-0.049903448671102524,0.08210312575101852,-0.007559172809123993,0.0025699585676193237,-0.05005292221903801,0.05304604023694992,0.08281507343053818,-0.057456448674201965,0.05899513512849808,-0.03818192705512047,0.04623539000749588,-0.07284487038850784,-0.07410815358161926,0.026125594973564148,0.0528615340590477,-0.004205599427223206,0.06271678954362869,-0.07352657616138458,-0.07254418730735779,0.02362643927335739,0.04160856455564499,0.062317587435245514,0.06239453703165054,0.07433144003152847,-0.058969151228666306,0.014754675328731537,0.01316361129283905,-0.01761944591999054,0.02592608332633972,0.08522213250398636,-0.0862278863787651,0.08658405393362045,-0.06583645939826965,-0.025539837777614594,-0.03088577836751938,0.04011673480272293,-0.03661719337105751,0.06464024633169174,0.04456145316362381,-0.02678932622075081,0.08244640380144119,-0.046290453523397446,0.07474390417337418,0.06941110640764236,0.05599988251924515,0.03015655279159546,0.03726863116025925,0.027947090566158295,-0.029583852738142014,-0.003044024109840393,0.019591696560382843,-0.07086174935102463,-0.04949834197759628,-0.07596837729215622,0.01861889660358429,-0.0227033793926239,0.07251385599374771,-0.06098058819770813,0.04917540401220322,-0.04230749234557152,-0.005820639431476593,-0.08602762967348099,0.021406829357147217,-0.016345493495464325,-0.0761997178196907,0.03120749443769455,-0.02065970003604889,-0.0299474336206913,-0.060729674994945526,-0.07577759027481079,-0.00546438992023468,0.03325055539608002,0.03052191436290741,0.01555836945772171,-0.04595149680972099,-0.01650642603635788,0.07034405320882797,-0.08803044259548187,0.038772471249103546,0.026512905955314636,-0.08434666693210602,0.05557907372713089,-0.06012943387031555,0.06532297283411026,-0.03229064866900444,-0.030777260661125183,-0.0019211024045944214],[-0.05920558422803879,0.07742150872945786,0.08827794343233109,-0.05504544824361801,-0.010763600468635559,0.0039000511169433594,0.0603342279791832,-0.00769440084695816,-0.08767878264188766,0.022708646953105927,0.088352270424366,-0.012681156396865845,0.021115757524967194,-0.0200551375746727,-0.02067381888628006,0.03924023360013962,0.013485386967658997,0.03503962606191635,-0.0038051754236221313,-0.03035716339945793,-0.08651679754257202,-0.013885900378227234,0.038283951580524445,0.06109211593866348,-0.005764126777648926,6.365031003952026e-05,-0.03588757663965225,0.052513591945171356,0.0765310749411583,0.04144953936338425,-0.04584755003452301,0.08168407529592514,-0.06505069881677628,0.07874470204114914,-0.08156239986419678,-0.03921465948224068,0.03854077309370041,0.01635167747735977,0.02823479473590851,-0.007600225508213043,-0.05825456231832504,0.07489324361085892,-0.007642656564712524,-0.007879912853240967,-0.042481545358896255,0.03503197431564331,-0.05099043622612953,0.021726109087467194,-0.012230686843395233,0.04020928591489792,0.06341811269521713,0.05577070266008377,-0.061635181307792664,-0.0681319609284401,0.026365064084529877,-0.03289885073900223,0.038475535809993744,0.07320903986692429,-0.07460933178663254,-0.048616115003824234,-0.07289135456085205,0.02239016443490982,-0.03048163279891014,-0.074740931391716,0.04022858291864395,0.08688656240701675,0.03001602739095688,0.07191143184900284,-0.032821740955114365,-0.016257427632808685,-0.017044715583324432,0.042918719351291656,0.051913730800151825,0.041079528629779816,0.0691000446677208,0.06552854925394058,-0.08030665665864944,0.025434590876102448,-0.046734679490327835,0.009081803262233734,-0.01314523071050644,-0.05133834853768349,0.07022774964570999,-0.027115195989608765,-0.0031340718269348145,0.014346547424793243,-0.025045007467269897,0.010724477469921112,-0.004812560975551605,-0.0827491283416748,0.029299139976501465,0.018126681447029114,0.05023310333490372,-0.0808589980006218,-0.03711424022912979,0.00553874671459198,0.010056503117084503,0.04995141178369522,-0.021202899515628815,0.03299803286790848,-0.06327122449874878,0.020450860261917114,0.0860852375626564,0.08502844721078873,-0.06286986172199249,-0.0333869643509388,-0.047433219850063324,0.02409231662750244,0.06320846825838089,-0.003959052264690399,0.02228061854839325,-0.03547486662864685,-0.016984708607196808,-0.0301998071372509,0.0825292095541954,-0.08093263953924179,0.019831642508506775,-0.0281345397233963,-0.03776190057396889,0.00046703219413757324,-0.08516229689121246,0.031683847308158875,-0.032342955470085144,-0.016028158366680145,-0.01906357705593109,-0.06516733765602112,-0.056084830313920975,-0.08717971295118332],[-0.0016316324472427368,0.07199179381132126,0.00504814088344574,-0.043605487793684006,-0.01786036044359207,0.08167967945337296,-0.030863072723150253,-0.05237188562750816,0.045017145574092865,-0.022690758109092712,0.041946180164813995,-0.01071874052286148,0.0568576380610466,0.0003803446888923645,0.007859103381633759,-0.04918578267097473,0.0018766969442367554,0.000974215567111969,0.03321787714958191,-0.026192937046289444,0.00370064377784729,-0.04264751076698303,-0.04061147943139076,-0.012926161289215088,0.005999468266963959,-0.030376814305782318,-0.03397992625832558,0.03846863657236099,0.036058343946933746,-0.07091517746448517,-0.08296757936477661,-0.011198461055755615,0.006526440382003784,0.07659172266721725,-0.046127691864967346,0.04859144240617752,0.06897794455289841,-0.011688470840454102,0.029698699712753296,-0.019576765596866608,0.06684952229261398,-0.034775037318468094,0.008048854768276215,0.04035010188817978,0.06643741577863693,-0.057321999222040176,0.03808348625898361,-0.08672470599412918,0.01860532909631729,-0.039230845868587494,-0.04557585343718529,-0.00033718347549438477,-0.06967214494943619,0.02604243904352188,0.010100685060024261,-0.08152028918266296,0.026875115931034088,-0.05012216046452522,0.033471815288066864,0.0730723962187767,0.009974539279937744,-0.02020757645368576,-0.038570720702409744,0.06453710049390793,0.010541968047618866,0.07523263245820999,0.08682318776845932,-0.0518912635743618,-0.01991327852010727,-0.03941132873296738,-0.02116234600543976,0.019906222820281982,-0.033544667065143585,-0.022015444934368134,-0.0760732889175415,0.052080459892749786,0.05191194266080856,-0.07468835264444351,-0.03347581997513771,-0.00395464152097702,0.07587338238954544,-0.03584769740700722,0.05270247906446457,-0.022056393325328827,-0.053372059017419815,-0.028113581240177155,0.025083430111408234,-0.07154971361160278,-0.04040173813700676,0.04473070055246353,-0.02123856544494629,0.049844659864902496,-0.009231574833393097,-0.018675945699214935,0.009555809199810028,-0.044378966093063354,-0.034337226301431656,-0.02365685999393463,-0.04573437571525574,-0.029157020151615143,0.017114505171775818,0.061338476836681366,-0.03890964388847351,0.009043954312801361,0.05748038738965988,-0.0253421813249588,0.009590059518814087,-0.03306066244840622,0.001976877450942993,-0.06454450637102127,0.02871941775083542,0.040442369878292084,-0.05823627859354019,-0.08232370764017105,-0.08728071302175522,0.06787795573472977,0.07510829716920853,0.034143783152103424,-0.071314238011837,-0.06267239153385162,-0.05235734209418297,0.04233091324567795,-0.08547380566596985,-0.08451744168996811,0.08278248459100723,-0.01522902399301529,-0.03997721150517464,-0.006869718432426453],[0.05744857341051102,0.023639850318431854,-0.0861995741724968,-0.0014041140675544739,-0.05202404409646988,0.007573850452899933,-0.08398953080177307,0.08002042025327682,0.08566739410161972,0.04981868714094162,0.05099738389253616,-0.06066019833087921,0.031392619013786316,0.03840611129999161,-0.00020848214626312256,0.031047075986862183,-0.026154112070798874,0.05331867188215256,0.061753444373607635,-0.04913844168186188,0.02086780220270157,0.08662980049848557,-0.06858668476343155,0.03766866773366928,0.07264239341020584,-0.04281182959675789,-0.02957267314195633,-0.024829722940921783,-0.016755014657974243,-0.0011526942253112793,-0.00042138248682022095,0.008874848484992981,-0.06796546280384064,0.0021614059805870056,-0.0029376372694969177,0.05705510824918747,0.025968432426452637,-0.05038529261946678,-0.04899989441037178,0.028954945504665375,-0.017205871641635895,0.02392638474702835,0.05422385782003403,0.0047948285937309265,-0.030675172805786133,-0.035659488290548325,-0.015474848449230194,0.07748385518789291,-0.015465952455997467,0.034256912767887115,-0.013017252087593079,0.0603254958987236,0.044215016067028046,-0.06077748164534569,0.03242528438568115,-0.01710374653339386,-0.03240343555808067,0.024265572428703308,-0.07147593051195145,0.06901281327009201,0.03217344731092453,0.04742354899644852,0.03584077209234238,0.0814630314707756,0.03947610408067703,-0.0810367688536644,0.05454619973897934,0.008127786219120026,0.015116386115550995,0.002648361027240753,-0.010305002331733704,0.06217113882303238,0.021598048508167267,-0.08288639783859253,-0.07461989670991898,0.0859411433339119,-0.08536164462566376,-0.07710763812065125,0.07540661841630936,-0.04881034791469574,0.023145772516727448,0.06378614157438278,-0.047644659876823425,-0.029001552611589432,0.03399365395307541,-0.036514583975076675,0.05216415971517563,-0.0473773255944252,0.007910318672657013,0.04796730726957321,0.038996241986751556,0.008488304913043976,-0.061725787818431854,0.013851843774318695,-0.04123056307435036,-0.0543314591050148,-0.08559072017669678,-0.0063524916768074036,-0.07886351644992828,-0.020733244717121124,-0.051534269005060196,0.0691940113902092,-0.0447111576795578,0.05270744115114212,-0.00657866895198822,0.05614081770181656,-0.02246563881635666,-0.06527895480394363,-0.04079883173108101,-0.08394818753004074,0.0032189860939979553,-0.07624081522226334,-0.06703345477581024,0.03521827608346939,-0.02551853656768799,0.0019426867365837097,-0.07917854189872742,0.059679098427295685,-0.08570315688848495,0.06191837042570114,0.08167611807584763,-0.0851038247346878,0.009897857904434204,0.029975630342960358,0.007906578481197357,-0.027313105762004852,0.011820361018180847,-0.07432617992162704],[-0.07488048076629639,0.011708654463291168,0.07380912452936172,0.002644091844558716,0.026597991585731506,0.033191338181495667,-0.0027275756001472473,-0.04617003723978996,-0.08506865799427032,0.03386346250772476,0.08069761842489243,-0.022037185728549957,0.07207069545984268,-0.01432492583990097,0.05492309480905533,-0.053017131984233856,0.03461995720863342,0.07339596003293991,0.031771980226039886,-0.056151941418647766,0.06612793356180191,0.0696507915854454,-0.05404234305024147,0.015567287802696228,0.07980658859014511,0.010106004774570465,-0.0034667253494262695,0.015409484505653381,0.054500363767147064,0.0607432946562767,-0.057967498898506165,-0.07359738647937775,0.06672843545675278,0.06073734909296036,0.001639626920223236,-0.04643092676997185,0.07657990604639053,0.05368422716856003,0.04341457039117813,-0.07960007339715958,-0.029915664345026016,-0.010429583489894867,-0.023691482841968536,-0.05606583505868912,-0.08076491951942444,-0.08553929626941681,-0.05242449417710304,-0.07938341796398163,0.053232647478580475,-0.0016603246331214905,-0.06450483202934265,-0.035313937813043594,0.0696006789803505,-0.01014157384634018,0.07501918822526932,-0.028027158230543137,-0.002821601927280426,-0.07827076315879822,0.00038635730743408203,0.05902887135744095,0.026447303593158722,-0.02289693057537079,0.009915731847286224,0.0800478383898735,0.016774475574493408,0.04694779962301254,0.04970135539770126,0.027244731783866882,0.007171563804149628,-0.06368834525346756,-0.04025033488869667,-0.07949930429458618,0.08038114756345749,0.06536706537008286,0.06470098346471786,-0.08684763312339783,0.03845531493425369,-0.026091068983078003,-0.06879875063896179,0.04595155268907547,0.06635183840990067,0.08227894455194473,-0.03554248809814453,0.04770933836698532,-0.03322967141866684,0.028436660766601562,-0.06412481516599655,0.07267143577337265,0.034636691212654114,-0.03953344747424126,-0.0009804293513298035,-0.02892911061644554,-0.037826258689165115,0.029767252504825592,0.04855179041624069,-0.037723030894994736,0.08472626656293869,0.03681228309869766,0.049656979739665985,-0.04070353880524635,-0.08382776379585266,0.07817327231168747,-0.013726025819778442,-0.028196346014738083,0.04682158678770065,-0.021500617265701294,0.08765409141778946,-0.0022810399532318115,-0.0879645049571991,-0.07669084519147873,-0.005549423396587372,-0.02639855071902275,-0.03929523378610611,0.0021568089723587036,0.004233039915561676,-0.059136517345905304,0.0019877105951309204,0.034981101751327515,0.06332247704267502,-0.06630802154541016,-0.07656823098659515,-0.08545965701341629,-0.05939794331789017,-0.02140418440103531,0.0117897167801857,0.028082095086574554,0.03252185881137848,-0.030320536345243454],[-0.0775734931230545,-0.0034238696098327637,-0.03325405344367027,-0.03251270949840546,0.04977836459875107,0.04996294528245926,0.0014538466930389404,-0.03264453634619713,0.043074555695056915,0.009596593677997589,-0.06774779409170151,0.03181400150060654,0.03316640853881836,-0.011231936514377594,-0.0040706247091293335,-0.01396721601486206,0.04276036471128464,-0.05193100497126579,0.03545113652944565,-0.07219729572534561,0.08461786061525345,-0.07037670165300369,-0.07741345465183258,0.05899108201265335,0.08087503165006638,0.056336842477321625,0.03414927423000336,-0.0849112868309021,-0.06329810619354248,0.04007094353437424,-0.022266946732997894,-0.07434751093387604,-0.05837666243314743,-0.009870380163192749,0.020670540630817413,-0.060532428324222565,0.023602299392223358,0.08680770546197891,-0.0015289708971977234,-0.046469904482364655,0.014946281909942627,0.022543884813785553,-0.07142917811870575,0.07353489845991135,-0.004521168768405914,0.03302154690027237,0.07976577430963516,0.013801753520965576,0.03355722874403,-0.008464448153972626,0.07100971788167953,-0.06930666416883469,-0.07763034105300903,-0.023717045783996582,0.07607451826334,0.07265456765890121,-0.0667860135436058,-0.08809132874011993,0.07346457988023758,0.06995581835508347,-0.011873997747898102,0.029603496193885803,-0.02744939923286438,-0.0016035810112953186,0.05562903732061386,-0.01622290164232254,0.014495745301246643,0.0446116104722023,-0.07434318959712982,-0.007464103400707245,0.053829021751880646,0.06954797357320786,0.023653246462345123,0.03508645296096802,0.022099152207374573,-0.05357661098241806,-0.04969583451747894,-0.026102028787136078,0.05874361842870712,-0.007009401917457581,0.08503628522157669,0.02310754358768463,-0.06829136610031128,0.059353820979595184,-0.04822351783514023,-0.08000659942626953,-0.03886762261390686,0.0012504160404205322,0.07754892855882645,0.04759467393159866,0.0575069859623909,0.0764743760228157,0.062460221350193024,0.020855218172073364,0.004479937255382538,0.004667162895202637,-0.04277403652667999,-0.0740286111831665,-0.08393402397632599,0.0874122753739357,-0.04998557269573212,0.00846496969461441,0.04820781201124191,-0.015411049127578735,0.010759450495243073,-0.0020107105374336243,0.08558487147092819,-0.0861578956246376,-0.03736790269613266,0.053164638578891754,0.08723167330026627,-0.0032427236437797546,0.05098893493413925,-0.07636095583438873,-0.04418173059821129,-0.03376920148730278,0.08763527125120163,0.08375368267297745,0.00014899671077728271,-0.0803728699684143,-0.07542282342910767,0.0379362478852272,-0.05436975136399269,0.03974946588277817,0.0452493354678154,-0.04208730533719063,-0.0587279237806797,0.03568584471940994],[0.04021187871694565,-0.03294399008154869,-0.042719148099422455,-0.07091207802295685,0.025300465524196625,0.0006132349371910095,0.027397125959396362,0.08334287256002426,0.01372893899679184,0.08541005104780197,-0.052406590431928635,0.013382822275161743,0.053487978875637054,-0.08626553416252136,-0.04470314830541611,0.024968184530735016,-0.08462096750736237,-0.03655729070305824,-0.007546707987785339,0.027281276881694794,0.021037191152572632,0.04518771916627884,-0.06878259778022766,-0.05694868415594101,0.02886924147605896,-0.012233078479766846,-0.05240572616457939,0.002119123935699463,-0.05332471802830696,-0.06393842399120331,-0.023758187890052795,0.03326709568500519,0.05868685990571976,-0.07923886924982071,-0.08727186918258667,0.05614941567182541,0.07756329327821732,0.054393671452999115,-0.0699787512421608,-0.07420346885919571,-0.0776776373386383,0.027019962668418884,-0.05437087640166283,-0.08405523002147675,0.05539592355489731,0.023226983845233917,0.021288439631462097,-0.062275707721710205,-0.04893987625837326,0.001971706748008728,-0.0318526066839695,0.0008663460612297058,0.031912900507450104,-0.05383232608437538,0.07954632490873337,0.022183649241924286,-0.061881814152002335,0.07429149001836777,0.026298873126506805,0.019608832895755768,0.06776150315999985,0.06201348453760147,0.06983000785112381,-0.03501806780695915,-0.06785514205694199,0.06083542853593826,0.07826060801744461,0.03687729686498642,-0.015213534235954285,-0.07695424556732178,-0.0014666914939880371,0.007669679820537567,-0.04981207475066185,-0.030981387943029404,0.05720850080251694,-0.0018353387713432312,-0.0006641820073127747,0.0635712519288063,0.02232934534549713,0.04288772493600845,-0.003962278366088867,-0.000860363245010376,0.07861068099737167,0.06652980297803879,0.04918677359819412,0.017643436789512634,-0.07056538015604019,-0.06124385818839073,-0.0024117976427078247,-0.033907074481248856,-0.01718965172767639,-0.05962955206632614,0.08649524301290512,0.019144341349601746,-0.05798456817865372,-0.06623215973377228,0.042985446751117706,-0.059153322130441666,-0.0686817318201065,-0.03139560669660568,-0.004116080701351166,-0.0002867951989173889,-0.057813167572021484,0.06677926331758499,0.08418098837137222,0.07045949250459671,0.0713963434100151,0.059602268040180206,-0.04377453774213791,-0.06497346609830856,-0.0036144256591796875,-0.019848719239234924,-0.03757750615477562,0.01196318119764328,0.033631086349487305,-0.05230691283941269,0.025845371186733246,-0.06564924865961075,0.01616036891937256,0.033258698880672455,0.07914822548627853,-0.02554617077112198,0.058618105947971344,0.07216844707727432,0.024560272693634033,0.06762371212244034,0.05275135487318039,-0.05554649978876114],[-0.08657320588827133,-0.08737737685441971,-0.0769868791103363,0.03807883709669113,-0.0055027976632118225,0.026482298970222473,-0.08335989713668823,0.06371352821588516,0.03644219785928726,0.04143010824918747,-0.05952963978052139,0.03141684830188751,0.07679105550050735,0.02974967658519745,-0.05706404894590378,0.06049522012472153,0.04882477968931198,-0.07029515504837036,-0.014668293297290802,0.034364864230155945,0.0701812282204628,0.08613341301679611,0.05916304141283035,0.00781441479921341,0.04548858851194382,-0.07114262878894806,0.03432225435972214,-0.0828273743391037,0.02009911835193634,-0.08365247398614883,-0.0746404379606247,-0.060188814997673035,0.054723821580410004,0.07500428706407547,0.049608416855335236,