{"name":"AI Pong right-side PPO policy","format":"ai-pong-mlp-json-v1","sourceCheckpoint":"selfplay_latest.pt","checkpointUpdate":1000,"observationSize":9,"actionSize":3,"hiddenSize":128,"actions":["stay","up","down"],"side":"right","deterministicAction":"argmax(logits)","envConfig":{"width":900,"height":600,"paddle_width":16,"paddle_height":96,"paddle_margin":36,"paddle_speed":540.0,"ball_radius":9,"serve_speed":360.0,"max_ball_speed":920.0,"ball_speedup":1.045,"max_bounce_angle":1.1344640137963142,"dt":0.016666666666666666,"score_to_win":7,"max_steps":100000,"hit_reward":0.05},"trainingConfig":{"updates":1000,"steps_per_update":128,"ppo_epochs":8,"batch_size":256,"learning_rate":0.0003,"gamma":0.99,"gae_lambda":0.95,"clip_eps":0.2,"entropy_coef":0.01,"value_coef":0.5,"hidden_size":128,"num_envs":64,"num_workers":24,"save_every":25,"checkpoint_dir":"checkpoints","seed":7,"device":"cuda","amp":true,"torch_compile":false},"layers":{"backbone0":{"weight":[[0.48566800355911255,0.4888531565666199,-0.1588936597108841,0.503857433795929,-0.4202161431312561,0.10195036232471466,-0.45752087235450745,-0.24414202570915222,-0.47931206226348877],[0.27709364891052246,-0.3633131980895996,-0.24905100464820862,0.5327754616737366,0.31689831614494324,0.214072585105896,0.014833773486316204,1.2425535917282104,0.05100678652524948],[-0.5315167307853699,-0.3607017695903778,-0.2670925259590149,0.028652068227529526,-0.14382711052894592,0.1308315545320511,0.7060921788215637,0.09526238590478897,-0.22984565794467926],[-0.03683474659919739,0.170218825340271,-0.4860953092575073,-0.24648833274841309,-0.23455026745796204,-0.5460880398750305,-0.9974952936172485,-0.27522012591362,-0.34693247079849243],[0.2925855219364166,0.24141432344913483,0.37131717801094055,-0.021362021565437317,0.38600340485572815,0.22317877411842346,-0.7601900100708008,-0.5597230792045593,-0.11108731478452682],[0.23966313898563385,-0.02942884899675846,0.9570162296295166,-0.1799446940422058,0.04715977609157562,-0.0602225586771965,0.38787609338760376,0.33315712213516235,-0.1443435400724411],[0.20346812903881073,0.2634560763835907,-0.23208874464035034,-0.33074963092803955,0.3246186673641205,-0.11681827157735825,-0.6642497777938843,-0.6457073092460632,-0.4883967339992523],[0.38788270950317383,-0.2993704378604889,-0.31543946266174316,0.009823528118431568,-0.25853070616722107,-0.3615787625312805,-0.5674285888671875,-0.20633697509765625,-0.10179920494556427],[-0.10657043009996414,-0.3816564083099365,-0.6044356226921082,0.07106892019510269,0.06448949873447418,0.49305078387260437,0.30299097299575806,-0.1436917781829834,-0.3648894429206848],[0.14815624058246613,0.008366730995476246,-0.23305639624595642,0.462785929441452,0.14159497618675232,0.31850165128707886,-0.2550995647907257,-0.24954047799110413,-0.05227970704436302],[0.3982101082801819,0.1178160160779953,0.3553868234157562,-0.008131557144224644,-0.20625858008861542,0.5052727460861206,-0.7301691174507141,-0.08040118962526321,-0.6418247818946838],[0.10646291077136993,-0.34823763370513916,0.32769691944122314,0.28056931495666504,-0.12398075312376022,0.3630441725254059,0.606792688369751,0.857508659362793,-0.28935518860816956],[0.17351064085960388,0.3546959161758423,0.15847936272621155,0.3955152630805969,-0.8207541704177856,0.0018964678747579455,0.5045121312141418,0.06752362847328186,-0.18906064331531525],[0.298657089471817,0.03667517006397247,0.4463675320148468,-0.036068085581064224,0.011743414215743542,-0.48260071873664856,0.07993911951780319,-0.0012336844811215997,-0.1617581993341446],[-0.3635564148426056,0.12663783133029938,-0.3426264822483063,0.25572219491004944,0.42425915598869324,0.23216308653354645,1.2708138227462769,0.18064868450164795,-0.06077463924884796],[0.3600972294807434,-0.24798350036144257,0.2652147710323334,0.23204822838306427,-0.30388951301574707,0.36920806765556335,-0.7982141971588135,-0.014773901551961899,-0.1087726280093193],[-0.3925941586494446,-0.25745806097984314,-0.13802625238895416,0.19037136435508728,-0.2636401355266571,0.34532925486564636,0.9245122075080872,0.61433345079422,0.008417386561632156],[-0.5576032996177673,-0.28358423709869385,-0.37119144201278687,0.1559380292892456,-0.17208300530910492,0.14107301831245422,1.2996165752410889,-0.039333220571279526,0.22771356999874115],[0.25934290885925293,-0.30987876653671265,-0.5650535225868225,-0.3496403992176056,0.11655919253826141,0.4808979332447052,-0.7568387389183044,0.014688828960061073,0.2359035313129425],[-0.17206664383411407,0.37501955032348633,0.24205578863620758,0.27498799562454224,-0.6693083643913269,-0.43361324071884155,0.7771959900856018,-0.08141424506902695,0.40052059292793274],[0.07576199620962143,0.004139450378715992,-0.16116611659526825,0.3386279344558716,-0.48096877336502075,0.27804726362228394,0.8511280417442322,0.34147220849990845,-0.0644257515668869],[0.22821614146232605,0.32891830801963806,-0.11227770149707794,0.08174145966768265,-0.19944116473197937,0.18865206837654114,0.5283380150794983,0.5340422987937927,0.17022375762462616],[0.18001268804073334,-0.39462295174598694,-0.3343178927898407,0.235904261469841,-0.3575645387172699,-0.09958634525537491,-0.8250485062599182,0.42063045501708984,0.2753690481185913],[0.3834168016910553,0.09204941987991333,-0.017273031175136566,-0.050504907965660095,0.34089356660842896,-0.2412644326686859,-1.0719883441925049,-0.020565485581755638,0.09506914019584656],[0.45513829588890076,0.33780184388160706,-0.5118290185928345,-0.2759420573711395,-0.0035554280038923025,0.1742449253797531,-0.4288591742515564,0.217087984085083,-0.1947002112865448],[0.26798635721206665,0.35574421286582947,-0.6366437077522278,-0.09101947396993637,0.49048107862472534,-0.09998170286417007,0.10798458755016327,0.31336256861686707,-0.17997558414936066],[-0.09915318340063095,0.2208060324192047,-0.37230777740478516,0.1676332801580429,0.1766318529844284,-0.3629424273967743,-0.16371330618858337,-0.19612586498260498,0.09116064012050629],[0.22089381515979767,-0.35847193002700806,-0.5949348211288452,-0.17103970050811768,-0.5980492234230042,0.06366310268640518,-0.5198907852172852,0.19352377951145172,0.20591393113136292],[-0.07710710912942886,-0.06804192811250687,-0.6451622247695923,-0.325399786233902,-0.42181655764579773,0.5685552358627319,0.9122381210327148,-0.15168344974517822,-0.05460014566779137],[0.36875492334365845,0.008145332336425781,-0.41802385449409485,-0.10311223566532135,0.4081684648990631,-0.2887859046459198,-1.0881181955337524,-0.20933488011360168,-0.5087972283363342],[-0.47090184688568115,-0.2004203051328659,0.5669125318527222,-0.04647109657526016,-0.6237631440162659,0.1591913104057312,0.5514415502548218,0.3890264928340912,-0.09086749702692032],[-0.16275271773338318,-0.0947403758764267,0.38112252950668335,-0.21809422969818115,0.3598949909210205,0.0852358415722847,-0.6245869398117065,-0.12852992117404938,0.055740442126989365],[0.1249837726354599,0.07991418987512589,-0.05721358582377434,0.3877995014190674,-0.11793150007724762,0.22768987715244293,1.1432702541351318,0.2966945171356201,0.0024698167107999325],[0.3714924156665802,-0.17656560242176056,-0.2348634898662567,0.36600416898727417,0.1290300041437149,-0.2959236204624176,-0.7808476686477661,0.6106382608413696,0.03754879906773567],[0.21776238083839417,0.32919082045555115,-0.4122280180454254,-0.3182739019393921,0.4547801911830902,-0.23848199844360352,-1.1301701068878174,-0.3031303882598877,-0.15409287810325623],[-0.09848082810640335,-0.08911384642124176,-0.18808786571025848,-0.30121973156929016,0.5505716800689697,-0.3179616630077362,0.5551512837409973,-0.8158881068229675,-0.009613058529794216],[0.009804395958781242,0.08054746687412262,-0.7488746643066406,-0.10990424454212189,-0.1838717758655548,-0.16516150534152985,0.44077154994010925,0.41183844208717346,-0.12551020085811615],[0.36828896403312683,-0.03359200060367584,0.03428831696510315,-0.18019194900989532,-0.18855969607830048,-0.3582673966884613,-1.3465211391448975,0.1399599015712738,0.0584004782140255],[0.049299053847789764,-0.19037389755249023,-0.28037410974502563,-0.14426939189434052,0.26864534616470337,-0.10435067117214203,-1.1225457191467285,-0.062186747789382935,0.22375550866127014],[0.1481986790895462,0.21410782635211945,0.09473617374897003,0.2248649001121521,0.5491447448730469,0.4884519875049591,1.0122932195663452,-0.12953399121761322,-0.1659519225358963],[0.27058595418930054,0.13055925071239471,-0.3131301701068878,0.013371419161558151,0.6746402978897095,0.24754905700683594,0.38589906692504883,0.7281396985054016,-0.3804740011692047],[-0.3699088990688324,-0.21363072097301483,-0.061495404690504074,-0.26568320393562317,0.2484387457370758,-0.33075693249702454,0.3467610776424408,-0.11591913551092148,0.5384472608566284],[0.42179611325263977,0.2269630879163742,-0.554892897605896,0.39742007851600647,0.17344428598880768,-0.39647090435028076,-0.5517395734786987,0.2077033519744873,-0.26161035895347595],[-0.11719733476638794,0.039155904203653336,0.3279968202114105,-0.32710182666778564,-0.6912523508071899,0.36328601837158203,0.7582806348800659,0.21515107154846191,0.051959000527858734],[-0.2445061057806015,0.40378886461257935,-0.40189194679260254,0.15255898237228394,-0.05030683055520058,0.3226068913936615,0.8945149183273315,-0.14851203560829163,0.3718598783016205],[-0.02925078012049198,0.39269837737083435,-0.5139322280883789,0.012235424481332302,0.2286452353000641,-0.17316649854183197,0.715239942073822,0.333576500415802,-0.09406445175409317],[0.30602020025253296,-0.35705310106277466,0.12970492243766785,0.08971943706274033,0.3825291693210602,-0.477340430021286,-0.4465124309062958,0.35426145792007446,-0.29324543476104736],[-0.4476798474788666,0.039588987827301025,0.3922387659549713,-0.10427358746528625,0.1729619950056076,-0.26827767491340637,0.7161300778388977,0.07999082654714584,-0.1303796023130417],[-0.10525697469711304,0.22077591717243195,0.6287374496459961,0.16218134760856628,0.0961584523320198,0.16778017580509186,0.9836960434913635,0.01855088584125042,0.24077770113945007],[0.22655707597732544,0.3334883451461792,-0.14418010413646698,0.13318251073360443,0.47566378116607666,-0.4895176589488983,-0.8057698011398315,-0.22470851242542267,-0.30327895283699036],[-0.2359958291053772,0.3534834086894989,0.10515118390321732,0.03645665943622589,-0.253449022769928,-0.5430505275726318,0.7136658430099487,0.0015995349967852235,0.44459468126296997],[0.27737244963645935,0.026389654725790024,-0.740412712097168,0.16156770288944244,0.5692218542098999,0.2431383728981018,-0.19728940725326538,-0.4825282096862793,-0.02241325005888939],[-0.1520019918680191,0.06662745028734207,0.17005497217178345,0.1540406346321106,0.26710230112075806,0.07737237960100174,0.7983368635177612,0.30682045221328735,0.32828396558761597],[0.3344494104385376,-0.4062753915786743,0.49841704964637756,-0.0011433633044362068,-0.7288479804992676,-0.3107827603816986,0.1482783854007721,1.015373945236206,0.32195132970809937],[-0.12033892422914505,0.16812118887901306,-0.2528984844684601,-0.2498224675655365,1.0849990844726562,-0.14969271421432495,-0.007565415930002928,0.3389914035797119,-0.20155251026153564],[0.3594207465648651,-0.07126226276159286,0.4649468958377838,0.22627130150794983,0.17067833244800568,-0.48654788732528687,-0.247052863240242,0.39755627512931824,0.03742795065045357],[0.3801145553588867,-0.04721503704786301,0.204884871840477,-0.3233703374862671,-0.1279439777135849,0.24572408199310303,-1.0626394748687744,-0.22960489988327026,0.43423324823379517],[-0.14820989966392517,-0.09966439008712769,-0.6725979447364807,0.3874610364437103,0.2765006721019745,-0.2780213952064514,0.5157918334007263,-0.06716449558734894,0.284429669380188],[-0.3688468933105469,-0.17887528240680695,0.09462392330169678,-0.19755670428276062,-0.24497537314891815,-0.2985937297344208,0.6527852416038513,-0.0048123798333108425,0.5963144302368164],[-0.010548544116318226,0.14628511667251587,-0.8104581832885742,-0.15079790353775024,0.05297122523188591,0.15995138883590698,-0.20525631308555603,-0.09657171368598938,0.4351836144924164],[-0.26069778203964233,0.330693781375885,0.14850853383541107,0.4697796702384949,0.20888923108577728,-0.09027274698019028,1.0933550596237183,0.23609335720539093,0.1674056500196457],[0.11129653453826904,-0.1183236837387085,-0.7668710947036743,-0.22542575001716614,-0.1154584288597107,0.11478885263204575,-0.9420510530471802,0.1505133956670761,0.1961151659488678],[-0.3440195620059967,-0.07749129831790924,-0.5219242572784424,0.3353074789047241,0.25992822647094727,0.1589871048927307,1.0055632591247559,0.3848394751548767,-0.3070930242538452],[-0.06364516168832779,-0.19303256273269653,0.7483112812042236,0.18873800337314606,-0.06549324840307236,-0.3338052034378052,0.7303633093833923,0.24404224753379822,-0.23597946763038635],[-0.36497294902801514,0.3332190215587616,-0.37093493342399597,-0.12615442276000977,0.43910056352615356,-0.037852395325899124,1.0004737377166748,0.48001405596733093,0.0856216698884964],[-0.516437828540802,-0.012733926065266132,0.022953305393457413,-0.0996844545006752,0.3674428164958954,0.041707076132297516,0.9037659168243408,-0.2576240003108978,0.36598384380340576],[0.0920749083161354,0.11376697570085526,0.045312803238630295,0.23166950047016144,-0.7975361943244934,-0.12606924772262573,-0.4108012318611145,0.28335216641426086,-0.08146815747022629],[0.02292679436504841,0.11286697536706924,0.050321243703365326,0.23649507761001587,0.3317548632621765,0.10259182006120682,1.2114620208740234,0.6288071274757385,-0.08154203742742538],[0.5411147475242615,0.12242436408996582,-0.5054183006286621,0.4058830738067627,0.21703898906707764,0.1836477816104889,-0.6888332366943359,-0.00984465517103672,-0.19630636274814606],[0.35027772188186646,0.001085373922251165,-0.5553748607635498,-0.1960657685995102,-0.1405818611383438,-0.28853490948677063,-0.805886447429657,-0.0434008426964283,-0.16075927019119263],[0.076241135597229,0.06932469457387924,0.22379939258098602,-0.2713818848133087,0.43270719051361084,-0.3961069583892822,-0.9638887643814087,-0.13361267745494843,0.039841048419475555],[0.20106923580169678,0.2256706953048706,0.12514428794384003,-0.3244670331478119,-0.6559874415397644,-0.1346568763256073,-1.0061694383621216,-0.42602622509002686,0.09114547818899155],[0.28917962312698364,-0.14197491109371185,0.5169134140014648,-0.326973557472229,-0.45663562417030334,0.0901024267077446,-0.8862931132316589,0.3158355951309204,0.2801858186721802],[-0.14240187406539917,0.4966527223587036,-0.34312766790390015,0.23571538925170898,0.24818439781665802,-0.5743007063865662,0.08881574124097824,-0.22879137098789215,-0.06895685195922852],[-0.10422561317682266,-0.14277668297290802,0.2361513376235962,-0.10964305698871613,0.5795122981071472,0.20523738861083984,0.2990095615386963,0.3806043267250061,-0.4156688451766968],[-0.17184744775295258,0.13620992004871368,0.3465300500392914,0.14585189521312714,-0.7322825789451599,-0.5910186767578125,0.2670459449291229,0.16246744990348816,-0.43724778294563293],[0.19690045714378357,-0.16865690052509308,0.21116755902767181,0.31677234172821045,-0.5837123394012451,0.38528555631637573,0.5673440098762512,0.5091187357902527,0.034517139196395874],[-0.08902982622385025,0.30137813091278076,0.24368375539779663,-0.15405361354351044,-1.0547387599945068,-0.3640284836292267,0.20981712639331818,-0.2711346447467804,-0.05638552084565163],[-0.05445399135351181,-0.27030646800994873,0.0013433601707220078,0.10184870660305023,0.5652276277542114,0.40709224343299866,0.8408154249191284,0.4343447983264923,-0.10745114833116531],[-0.0795021802186966,0.12155686318874359,0.5719745755195618,-0.16948841512203217,-0.17236942052841187,-0.7235785126686096,-0.2780235707759857,-0.20142865180969238,0.09726405143737793],[0.3102015554904938,-0.2165512889623642,0.14306838810443878,-0.011593850329518318,0.3495948314666748,0.06662347167730331,-0.9840242266654968,-0.08176001161336899,-0.11510416120290756],[0.394763708114624,0.37159812450408936,-0.09310698509216309,0.2464347630739212,-0.44777625799179077,0.505031406879425,-0.04028022661805153,0.5614051818847656,0.1414036899805069],[-0.17705564200878143,-0.13766835629940033,-0.21991924941539764,0.23936940729618073,-0.5376036763191223,-0.4513731598854065,-0.745728611946106,0.12107299268245697,-0.13296684622764587],[-0.0012007240438833833,0.0379212312400341,-0.04505371302366257,0.2703218162059784,-0.5844262838363647,0.1077226772904396,0.8771885633468628,0.24162286520004272,-0.17771680653095245],[0.22777092456817627,0.2491772472858429,-0.6990089416503906,0.35855183005332947,0.6488122940063477,0.24242199957370758,0.27052226662635803,-0.034999780356884,-0.41702237725257874],[0.40845987200737,-0.06068255007266998,0.3390963077545166,0.2580413818359375,0.39110079407691956,-0.30375123023986816,-1.015600323677063,-0.13214030861854553,-0.36787065863609314],[0.20061561465263367,0.26859644055366516,-0.569709837436676,-0.20950858294963837,0.17376530170440674,0.14914551377296448,-0.7760765552520752,0.08854283392429352,0.30993765592575073],[-0.15229888260364532,0.1783127784729004,-0.46673378348350525,0.11056825518608093,-0.08545021712779999,0.47610586881637573,0.6590719223022461,0.0627179890871048,0.0007742259185761213],[-0.1815342903137207,0.2954830229282379,0.0008682204061187804,0.20737144351005554,0.6000915765762329,0.19021528959274292,1.1500301361083984,0.2846473753452301,-0.3873805105686188],[0.16218499839305878,-0.4694543480873108,0.04735477268695831,-0.01208124216645956,0.3750821352005005,0.16698870062828064,0.17245356738567352,0.9940654635429382,0.27667662501335144],[-0.1921999305486679,0.5649003386497498,0.5178800821304321,-0.19688472151756287,0.2154664248228073,-0.34090983867645264,0.6963043212890625,-0.6969793438911438,-0.291128933429718],[0.06502377986907959,-0.13029851019382477,0.29602715373039246,0.3502993881702423,-0.4105879068374634,0.17903968691825867,1.239006519317627,0.31682077050209045,-0.1904938668012619],[-0.3135422170162201,0.14821042120456696,0.389186829328537,0.28143632411956787,-0.6438666582107544,0.008081847801804543,0.9429592490196228,0.1353348195552826,-0.08532123267650604],[-0.07943095266819,-0.25344932079315186,-0.11361787468194962,-0.47131893038749695,-0.589136004447937,-0.2547362446784973,-1.1516547203063965,0.010886261239647865,-0.008329715579748154],[-0.31556758284568787,-0.3809730112552643,0.3955337107181549,0.23794354498386383,-0.2535993754863739,0.09289111196994781,0.5582228302955627,0.07008719444274902,0.29885637760162354],[-0.02286960743367672,-0.3510781228542328,0.33028241991996765,-0.12638260424137115,0.2427227646112442,-0.026264529675245285,-1.0285545587539673,-0.15595746040344238,0.14495640993118286],[-0.0196384284645319,-0.14415626227855682,-0.10211114585399628,-0.05422818660736084,-0.309589147567749,-0.5349619388580322,-0.8957178592681885,-0.27138572931289673,0.47965967655181885],[-0.1645502746105194,-0.3569403886795044,0.249800443649292,-0.4974241256713867,-0.16268809139728546,-0.034547824412584305,-1.1665173768997192,-0.3047128915786743,0.343192994594574],[0.03721743822097778,-0.34376710653305054,-0.15388919413089752,0.17446114122867584,0.47721579670906067,-0.19584740698337555,-0.7528844475746155,0.42902660369873047,-0.3684510290622711],[0.39345282316207886,0.08298308402299881,0.15077301859855652,0.17392350733280182,-0.07154639065265656,-0.05420193448662758,-0.4471905529499054,0.042826224118471146,-0.4593181312084198],[-0.13199681043624878,0.218825101852417,-0.05359935760498047,0.27565664052963257,0.8227577209472656,0.11629760265350342,0.7803080081939697,0.5503645539283752,-0.058953240513801575],[0.21598301827907562,0.3295818567276001,0.039429306983947754,-0.1041148453950882,0.7201143503189087,-0.417255163192749,-0.6737599968910217,-0.04723503068089485,-0.023107638582587242],[0.17090840637683868,-0.3371276557445526,-0.2558342516422272,-0.11436963081359863,0.5105456709861755,-0.13069812953472137,-1.1465811729431152,-0.04895820841193199,-0.1198330968618393],[0.303297758102417,-0.04628817364573479,0.13640274107456207,-0.4550742506980896,-0.384540319442749,-0.3944295048713684,-0.927469789981842,0.014897461980581284,0.06808381527662277],[-0.34242168068885803,-0.15083684027194977,-0.4497467875480652,0.22214171290397644,-0.27475398778915405,0.312288373708725,0.5432583689689636,0.15059901773929596,-0.09934041649103165],[0.17920653522014618,-0.17210924625396729,0.30566272139549255,0.16022302210330963,-0.3507435619831085,0.033058129251003265,0.6952338218688965,1.175787091255188,0.15453442931175232],[-0.4227765202522278,0.35205844044685364,-0.27588388323783875,-0.2806074321269989,-0.09520367532968521,0.36244747042655945,0.5754891037940979,-0.07947555184364319,0.11184363067150116],[-0.12404212355613708,-0.22436754405498505,0.3366473615169525,0.49333837628364563,-0.6297429800033569,-0.12570810317993164,0.7918809652328491,0.4644520878791809,-0.11184772849082947],[-0.3597795367240906,-0.3415343463420868,0.07737546414136887,0.24505016207695007,-0.584891140460968,0.1677594631910324,1.1093019247055054,0.5422789454460144,-0.12673021852970123],[-0.31231552362442017,0.2292228788137436,1.0825239419937134,0.12744849920272827,0.21792103350162506,-0.33621203899383545,0.6286404728889465,-0.028648914769291878,0.34279367327690125],[0.15097714960575104,0.12768174707889557,-0.023831581696867943,-0.2791937589645386,-0.3160252571105957,-0.42049717903137207,-0.7535787224769592,0.07437069714069366,0.14369474351406097],[0.11839861422777176,0.4534837305545807,-0.6520246863365173,0.29529422521591187,0.5451340675354004,0.36579564213752747,0.587313175201416,-0.5302861928939819,-0.3965975344181061],[0.26625898480415344,0.21368983387947083,0.43693116307258606,0.029443856328725815,0.5098388195037842,0.42392006516456604,-0.2279253602027893,0.11026503890752792,-0.27284157276153564],[0.4717952609062195,-0.32055938243865967,0.36706122756004333,-0.2899722456932068,0.18727855384349823,-0.30606314539909363,-1.0773886442184448,-0.296760231256485,0.03093283623456955],[0.2667160630226135,0.021853571757674217,-0.45794615149497986,0.4304294288158417,0.24389733374118805,-0.226680725812912,0.15612344443798065,-0.009400655515491962,-0.17278745770454407],[-0.18063974380493164,-0.30320850014686584,0.42070096731185913,-0.3892906606197357,0.06438140571117401,-0.44037607312202454,-0.647778332233429,0.17107664048671722,0.3108938932418823],[0.05615784972906113,0.10166072100400925,0.04596497118473053,0.47650790214538574,-0.2691517472267151,0.46887511014938354,1.0035953521728516,0.27845868468284607,0.15314313769340515],[-0.4111328721046448,-0.1121995747089386,0.5438787341117859,0.012846904806792736,0.08828900754451752,-0.10465741157531738,0.49629566073417664,0.2106626182794571,0.31503963470458984],[-0.2869313955307007,0.13325202465057373,0.6190860271453857,0.18357986211776733,0.16310052573680878,0.017585229128599167,0.6863651275634766,0.08270508795976639,-0.18536795675754547],[0.44421878457069397,0.24838417768478394,0.7983323931694031,0.10977987945079803,0.4086399972438812,-0.0415603443980217,-0.6025225520133972,-0.31579551100730896,-0.21210694313049316],[0.2964629530906677,-0.48243191838264465,0.2398073822259903,-0.009228498674929142,-0.5583111047744751,-0.01853211410343647,-1.0397523641586304,-0.42202064394950867,0.39244431257247925],[0.3746452033519745,0.12500722706317902,-0.22091533243656158,-0.08120596408843994,0.04103124141693115,0.2952647805213928,-0.8348883986473083,-0.29995104670524597,0.23808659613132477],[-0.4099935293197632,-0.2716265916824341,0.5639348030090332,-0.18708302080631256,0.2694445550441742,0.1312641203403473,0.22378571331501007,0.11134452372789383,0.15302033722400665],[-0.17732210457324982,-0.3937758505344391,-0.3186351954936981,-0.021410062909126282,0.5416801571846008,0.05352406948804855,-0.9163253903388977,0.2336394190788269,0.036298155784606934],[0.5193723440170288,0.363547682762146,0.19234929978847504,-0.19282490015029907,0.3276025056838989,-0.4449593126773834,-0.7508347034454346,-0.07224449515342712,0.18743564188480377],[0.06840641796588898,0.042549051344394684,0.567787766456604,-0.08670853823423386,-0.773386538028717,-0.09879235178232193,-0.14309602975845337,-0.40085646510124207,0.157485693693161],[0.2590699791908264,-0.1080453172326088,-0.4721822738647461,-0.17937099933624268,0.2516515254974365,-0.30572310090065,-0.8094958066940308,0.35340338945388794,-0.3912564218044281],[0.06599042564630508,0.4880466163158417,-0.26134997606277466,0.2540220618247986,0.25973543524742126,-0.22932039201259613,-0.5912331342697144,-0.7889791131019592,-0.29269665479660034]],"bias":[0.24183857440948486,-0.34909990429878235,0.2106069177389145,-0.14167821407318115,-0.03311639651656151,-0.07556085288524628,0.007107032462954521,0.01983528584241867,-0.12868298590183258,0.4960176646709442,0.002485632197931409,0.554485023021698,-0.38594043254852295,0.106358602643013,0.0312180332839489,0.17179954051971436,-0.4021194577217102,-0.091598279774189,0.31029844284057617,-0.1875469982624054,0.23951852321624756,0.7480253577232361,-0.4136156737804413,0.24601992964744568,-0.14997677505016327,0.2569868564605713,0.6625110507011414,-0.26631706953048706,-0.34645822644233704,-0.18703804910182953,0.15590617060661316,-0.5197911858558655,-0.1973528414964676,-0.2718263268470764,-0.09838015586137772,-0.3584901988506317,0.07479365170001984,-0.08274447172880173,0.41922223567962646,-0.0588117390871048,-0.04428829252719879,0.03888511285185814,-0.4140543043613434,-0.3236595690250397,0.017604270949959755,-0.03782534599304199,-0.3695187568664551,-0.03798132762312889,0.15778163075447083,0.2239253968000412,-0.485285222530365,0.11743289232254028,-0.4735738933086395,-0.20090410113334656,0.30008700489997864,-0.12976282835006714,-0.3522711396217346,0.04934154823422432,0.23430737853050232,0.3684360384941101,0.09951597452163696,-0.048581939190626144,0.06503704935312271,0.17266860604286194,0.07040590792894363,0.11768559366464615,0.19701136648654938,0.0026070447638630867,0.039179328829050064,-0.23950974643230438,0.2198657989501953,-0.07735519111156464,-0.45100486278533936,0.14756309986114502,-0.2305927723646164,0.24209381639957428,-0.36454901099205017,0.09167186915874481,0.3960272967815399,0.47291308641433716,-0.3141988217830658,-0.296047568321228,-0.27869459986686707,0.1878875494003296,0.10843226313591003,0.16246527433395386,-0.0006669166032224894,0.11550368368625641,0.14880116283893585,-0.12081332504749298,0.34649303555488586,-0.15449470281600952,-0.2268606573343277,0.22070883214473724,-0.3825847804546356,0.22466091811656952,0.1429639607667923,0.289012610912323,-0.20313291251659393,-0.3985080122947693,-0.11759479343891144,0.36095550656318665,0.31012293696403503,-0.4001074731349945,-0.18966306746006012,-0.1768331676721573,-0.08418930321931839,-0.14078065752983093,-0.16261525452136993,0.20114295184612274,0.39049315452575684,0.14248764514923096,-0.08071703463792801,0.059782885015010834,0.36764299869537354,-0.18970660865306854,0.2375296801328659,-0.034333180636167526,0.20739468932151794,0.08675453066825867,-0.06891293823719025,-0.3524731695652008,0.20657677948474884,0.4359027147293091,0.37069597840309143,-0.3948891758918762,-0.05198436975479126,0.37744688987731934],"activation":"tanh"},"backbone2":{"weight":[[-0.0055195982567965984,-0.0681772381067276,0.10003692656755447,0.24693149328231812,0.03598032891750336,-0.06574314832687378,0.20400859415531158,-0.016031378880143166,0.16497954726219177,0.04393497481942177,0.15927691757678986,0.012417691759765148,-0.20165732502937317,-0.055523671209812164,-0.2340332716703415,0.2446858286857605,-0.09045277535915375,-0.16346044838428497,0.15701532363891602,-0.5273133516311646,-0.054227109998464584,0.07392055541276932,-0.06814058870077133,0.13506463170051575,0.06490040570497513,-0.0923004150390625,-0.054417502135038376,-0.020342445001006126,-0.10480769723653793,0.06745283305644989,0.1548699289560318,0.20274613797664642,-0.3694581389427185,-0.3246155083179474,0.08460946381092072,0.03829002380371094,-0.03948437422513962,0.16006600856781006,0.373477578163147,-0.02433171682059765,-0.15240955352783203,-0.015933535993099213,-0.3241923153400421,-0.19821903109550476,-0.24732285737991333,-0.3898099660873413,-0.14146950840950012,0.0023961567785590887,-0.028002792969346046,0.12456479668617249,-0.3114701211452484,0.1314852386713028,-0.31287848949432373,-0.2871420383453369,-0.02344491332769394,-0.21103435754776,0.13093574345111847,-0.2558024823665619,-0.1414741426706314,0.08171520382165909,-0.21095801889896393,0.027360625565052032,0.06493225693702698,-0.037018511444330215,-0.25009405612945557,-0.17017382383346558,-0.028009479865431786,-0.3946976661682129,-0.13860325515270233,0.24362647533416748,0.273306667804718,0.26614347100257874,-0.06724964827299118,-0.11552882939577103,0.09171626716852188,-0.05169558525085449,-0.24490495026111603,-0.039153337478637695,-0.09360573440790176,-0.06563819944858551,0.22327367961406708,-0.2762819230556488,-0.06705640256404877,-0.07926234602928162,-0.047772519290447235,0.050462011247873306,0.12296027690172195,0.006026978138834238,-0.165788933634758,-0.08447883278131485,0.05855386331677437,-0.2117794007062912,-0.2272411584854126,0.25475263595581055,-0.24812214076519012,0.37339240312576294,0.07467300444841385,0.5352820158004761,-0.1106957346200943,-0.24092230200767517,-0.16158005595207214,0.15379461646080017,0.5007816553115845,-0.006994357332587242,-0.08099981397390366,-0.4779181182384491,-0.014396900311112404,-0.31907904148101807,-0.15491843223571777,-0.07304123044013977,0.07146216183900833,-0.05890905484557152,-0.08756263554096222,0.1802607923746109,-0.08074913918972015,0.11788665503263474,-0.11360190063714981,-0.1357729583978653,-0.1091674417257309,0.06757929176092148,0.245318204164505,0.11786918342113495,0.1542895883321762,0.3481139838695526,0.024865714833140373,0.008364076726138592,-0.013545959256589413,0.11639073491096497],[0.28046920895576477,-0.15515393018722534,-0.6355670094490051,-0.1572500467300415,0.47030574083328247,0.013812593184411526,0.31287041306495667,-0.02683337777853012,-0.3956657946109772,0.17205257713794708,0.38289308547973633,0.06836415082216263,-0.08485502749681473,0.23349571228027344,-0.05054432153701782,0.13561837375164032,-0.43607309460639954,-0.44745418429374695,0.04567930847406387,-0.011572228744626045,-0.1800568401813507,-0.005059621296823025,-0.22914816439151764,0.6481026411056519,-0.11343532055616379,0.05930734798312187,0.2666127681732178,-0.16080403327941895,-0.23709091544151306,0.29175055027008057,-0.3378320634365082,0.15287348628044128,-0.25169438123703003,-0.002244999399408698,0.42087021470069885,-0.020996980369091034,-0.37765583395957947,0.1722968965768814,0.3720407783985138,0.1341964304447174,0.04016975313425064,0.022543784230947495,-0.10249453037977219,-0.5566070675849915,0.1463739573955536,-0.20026835799217224,-0.014418196864426136,-0.15314358472824097,0.10745057463645935,0.4353829026222229,-0.2685963213443756,0.2078617364168167,-0.09881442040205002,-0.14741887152194977,0.23876790702342987,0.18159893155097961,0.14109233021736145,-0.3087907135486603,-0.2010372281074524,0.18602342903614044,0.15525248646736145,-0.10601373761892319,-0.37295931577682495,0.07313436269760132,-0.06835842877626419,0.10344623029232025,-0.08541877567768097,-0.13906574249267578,0.3239133656024933,-0.11970856785774231,0.41124236583709717,-0.06565655767917633,-0.011714234948158264,0.24379874765872955,-0.1626574993133545,0.0071933274157345295,-0.41650593280792236,0.10479801148176193,0.026829274371266365,0.21688376367092133,0.2288292497396469,0.0315866582095623,-0.25555628538131714,-0.20394785702228546,-0.015478082932531834,0.3839915692806244,0.15678270161151886,0.01059374026954174,0.16980884969234467,-0.14115780591964722,0.34661057591438293,-0.38895756006240845,-0.4178905785083771,-0.04532561078667641,-0.5002434849739075,0.5395974516868591,0.26692771911621094,0.17360687255859375,-0.028748083859682083,0.020743651315569878,0.14975842833518982,0.284808486700058,0.3859717547893524,-0.16620106995105743,-0.515052080154419,-0.5900854468345642,-0.32385265827178955,-0.4602387249469757,-0.760761022567749,0.14070828258991241,0.37010133266448975,0.04711995646357536,0.26364728808403015,0.17703381180763245,0.22066371142864227,-0.04411594569683075,-0.00919307116419077,0.05399215593934059,0.1206008642911911,0.29948195815086365,-0.13072174787521362,0.2192302793264389,0.03168518841266632,0.20963524281978607,0.336224228143692,0.09843563288450241,-0.05725688487291336,0.3061944842338562],[0.21767699718475342,-0.06185467913746834,0.22722335159778595,0.15473365783691406,-0.22679713368415833,-0.3087459206581116,0.09232546389102936,0.2391556203365326,-0.05037682130932808,0.17937920987606049,-0.015206524170935154,0.0601414330303669,0.05519084259867668,-0.0922035500407219,-0.39370596408843994,0.19422230124473572,-0.11364162713289261,-0.03767785802483559,0.46635574102401733,-0.20473092794418335,0.13289956748485565,0.023113852366805077,0.20052112638950348,0.19196727871894836,0.18607096374034882,-0.032855622470378876,0.031465619802474976,0.31491535902023315,-0.07626932114362717,0.012938249856233597,0.1447490006685257,-0.25573480129241943,-0.284647673368454,-0.1374601274728775,0.021591389551758766,-0.194852814078331,0.1952134370803833,0.22758829593658447,0.44290798902511597,-0.3018805980682373,-0.3962678611278534,-0.1480308473110199,-0.06741917133331299,0.08679932355880737,-0.07102616131305695,-0.22531460225582123,-0.37696537375450134,-0.4400014579296112,-0.09319785237312317,0.015108582563698292,-0.07193730026483536,0.1670285314321518,-0.36443763971328735,-0.06089252233505249,-0.21203091740608215,-0.08637072890996933,0.15641315281391144,-0.013257049024105072,0.09692259877920151,0.5922883152961731,-0.39287346601486206,0.3329721689224243,-0.12330985814332962,-0.2822272777557373,-0.3703722357749939,-0.25376471877098083,0.3396105170249939,-0.360606849193573,0.27245253324508667,0.2726731598377228,0.16038452088832855,0.5706450343132019,0.07601993530988693,-0.02823329158127308,-0.36041000485420227,-0.010664592497050762,-0.03778260201215744,0.3326466679573059,-0.11378977447748184,0.16093403100967407,-0.11105633527040482,0.15133266150951385,0.24943938851356506,0.18411049246788025,-0.3559318780899048,-0.13453270494937897,0.38905903697013855,-0.024944402277469635,-0.5393084287643433,-0.2753387689590454,-0.21090973913669586,-0.042907021939754486,-0.15452612936496735,0.6093463897705078,-0.3660792410373688,0.14148330688476562,0.2828488051891327,0.4034455716609955,-0.2465602606534958,-0.2703101336956024,-0.6838843822479248,-0.04314935952425003,0.28095388412475586,0.16433346271514893,-0.055692147463560104,-0.0542464405298233,-0.016453510150313377,-0.04583218693733215,-0.17432056367397308,-0.11238730698823929,0.17165854573249817,-0.12664863467216492,-0.44211000204086304,0.3588578701019287,-0.061923690140247345,-0.1713208556175232,0.01291305385529995,-0.3878609538078308,-0.3286091089248657,-0.2024131566286087,0.4059751033782959,0.10822877287864685,-0.23490490019321442,0.11036582291126251,0.057112932205200195,0.14345400035381317,0.07455047219991684,0.07116763293743134],[-0.3151475787162781,-0.12161988765001297,0.10609488189220428,0.08680044114589691,0.03601996973156929,-0.14784622192382812,0.19600428640842438,0.1029096245765686,-0.02976221963763237,-0.022072939202189445,-0.37149670720100403,-0.17041639983654022,-0.5016887784004211,0.0022734617814421654,0.024799734354019165,-0.2705068290233612,-0.01808135025203228,-0.06750854849815369,0.026247022673487663,-0.018589992076158524,-0.28230634331703186,-0.11913607269525528,-0.1929604411125183,0.07398849725723267,-0.15484486520290375,0.08155283331871033,0.11113658547401428,-0.05166430026292801,-0.04649903625249863,0.0974670872092247,-0.32138699293136597,0.04688062518835068,-0.29537174105644226,-0.08592084050178528,0.23047278821468353,0.14931215345859528,-0.08282309025526047,0.08529563993215561,0.43923327326774597,-0.1530243158340454,-0.1109892874956131,0.22645466029644012,0.02356015332043171,-0.13945859670639038,-0.10052689909934998,0.12362255156040192,0.027601413428783417,0.1966448724269867,0.05292462557554245,0.07007762044668198,0.19002816081047058,0.19754765927791595,-0.022327734157443047,-0.13135160505771637,0.13793222606182098,0.08032632619142532,-0.10699355602264404,0.18373951315879822,0.222622811794281,0.1536586880683899,0.04215402901172638,-0.026286421343684196,-0.07398465275764465,0.08106589317321777,0.2733894884586334,0.34452876448631287,-0.17088384926319122,-0.18336845934391022,-0.13655565679073334,0.03893088176846504,0.26046496629714966,-0.04223411902785301,-0.3473335802555084,0.1955224722623825,-0.15120095014572144,-0.09589070081710815,-0.43369194865226746,-0.0016164141707122326,0.049465760588645935,0.09667536616325378,-0.022344602271914482,-0.3773910403251648,0.0031235001515597105,-0.33057406544685364,-0.11775639653205872,0.039929430931806564,0.149652898311615,-0.1231156662106514,0.09424237906932831,-0.045928530395030975,0.15741118788719177,-0.3140503466129303,-0.39640140533447266,0.12550319731235504,-0.1548611968755722,0.3790798485279083,0.2915489375591278,0.20204587280750275,0.2266865223646164,-0.1849115788936615,0.028240730985999107,0.16125395894050598,0.2751748263835907,-0.0013720267452299595,-0.04922191798686981,-0.38083723187446594,-0.033529944717884064,-0.27803775668144226,-0.12259736657142639,-0.01853923313319683,0.15304480493068695,-0.0973300188779831,-0.05783669278025627,0.10278386622667313,0.025016313418745995,0.2918923497200012,-0.2929472327232361,0.11215551942586899,-0.0372781828045845,-0.04854055866599083,-0.07951821386814117,-0.17665140330791473,0.11156291514635086,0.3412461280822754,0.06753145158290863,-0.106768898665905,0.09678786247968674,0.05676737055182457],[-0.0070655569434165955,0.22173172235488892,0.3716343939304352,0.010021998547017574,-0.059242818504571915,-0.01878524199128151,-0.2856428623199463,-0.016556378453969955,0.2647317945957184,0.07216791063547134,0.19472959637641907,0.0076234424486756325,0.37741002440452576,-0.37999507784843445,0.10002581775188446,0.18682095408439636,0.6013377904891968,0.057445842772722244,0.23418235778808594,0.051447805017232895,0.48324596881866455,0.0001059819696820341,0.1251339465379715,-0.5705517530441284,0.1886223703622818,-0.4189143180847168,-0.13770340383052826,0.3045014441013336,0.1676170825958252,-0.26808708906173706,0.5463493466377258,-0.051793698221445084,0.25924456119537354,-0.14161676168441772,-0.2918867766857147,-0.2867549657821655,0.11732657998800278,-0.0911787673830986,-0.3375423848628998,0.05668274685740471,-0.1331968456506729,-0.2393733561038971,-0.24369767308235168,1.0300829410552979,0.330085426568985,-0.1340700387954712,-0.37160223722457886,-0.1733892410993576,-0.04684959352016449,-0.8706322312355042,-0.20702780783176422,-0.2493087202310562,0.10923659801483154,0.11208809912204742,-0.3997141420841217,-0.29118427634239197,0.14543521404266357,-0.07188476622104645,-0.18189699947834015,-0.022602533921599388,-0.21889767050743103,0.15792173147201538,0.11669285595417023,-0.037678442895412445,-0.03651512786746025,-0.03479665517807007,0.0918397456407547,-0.14928315579891205,-0.16384470462799072,-0.028304584324359894,-0.900295615196228,0.2522488534450531,0.20336991548538208,-0.3652912676334381,-0.07074537128210068,0.12076634913682938,0.8202879428863525,0.14357508718967438,-0.11848849803209305,-0.3658140301704407,-0.23564587533473969,0.6107627153396606,0.04178819805383682,0.4446982145309448,-0.12136631458997726,-0.13288919627666473,0.0037825966719537973,0.5954926609992981,-0.22749879956245422,0.012003250420093536,-0.1640121340751648,0.24124452471733093,0.3036326766014099,0.16685564815998077,0.2917439937591553,-0.3525175452232361,-0.1022133156657219,-0.09356940537691116,-0.23301248252391815,-0.19339200854301453,-0.239286869764328,-0.3759465217590332,-0.676999032497406,0.01611783728003502,0.4333999454975128,0.24725493788719177,0.29718685150146484,0.3973139822483063,0.7543701529502869,-0.030564798042178154,-0.15623077750205994,-0.0550302192568779,-0.11902688443660736,-0.5122978091239929,-0.27616235613822937,-0.2544104754924774,0.12156982719898224,-0.1436612755060196,-0.15649084746837616,-0.15034577250480652,0.0793105885386467,0.19126848876476288,0.03778533637523651,-0.3211285173892975,-0.28112706542015076,0.22352765500545502,-0.11596395075321198,-0.2326047718524933],[-0.04010211303830147,0.6945741772651672,-0.13252747058868408,-0.1882351040840149,-0.19377455115318298,-0.16294513642787933,-0.15724803507328033,-0.05879313871264458,0.14057406783103943,-0.21320976316928864,0.06359855085611343,-0.03044769912958145,0.33242082595825195,-0.48052990436553955,0.013383686542510986,0.03227292373776436,0.5327036380767822,0.22732406854629517,0.3872701823711395,-0.013551867567002773,0.029614977538585663,-0.1582653969526291,0.31243544816970825,-0.32964155077934265,0.39837872982025146,-0.10967095196247101,-0.45913979411125183,0.29596367478370667,0.4115771949291229,-0.01781313121318817,0.1333693563938141,0.06558995693922043,0.16635185480117798,0.28411462903022766,-0.18734583258628845,0.023205190896987915,0.1888149529695511,-0.14142128825187683,-0.33514466881752014,0.0641418844461441,0.09750133752822876,-0.2734139561653137,0.14866448938846588,0.3025326132774353,0.3309066891670227,0.015519710257649422,-0.002367136999964714,-0.23720337450504303,-0.02878117561340332,-0.31161659955978394,-0.04773084819316864,0.07073912769556046,0.2027885615825653,0.3815593719482422,-0.266893208026886,-0.22603143751621246,0.23382441699504852,0.11470017582178116,-0.3540635406970978,0.4291875958442688,0.01414535753428936,0.08201409876346588,0.10841985791921616,-0.14502742886543274,-0.02096480503678322,-0.1343047320842743,0.07855236530303955,0.1447693109512329,0.21107536554336548,-0.005911617074161768,-0.243147611618042,-0.07681092619895935,0.5601809024810791,-0.3368840217590332,-0.06891840696334839,-0.07501363009214401,0.2578848898410797,-0.012312126345932484,0.014000453054904938,-0.44192954897880554,-0.050837062299251556,0.22361545264720917,-0.0032815407030284405,-0.011759605258703232,-0.028002366423606873,-0.4415232539176941,0.20753982663154602,0.06537391990423203,-0.013124864548444748,0.16774289309978485,-0.46225467324256897,0.12913937866687775,0.19337959587574005,-0.10753003507852554,0.1547991931438446,-0.3353899419307709,-0.04691937938332558,-0.13453494012355804,0.14172212779521942,0.2860243618488312,-0.0834055170416832,-0.5038342475891113,-0.3537341356277466,0.01908150501549244,0.5581971406936646,0.3597590923309326,0.18223372101783752,0.33466053009033203,0.4280986487865448,-0.22927948832511902,-0.1437169909477234,-0.10226784646511078,-0.03417893126606941,-0.29817086458206177,-0.1539134830236435,-0.010701826773583889,-0.029453270137310028,-0.22080205380916595,-0.10437407344579697,-0.17206692695617676,0.1445845365524292,0.24082642793655396,-0.24280323088169098,-0.20636165142059326,-0.19166526198387146,0.24533464014530182,0.05448083579540253,-0.5568245053291321],[-0.08383429050445557,0.3218038082122803,0.09822116047143936,-0.011375811882317066,-0.04890228807926178,0.1332799792289734,-0.09914024919271469,-0.026396136730909348,0.11188913136720657,0.05710475891828537,0.3676140308380127,0.1855892837047577,-0.009538485668599606,-0.1015615314245224,-0.1051751896739006,0.2722550332546234,0.19587300717830658,-0.12052617967128754,0.26747164130210876,-0.3891800343990326,0.08673574030399323,0.021324386820197105,-0.03274448215961456,-0.046050168573856354,0.018160995095968246,-0.405985951423645,-0.3051314651966095,-0.030759889632463455,-0.011746302247047424,0.10772081464529037,0.3614259958267212,0.2375979870557785,0.021218448877334595,-0.01586284674704075,-0.1286708563566208,-0.1325094997882843,-0.1633341759443283,0.026869945228099823,0.01566631719470024,-0.020549526438117027,0.11986182630062103,-0.35114291310310364,-0.17150408029556274,0.17443419992923737,-0.2967014014720917,-0.24953092634677887,0.059906769543886185,-0.03919770568609238,-0.06689946353435516,-0.24607549607753754,-0.2845173478126526,-0.20710232853889465,-0.0683230459690094,0.05550648644566536,-0.0016544446116313338,-0.06232137605547905,0.16125063598155975,-0.2318798005580902,-0.2142544388771057,-0.25415948033332825,-0.20159676671028137,0.08591592311859131,0.11093468219041824,0.0649917721748352,-0.1511189341545105,-0.16990132629871368,0.06012655794620514,0.007431633770465851,0.02130807936191559,-0.03016139566898346,-0.032683517783880234,-0.05001655966043472,0.3562321066856384,-0.6757645606994629,0.34675949811935425,-0.1380566656589508,0.1973678022623062,-0.07621312141418457,0.021965280175209045,-0.2582533359527588,0.239040344953537,0.14664500951766968,-0.09718472510576248,0.1112787127494812,-0.10198284685611725,0.024473324418067932,-0.19544917345046997,0.1404436230659485,-0.030502326786518097,0.27458393573760986,-0.11508078128099442,0.09102532267570496,-0.021867917850613594,0.0640937015414238,0.16780701279640198,0.2729624807834625,-0.24999397993087769,0.24647681415081024,0.03571629896759987,0.12202737480401993,-0.092997245490551,-0.05036774277687073,0.18897508084774017,0.013953732326626778,-0.05605718120932579,0.13084159791469574,0.08401300013065338,0.07241082936525345,0.15485741198062897,-0.11198274046182632,-0.20072977244853973,-0.14668872952461243,0.04600003361701965,0.10534554719924927,-0.21620306372642517,0.011656725779175758,0.048688821494579315,0.02337166853249073,0.059840355068445206,0.03624144196510315,0.12255766242742538,-0.03969351574778557,0.18034234642982483,0.09617351740598679,-0.11989004164934158,0.09316067397594452,0.07829245924949646,-0.2679890990257263],[-0.17456521093845367,-0.2820444107055664,0.008748844265937805,-0.12360125780105591,0.18353581428527832,-0.1469794362783432,0.1730273962020874,-0.18745961785316467,0.013361457735300064,-0.16204363107681274,-0.1485392451286316,-0.08657517284154892,-0.531638503074646,-0.14803645014762878,0.13895198702812195,-0.10327592492103577,-0.14818885922431946,0.2289428859949112,0.08330780267715454,-0.37381711602211,-0.5001593232154846,-0.17508643865585327,-0.11780102550983429,-0.13858579099178314,-0.19876906275749207,-0.04344693943858147,-0.02074606716632843,-0.040091123431921005,0.09693358093500137,0.18888258934020996,-0.20192548632621765,0.4242571294307709,-0.27315106987953186,-0.1841382533311844,0.1574048399925232,0.2615021765232086,-0.19968831539154053,-0.19313201308250427,0.16926896572113037,0.05824919417500496,0.08806687593460083,0.33966588973999023,-0.2875356376171112,0.015087250620126724,0.14842072129249573,-0.09350655972957611,0.02707655169069767,0.03278636559844017,-0.03795311227440834,-0.08160144835710526,-0.040383968502283096,0.15442544221878052,0.1561649590730667,-0.47877734899520874,0.1185496374964714,-0.154733344912529,0.22947867214679718,-0.042643770575523376,0.09471438825130463,0.17441518604755402,-0.007998338900506496,0.004177778027951717,0.023835767060518265,-0.07076208293437958,0.19349831342697144,0.4860130250453949,-0.43902388215065,-0.13945458829402924,-0.3253271281719208,-0.02108665555715561,0.18919873237609863,-0.03951716050505638,-0.0029663126915693283,-0.12993933260440826,0.3329843580722809,-0.3684389293193817,-0.4079020917415619,-0.1493171900510788,-0.00042923682485707104,-0.015732815489172935,0.14063845574855804,-0.26745229959487915,-0.044371284544467926,-0.47003087401390076,-0.17387208342552185,-0.17980152368545532,0.1438341587781906,-0.07352615892887115,-0.050547655671834946,-0.02224276401102543,0.21607176959514618,-0.3356720805168152,-0.39772671461105347,0.13101063668727875,-0.04197917878627777,0.2860889732837677,-0.05897822976112366,0.21810445189476013,0.007194120902568102,-0.30599620938301086,0.07732543349266052,-0.005985537078231573,0.21711274981498718,0.05475398898124695,-0.12804506719112396,-0.4318637549877167,0.16525699198246002,-0.5852383375167847,-0.29346901178359985,0.009956791996955872,-0.27766263484954834,-0.058705151081085205,-0.055453211069107056,0.06691199541091919,-0.2054433673620224,0.18760444223880768,-0.32949700951576233,0.23860131204128265,-0.010746764950454235,-0.07558802515268326,-0.09249452501535416,0.06965125352144241,0.21501925587654114,0.37652066349983215,-0.040345802903175354,0.036811091005802155,0.023202700540423393,-0.09836990386247635],[0.2356807291507721,-0.30652734637260437,-0.36116915941238403,-0.02823057398200035,0.6490049958229065,0.5127809643745422,0.05356282368302345,-0.20396937429904938,-0.09474799782037735,0.2540915012359619,0.585449755191803,0.19421187043190002,-0.06457845866680145,0.06544589251279831,-0.22462508082389832,0.2793254852294922,-0.43550288677215576,-0.5176591277122498,-0.05526037886738777,-0.1157991960644722,0.017805814743041992,0.14586316049098969,-0.39101672172546387,0.15496493875980377,-0.047525595873594284,-0.034943487495183945,0.030243704095482826,-0.43305283784866333,-0.2152538001537323,-0.04278453066945076,0.05885206535458565,0.05384555086493492,-0.06249136105179787,-0.16908395290374756,0.023255323991179466,-0.17424991726875305,-0.6425885558128357,-0.042020127177238464,-0.0822119414806366,0.3105287253856659,0.02059021033346653,-0.20784103870391846,-0.18093276023864746,0.10350333899259567,-0.06352435797452927,-0.4215187132358551,-0.20807790756225586,-0.020587438717484474,0.26234111189842224,0.0017245607450604439,-0.34859761595726013,0.13441383838653564,-0.0816216841340065,-0.05706023797392845,0.015196106396615505,0.11130469292402267,0.039670679718256,-0.4411357045173645,-0.29633277654647827,-0.39429888129234314,0.09661778807640076,-0.44559040665626526,-0.2379855513572693,0.17597796022891998,-0.3573658764362335,-0.06463117152452469,0.010247666388750076,-0.05988504737615585,0.06890340894460678,-0.17703858017921448,0.20194517076015472,0.060630086809396744,0.03472752124071121,-0.15185338258743286,0.11890614777803421,-0.04314436390995979,-0.13059397041797638,-0.16874593496322632,0.11758848279714584,0.011334769427776337,0.20612971484661102,-0.07722289115190506,-0.3925245404243469,0.04073995724320412,-0.010362247005105019,0.3200114965438843,-0.22978001832962036,0.04970085620880127,0.051782503724098206,-0.18348506093025208,0.2594773769378662,0.022502660751342773,0.14155560731887817,-0.13909593224525452,-0.09870843589305878,0.16165724396705627,-0.15005894005298615,-0.031688038259744644,-0.20649313926696777,0.07438484579324722,0.025970561429858208,0.13573165237903595,0.05269603058695793,-0.00963493064045906,-0.36928364634513855,0.033675700426101685,0.022722050547599792,-0.0802941843867302,-0.3491695523262024,0.31774213910102844,0.00014621448644902557,0.18894976377487183,0.4523443877696991,0.2158331423997879,0.01404564082622528,-0.09082286804914474,0.20973484218120575,0.026670420542359352,0.4364580810070038,0.8006247282028198,0.1212616115808487,0.02418655902147293,0.052908845245838165,-0.21987293660640717,0.17323952913284302,0.10138598829507828,-0.2480679303407669,0.2752401828765869],[0.00734536349773407,-0.02552368864417076,0.4230465888977051,0.1589786857366562,-0.09108507633209229,-0.1545257866382599,-0.464315801858902,0.2538013756275177,0.16852088272571564,1.0069369077682495,0.05484955385327339,0.9455693960189819,-0.45324912667274475,-0.32274478673934937,0.14242222905158997,0.8843609094619751,-0.1643097698688507,-0.017711764201521873,0.7807430028915405,-0.7819551229476929,0.48975828289985657,1.153808832168579,0.0002967073814943433,0.19884920120239258,0.10351278632879257,0.33801576495170593,0.847904622554779,0.055745769292116165,-0.1793196052312851,-0.545872151851654,0.8345717787742615,-0.7031871676445007,0.09004194289445877,-0.4854535460472107,-0.6113219261169434,-0.8787345290184021,0.13313409686088562,-0.09266376495361328,0.5316036343574524,-0.40876710414886475,-0.1220814511179924,-0.20014792680740356,-1.3072961568832397,-0.21657885611057281,0.027311017736792564,-0.3610653281211853,-0.7029614448547363,-0.6346358060836792,-0.3407900631427765,0.012547786347568035,-1.554434895515442,0.2727730870246887,-1.1582053899765015,-0.18022014200687408,0.2521688640117645,-0.33358341455459595,-0.3450280725955963,-0.11844843626022339,0.3795730769634247,0.537852942943573,-0.30807265639305115,0.29003140330314636,0.004127197433263063,0.14307445287704468,-0.036027200520038605,-0.07269315421581268,0.1574532836675644,-0.11623762547969818,0.411527156829834,0.1544026881456375,-0.18451853096485138,-0.0005479948595166206,-0.6593682765960693,-0.5010970830917358,-0.23366759717464447,-0.17096289992332458,0.1397290825843811,-0.2541826367378235,0.6741964817047119,0.10063399374485016,-0.6223391890525818,0.20729340612888336,0.08826462179422379,0.4773050546646118,0.07146940380334854,0.0006830600905232131,0.43282708525657654,0.2691405713558197,-0.3421587646007538,0.24538365006446838,-0.059195004403591156,0.28300875425338745,-0.09144005179405212,1.132152795791626,-0.7504739761352539,0.08282698690891266,-0.20498809218406677,0.3492997884750366,-0.5180044174194336,-1.4429703950881958,-0.6831541061401367,0.13861200213432312,0.4090341329574585,-0.744347870349884,0.10328276455402374,0.4234774112701416,0.0378858782351017,-0.2716364860534668,0.24045410752296448,0.1137472540140152,0.3078506886959076,0.16719041764736176,-0.2117413729429245,-0.1209503710269928,0.6541671752929688,-0.342413991689682,0.6202895641326904,-0.28765079379081726,-0.11749374866485596,0.011418002657592297,0.3244922459125519,-0.7121935486793518,-0.007460342720150948,0.9931797981262207,0.2709009647369385,-0.8045908808708191,0.06721920520067215,0.327676385641098],[-0.23128727078437805,0.36725160479545593,0.06855721771717072,-0.06361957639455795,-0.09807050228118896,0.12845459580421448,-0.1727408468723297,-0.09800174832344055,0.01728116162121296,0.05206377059221268,-0.14096522331237793,0.012856243178248405,0.05459947884082794,0.05287082493305206,0.044325798749923706,-0.07849586755037308,0.2712166905403137,0.14054027199745178,-0.012129552662372589,0.18560966849327087,0.03514012321829796,-0.03533695265650749,0.17290955781936646,-0.2069069743156433,0.012327590957283974,0.01741483248770237,-0.14681927859783173,-0.0014594392850995064,0.017204780131578445,0.03521304205060005,-0.08146166801452637,0.17790386080741882,0.2423567771911621,0.07370708882808685,-0.06316854059696198,-0.06892026215791702,-0.07171838730573654,-0.04892969876527786,-0.11336812376976013,0.02572600170969963,0.1865563690662384,0.06864411383867264,0.23498544096946716,0.09901600331068039,0.034304436296224594,0.1568508893251419,0.15847867727279663,0.011400987394154072,0.06385038048028946,-0.21865077316761017,0.28223058581352234,-0.14376498758792877,0.4543232023715973,0.09838808327913284,0.11535706371068954,0.24549630284309387,0.13974571228027344,0.07665735483169556,0.02816077508032322,-0.20384398102760315,0.13489940762519836,-0.06255169957876205,0.22791582345962524,0.010867073200643063,0.1488201767206192,0.07162605971097946,-0.17099040746688843,0.09027187526226044,0.10231007635593414,0.09359928965568542,-0.017058227211236954,-0.015610084868967533,0.1425030529499054,-0.08061918616294861,0.20892839133739471,-0.14947843551635742,0.1943257600069046,-0.23849590122699738,0.06011083722114563,-0.10101302713155746,0.05770144611597061,0.2002105563879013,0.036115605384111404,-0.0494072362780571,0.22965824604034424,-0.06578516215085983,-0.019454563036561012,-0.033469777554273605,-0.08162654936313629,0.3164549469947815,-0.09069035202264786,0.08049163967370987,0.06132926419377327,-0.1771899312734604,0.4418240487575531,-0.0527740977704525,-0.1153775155544281,-0.11519110947847366,0.13510651886463165,0.008938554674386978,0.2112300544977188,-0.007289583794772625,-0.04973209649324417,0.11052581667900085,0.08028580993413925,0.1298193484544754,0.08129141479730606,0.08396533131599426,0.1230187714099884,-0.04629916325211525,-0.23136167228221893,-0.013275119476020336,0.0722205638885498,0.016000941395759583,-0.08614014089107513,-0.040077414363622665,0.07010518014431,0.06920714676380157,-0.14738743007183075,-0.06100619584321976,-0.15125730633735657,0.17242251336574554,-0.05404041334986687,-0.2329721599817276,-0.1449366956949234,-0.15578629076480865,-0.01922128163278103,-0.1560986340045929],[0.1164654940366745,0.47018420696258545,-0.14986483752727509,-0.0036774552427232265,0.02439073473215103,0.06924033910036087,-0.1767534464597702,0.13343067467212677,-0.08443307131528854,0.007558221463114023,0.02601265348494053,0.1335448920726776,0.12727347016334534,0.0546942874789238,-0.02531353011727333,0.12038002908229828,-0.0022256076335906982,-0.07107401639223099,0.034773413091897964,0.011996205896139145,0.09939369559288025,0.0120720025151968,0.23249031603336334,0.12021598219871521,0.17499075829982758,0.2634839713573456,-0.11930155009031296,0.015687191858887672,-0.01373214740306139,0.25600406527519226,-0.11901211738586426,-0.0015896464465186,0.17775031924247742,0.639641523361206,-0.0004772217362187803,-0.13816623389720917,0.09181541204452515,0.20801126956939697,0.05417488515377045,0.11932135373353958,0.38513749837875366,-0.09326666593551636,0.30317333340644836,-0.2421119511127472,-0.15952123701572418,0.1093764379620552,0.3231900632381439,-0.17380133271217346,-0.008403180167078972,0.06379801034927368,-0.043588656932115555,0.1038874089717865,0.02354884333908558,0.21870119869709015,0.15880537033081055,0.20407357811927795,-0.1471800059080124,0.017941785976290703,-0.268222838640213,-0.06948176771402359,0.017297081649303436,0.04922381415963173,0.06237851455807686,0.11130189150571823,-0.0074602453969419,-0.29996222257614136,-0.0025392938405275345,0.22897590696811676,0.42110997438430786,0.16110917925834656,-0.019587067887187004,-0.27904826402664185,-0.007285012397915125,0.06967227905988693,0.11853253096342087,-0.040084999054670334,0.11348511278629303,-0.3287261724472046,0.10964509099721909,-0.05003473535180092,0.22721970081329346,0.1450432389974594,0.056048307567834854,0.02785051241517067,0.4041843116283417,0.07374896109104156,-0.02412973903119564,-0.0377613790333271,0.1119576022028923,0.29381462931632996,-0.26552096009254456,0.17071449756622314,0.03181185945868492,-0.1543390303850174,-0.14374762773513794,0.020715638995170593,-0.22579921782016754,-0.42509210109710693,0.2426752746105194,0.32524389028549194,0.32788968086242676,0.0782860666513443,0.05787651613354683,0.042205460369586945,-0.03354210406541824,0.4302554726600647,-0.1769096404314041,-0.016005853191018105,-0.01923554204404354,0.040383536368608475,-0.029313433915376663,0.047199200838804245,0.11400703340768814,0.08381444215774536,0.2726273834705353,-0.007836034521460533,0.015671025961637497,-0.06492607295513153,-0.12982434034347534,0.0589219368994236,-0.0347532220184803,0.05527499318122864,-0.06824341416358948,0.08187063783407211,0.015407686121761799,-0.2501167953014374,0.1919083148241043,-0.08724510669708252],[0.1878073811531067,-0.06682562828063965,0.19995258748531342,0.06304638832807541,-0.16191725432872772,-0.5647597908973694,-0.08242552727460861,0.012905380688607693,0.28912824392318726,0.12432706356048584,-0.21348696947097778,-0.11048044264316559,0.5966681838035583,-0.3690186142921448,0.1420164704322815,-0.06371764093637466,0.25186336040496826,0.49417367577552795,0.24735631048679352,0.34640005230903625,0.5127911567687988,0.07130441814661026,0.17696739733219147,-0.5477682948112488,0.4185055196285248,-0.11694152653217316,0.10212497413158417,0.1990741640329361,0.6087291240692139,-0.12605853378772736,0.09946038573980331,-0.3390543758869171,0.3585675060749054,-0.32802096009254456,-0.08464973419904709,-0.06878351420164108,0.24993234872817993,-0.26752084493637085,-0.2732537090778351,0.13602060079574585,-0.09072931110858917,-0.1532459557056427,-0.09571827948093414,0.39050647616386414,1.0318435430526733,0.23418985307216644,-0.3102332651615143,-0.3962651789188385,-0.0391814224421978,-0.40462526679039,0.23348191380500793,0.3716229796409607,-0.04270317405462265,-0.2341199368238449,-0.45393988490104675,-0.557599663734436,-0.0956350639462471,0.2401505708694458,0.091649629175663,0.539385199546814,0.028177795931696892,0.1744789481163025,0.19426582753658295,-0.3332964777946472,0.2003861665725708,-0.040997810661792755,0.1045643612742424,-0.03984031081199646,0.10735495388507843,0.014251455664634705,-0.9078712463378906,0.2205471694469452,-0.12539830803871155,0.0405643992125988,-0.4231976270675659,0.058463990688323975,0.27551981806755066,0.34367111325263977,-0.18299585580825806,-0.27247154712677,-0.4907305836677551,0.41805681586265564,0.00032417644979432225,0.22573304176330566,0.18995170295238495,-0.6294501423835754,0.23769986629486084,0.8322137594223022,-0.057736657559871674,-0.23078849911689758,-0.2789067029953003,0.2044910043478012,0.2409394085407257,-0.10199777036905289,-0.03586135804653168,-0.6256617307662964,-0.00587849784642458,-0.22431160509586334,-0.1849278211593628,-0.008762910962104797,-0.17206108570098877,-0.5177389979362488,-0.8729804158210754,-0.2165052741765976,0.6479611396789551,-0.05849786475300789,0.581926703453064,0.13151395320892334,0.49876582622528076,-0.2900518476963043,-0.042274557054042816,0.3527708947658539,-0.14908534288406372,-1.1267030239105225,-0.09750037640333176,-0.43788594007492065,0.3291333019733429,-0.40486517548561096,-0.25250449776649475,-0.3088664710521698,-0.00041370748658664525,0.17997096478939056,-0.46679359674453735,-0.437360554933548,-0.21634167432785034,0.08695589751005173,-0.09136783331632614,0.10403520613908768],[0.13450047373771667,-0.045748379081487656,-0.12826457619667053,-0.08493851125240326,0.29364386200904846,0.030839478597044945,0.1450420320034027,-0.06056476756930351,0.07756397873163223,0.2904203534126282,0.24359281361103058,0.156971737742424,-0.13571278750896454,-0.056443337351083755,0.21792352199554443,0.26311153173446655,-0.12407664954662323,-0.1857982724905014,0.09181170910596848,-0.1520470380783081,0.04422668367624283,0.19444046914577484,-0.03341810405254364,0.16958342492580414,0.2644651234149933,0.35559549927711487,0.19950008392333984,-0.11767471581697464,-0.011281872168183327,0.19804596900939941,-0.29820382595062256,-0.0975661650300026,0.15955299139022827,0.06912252306938171,0.21071425080299377,-0.09317365288734436,-0.0381169356405735,-0.153562530875206,0.18209458887577057,0.40404874086380005,0.2834692597389221,-0.07365741580724716,0.237150177359581,-0.2559868097305298,-0.01678611896932125,0.021049275994300842,0.01305550616234541,-0.1930246651172638,0.038611311465501785,0.07269895821809769,-0.19949831068515778,0.523292064666748,-0.011195182800292969,-0.290775328874588,0.20613297820091248,-0.04434298351407051,0.09807810932397842,-0.13482597470283508,-0.3221302628517151,0.026840727776288986,0.026638178154826164,0.014696474187076092,0.03275119513273239,-0.05559369549155235,0.06252899765968323,-0.06610988080501556,-0.21312391757965088,0.10879576951265335,0.5868800282478333,0.13133418560028076,0.04363691434264183,-0.026047073304653168,-0.285389244556427,0.0015771235339343548,0.18159155547618866,-0.2537078857421875,-0.01186957024037838,-0.36756432056427,0.14204178750514984,-0.08997765183448792,0.22240690886974335,0.22710837423801422,-0.19801749289035797,-0.08956827968358994,0.44415315985679626,0.10505861788988113,0.2381952702999115,0.174259752035141,0.08609046041965485,0.0496111698448658,-0.037672627717256546,0.00024473638040944934,-0.3194912075996399,-0.2683975398540497,-0.4303077161312103,0.06534989178180695,-0.2088175266981125,-0.07766693830490112,-0.02039841003715992,0.12918248772621155,0.24352960288524628,0.23755903542041779,0.2062300443649292,-0.17259874939918518,-0.12374196946620941,-0.11828453093767166,-0.04949696734547615,-0.45208975672721863,-0.40591245889663696,-0.09771465510129929,-0.06952967494726181,0.48863229155540466,0.3562023937702179,0.1283555030822754,0.19141066074371338,-0.13560719788074493,0.12527631223201752,-0.06769102066755295,-0.057813506573438644,0.18732742965221405,-0.2945057153701782,0.22490331530570984,-0.05236997827887535,0.2062591016292572,0.19348372519016266,-0.23815439641475677,0.01838332787156105,0.27866578102111816],[-0.22074654698371887,0.16004906594753265,0.7306269407272339,-0.006605613511055708,-0.45909208059310913,-0.4096500873565674,-0.2619786858558655,-0.04131245240569115,0.4629828929901123,-0.047154370695352554,-0.304004043340683,-0.1519317626953125,0.01400668453425169,-0.6007929444313049,0.19745445251464844,-0.20066292583942413,0.7932795882225037,0.5648673176765442,0.39753106236457825,-0.16471442580223083,0.10219335556030273,0.011605000123381615,0.23770315945148468,-0.5496901273727417,0.1595413088798523,-0.08075553178787231,-0.17663992941379547,0.35518962144851685,0.5371252298355103,-0.10153969377279282,0.07123386859893799,-0.13275103271007538,0.10173294693231583,-0.06839058548212051,-0.1687023937702179,0.17333075404167175,0.32654207944869995,-0.199769988656044,0.043028321117162704,-0.07598470151424408,-0.03669862821698189,0.22711095213890076,-0.23623403906822205,0.3389225900173187,0.49744901061058044,0.1417580246925354,-0.08142261207103729,-0.13290415704250336,-0.23779287934303284,-0.6696290969848633,-0.026138857007026672,0.11846209317445755,-0.08825836330652237,0.16580334305763245,-0.19157972931861877,-0.49598798155784607,-0.14763206243515015,0.21670491993427277,0.11543011665344238,0.46313777565956116,-0.11443008482456207,0.32567518949508667,0.3215625286102295,-0.28174108266830444,0.20176202058792114,0.03273885324597359,0.08976525813341141,0.017105478793382645,-0.20887741446495056,0.02089364267885685,-0.35440653562545776,-0.042505353689193726,0.01722673326730728,-0.4927545487880707,-0.09191081672906876,0.04979017376899719,0.13169053196907043,0.09912573546171188,0.03897170349955559,-0.4461802542209625,-0.3041829764842987,-0.06486829370260239,0.1567438691854477,0.057147443294525146,-0.15666118264198303,-0.5004174709320068,0.22251936793327332,0.3318488299846649,-0.09489371627569199,0.052096180617809296,-0.4568140208721161,0.02692217379808426,-0.11846098303794861,0.10802935063838959,0.16594213247299194,-0.17663896083831787,-0.0011682190233841538,0.10299406945705414,0.06836730986833572,-0.20294702053070068,-0.19198963046073914,-0.5469276905059814,-0.18402884900569916,-0.03575803339481354,0.7367434501647949,0.13456949591636658,0.2950158417224884,0.09039974212646484,0.7636790871620178,-0.3243018388748169,0.09273422509431839,-0.07795587927103043,-0.2642045319080353,-0.6528803110122681,-0.20359496772289276,-0.014126270078122616,0.013748296536505222,-0.17134499549865723,-0.20792856812477112,-0.475759893655777,0.06097100302577019,-0.07484505325555801,-0.03374142199754715,0.34665966033935547,-0.5824766755104065,0.048716943711042404,0.05482205003499985,-0.35417619347572327],[0.21663957834243774,0.470792293548584,0.09322166442871094,0.14469212293624878,-0.1489301174879074,-0.21471919119358063,0.24444524943828583,0.24539363384246826,0.1749441772699356,0.18701128661632538,0.09257436543703079,0.0006503228796645999,-0.010361683554947376,-0.028891408815979958,0.23389239609241486,-0.007272752001881599,0.04413299262523651,-0.09529448300600052,0.15842433273792267,-0.258497416973114,0.0786103829741478,0.11236986517906189,0.25096604228019714,0.17014111578464508,0.46385371685028076,0.43113747239112854,0.06414051353931427,0.08908254653215408,-0.034525081515312195,0.29208534955978394,-0.3946352005004883,-0.2297818660736084,0.160771906375885,0.3640003204345703,0.24290363490581512,-0.06750805675983429,0.3606806695461273,0.11760031431913376,0.15313297510147095,-0.0006988834356889129,0.3791242837905884,-0.2655423879623413,0.4890368580818176,-0.2809780240058899,0.04979972541332245,0.41583573818206787,0.22137263417243958,-0.38410013914108276,-0.29987186193466187,0.18427200615406036,-0.232505664229393,0.6307953596115112,-0.16382500529289246,-0.16352210938930511,0.1282770335674286,-0.07134854048490524,-0.21984992921352386,0.29644984006881714,-0.3314601182937622,0.2738937437534332,-0.026290275156497955,0.28500428795814514,0.388827919960022,-0.22201745212078094,0.3234522044658661,-0.380167692899704,0.16483619809150696,-0.01848221756517887,0.8590981960296631,0.3553139567375183,0.01437450759112835,-0.09535360336303711,-0.30256763100624084,0.21971307694911957,-0.08474846929311752,-0.10615897178649902,-0.015035323798656464,-0.16062217950820923,0.06287574023008347,-0.22451238334178925,0.0010006943484768271,0.23987890779972076,0.07633836567401886,0.1447424292564392,0.6248233318328857,-0.015670839697122574,0.3854953944683075,0.17136803269386292,0.016284486278891563,0.04982515051960945,-0.19625991582870483,-0.03647805005311966,-0.2573549151420593,-0.005389950703829527,-0.4590780436992645,-0.15233951807022095,0.03428567200899124,-0.32579973340034485,0.23665839433670044,0.22192849218845367,0.08660218864679337,-0.0504358634352684,0.3732314109802246,-0.041856274008750916,0.11426468938589096,-0.11910225450992584,-0.11363782733678818,-0.04606860876083374,-0.04776836186647415,-0.2457219809293747,0.09833285957574844,0.455469012260437,-0.11250832676887512,-0.07869407534599304,0.22787609696388245,-0.2150241583585739,0.05642661824822426,-0.5199836492538452,-0.2911079525947571,-0.15458588302135468,-0.33104565739631653,0.12964767217636108,-0.31719112396240234,0.1977720856666565,-0.08729259669780731,-0.21565623581409454,0.35695895552635193,0.14804938435554504],[-0.13197852671146393,-0.07223352044820786,0.17709404230117798,0.35606586933135986,-0.38349664211273193,-0.1417895257472992,-0.12560296058654785,0.22897419333457947,0.12332203984260559,-0.31847110390663147,-0.20607085525989532,-0.18632952868938446,0.30748435854911804,-0.1437818855047226,0.0414327047765255,-0.07921172678470612,0.2017260491847992,0.3240395784378052,0.08659636229276657,0.0239749476313591,-0.03081762045621872,-0.3199470043182373,0.4155054986476898,-0.2786499261856079,-0.03370653837919235,-0.440241277217865,-0.28410276770591736,0.6270625591278076,0.36303025484085083,0.07641320675611496,0.17938943207263947,0.07722964882850647,-0.158412367105484,0.1529666632413864,-0.06737857311964035,0.10378855466842651,0.20422466099262238,-0.007175235543400049,-0.22339557111263275,-0.3816516399383545,-0.19316668808460236,-0.10443324595689774,-0.00017253145051654428,0.42217323184013367,0.009947923012077808,0.09506703913211823,0.07141934335231781,-0.002443897072225809,-0.2613866925239563,-0.2196909338235855,0.17502395808696747,-0.12439171224832535,0.08117964118719101,0.21531976759433746,-0.46916648745536804,-0.029369818046689034,0.30643314123153687,0.07985489815473557,0.16119366884231567,-0.04256057366728783,-0.3369807004928589,0.3129577040672302,0.20213682949543,-0.08402910083532333,0.0591287687420845,-0.09680303931236267,0.0031517338939011097,-0.2758444547653198,-0.4185929000377655,0.515851616859436,-0.06681797653436661,0.42362862825393677,0.4745257794857025,-0.26905953884124756,0.08145787566900253,-0.18768642842769623,0.23598316311836243,0.39309102296829224,-0.6754223704338074,-0.048239342868328094,0.06714817136526108,0.04673532024025917,0.48094597458839417,-0.055988993495702744,-0.4660283625125885,-0.39335373044013977,0.0654858872294426,-0.03319589048624039,-0.5165813565254211,-0.23930104076862335,-0.1472482681274414,0.002568015130236745,0.2508506774902344,0.45884278416633606,0.23265008628368378,-0.21723109483718872,-0.018166568130254745,0.1733720302581787,0.1701497733592987,-0.07117193937301636,-0.26986032724380493,-0.41617631912231445,-0.3317541778087616,0.6863465309143066,0.14605490863323212,0.11294927448034286,0.2702617347240448,0.3506782352924347,0.4128768742084503,-0.2290048748254776,-0.12583765387535095,-0.5051560997962952,-0.29163822531700134,0.09916142374277115,-0.3505305051803589,0.08483221381902695,-0.06244167312979698,-0.029506739228963852,-0.3423073887825012,-0.2702329456806183,0.07870741933584213,0.31770026683807373,0.0047668581828475,-0.29386231303215027,-0.3391200304031372,0.4973124861717224,0.1444316953420639,-0.2976846396923065],[-0.35752376914024353,0.17930549383163452,0.18080301582813263,0.011682698503136635,-0.2062138468027115,-0.18227419257164001,-0.21772848069667816,-0.07549532502889633,-0.013549717143177986,-0.23316672444343567,-0.23115868866443634,-0.016174517571926117,-0.15477770566940308,-0.13965752720832825,0.009030140936374664,-0.2134028673171997,0.1294461339712143,0.12114067375659943,0.06973933428525925,0.01630101352930069,-0.11428114026784897,-0.17832502722740173,0.2830083668231964,-0.056634869426488876,-0.051204655319452286,-0.254829466342926,-0.013649532571434975,0.13308650255203247,0.16049250960350037,-0.18030494451522827,0.12237285077571869,0.02628287859261036,-0.037526629865169525,0.14711639285087585,-0.07232189178466797,0.04543743282556534,0.09333951026201248,0.01140687894076109,0.08171705901622772,-0.11267149448394775,-0.2118813842535019,0.25959938764572144,-0.09704611450433731,0.12938889861106873,-0.059175897389650345,-0.190713569521904,0.07554212212562561,0.06999187916517258,-0.06790299713611603,-0.30174630880355835,0.27357617020606995,-0.1524665802717209,0.17393216490745544,0.3019588887691498,-0.13211122155189514,-0.0329982228577137,0.2975921630859375,0.028372257947921753,0.39484408497810364,0.10180359333753586,-0.06690351665019989,0.13207262754440308,-0.10623811185359955,-0.09493271261453629,0.1649324744939804,0.23328888416290283,-0.04027847573161125,-0.011660711839795113,-0.37452030181884766,0.028967315331101418,-0.057765375822782516,-0.026898974552750587,0.3089633882045746,-0.1627665013074875,0.06992187350988388,-0.052030544728040695,0.0028608294669538736,0.13513003289699554,0.01114968117326498,0.0020603621378540993,-0.10669223964214325,-0.023585114628076553,0.06371141225099564,-0.041663799434900284,-0.3593233525753021,-0.1344536542892456,0.09630636870861053,0.04808066785335541,-0.13695940375328064,0.25095632672309875,-0.32856664061546326,-0.018380355089902878,-0.1162061020731926,0.07007395476102829,0.357360303401947,0.18060976266860962,0.2286168336868286,0.1984667330980301,0.1682189553976059,-0.38622862100601196,-0.13254627585411072,-0.24508467316627502,0.057423677295446396,0.10884726792573929,0.09353765845298767,0.23031765222549438,0.0963754877448082,0.08403319120407104,0.20734836161136627,-0.09202073514461517,-0.007645023986697197,-0.41073912382125854,-0.1261688768863678,-0.08353276550769806,-0.25794854760169983,0.31748443841934204,-0.058716922998428345,0.23943960666656494,-0.2000291496515274,-0.17002172768115997,0.17677877843379974,-0.021101312711834908,0.11740275472402573,0.12672948837280273,-0.1291566789150238,0.09559915959835052,0.1035713255405426,-0.39419955015182495],[-0.23078270256519318,0.14051221311092377,0.35373058915138245,-0.42652955651283264,0.19356074929237366,0.01514512114226818,-0.040986236184835434,-0.567807674407959,0.290030837059021,-0.04279642924666405,0.250578910112381,0.15822158753871918,-0.06667464226484299,-0.39162111282348633,0.4359007775783539,-0.05106940120458603,0.3444371819496155,0.2620924711227417,0.21946191787719727,-0.41985687613487244,0.05815287306904793,-0.02728906460106373,-0.28640371561050415,-0.45214515924453735,-0.0020571397617459297,-0.2099388986825943,-0.37539565563201904,-0.04871242120862007,0.1777428537607193,-0.09771158546209335,0.21382224559783936,0.12522588670253754,0.21395382285118103,-0.3214240074157715,-0.25021645426750183,0.026330487802624702,-0.10361942648887634,-0.5376584529876709,-0.43261465430259705,0.30454158782958984,0.1556326299905777,-0.1394084393978119,-0.5112365484237671,0.2990809977054596,0.31980088353157043,-0.01974347233772278,-0.24892117083072662,0.09328357875347137,0.025682594627141953,-0.3935140371322632,-0.285488098859787,0.13038751482963562,0.25422534346580505,-0.24748852849006653,-0.048467881977558136,-0.2436831295490265,0.09392375499010086,-0.22710710763931274,-0.30063697695732117,0.04526965320110321,0.056061625480651855,-0.018691111356019974,0.3161719739437103,-0.1621631681919098,0.17717917263507843,0.5013542771339417,-0.23061472177505493,0.1451534926891327,-0.2520269453525543,-0.36092865467071533,-0.3445589244365692,-0.28797224164009094,-0.02149703912436962,-0.4369117319583893,0.26732680201530457,-0.19279415905475616,0.06277220696210861,-0.22463497519493103,0.4268524944782257,-0.29481446743011475,0.12889032065868378,0.1053236573934555,-0.39880141615867615,-0.002661589067429304,0.13817401230335236,-0.23587577044963837,-0.011934547685086727,0.3726218640804291,0.3977510929107666,0.27190887928009033,-0.010973859578371048,0.11485777795314789,-0.028226647526025772,-0.2446223944425583,0.4627978503704071,-0.04222115874290466,-0.51204913854599,-0.04341801255941391,-0.03255262225866318,-0.027812529355287552,0.18645499646663666,-0.1895362138748169,-0.16088517010211945,-0.27370646595954895,0.318063884973526,0.06918221712112427,0.45970815420150757,0.00477989949285984,0.11464668810367584,-0.1735781878232956,-0.4832662343978882,0.185992032289505,0.3876732885837555,-0.43103402853012085,-0.23675136268138885,-0.05730721727013588,0.09844236075878143,0.012299049645662308,0.11733847111463547,0.044279858469963074,-0.15358155965805054,0.10667765885591507,0.30028143525123596,0.04253402352333069,-0.27741923928260803,0.06141462177038193,-0.12272366881370544,-0.32242339849472046],[0.043799594044685364,0.24637815356254578,0.17840103805065155,0.10157541930675507,-0.09304629266262054,-0.36657384037971497,0.206830695271492,0.19334615767002106,0.15752379596233368,0.08997636288404465,-0.06952905654907227,0.011522801592946053,-0.019503645598888397,-0.10881814360618591,0.3486890196800232,-0.08833587914705276,0.004627144895493984,0.0465216301381588,0.06932719796895981,-0.27581265568733215,0.16146120429039001,0.04160221666097641,0.1502739042043686,0.16509665548801422,0.36075156927108765,0.3547421395778656,0.09212295711040497,0.13349305093288422,0.08170632272958755,0.28938329219818115,-0.3791581988334656,-0.1973298341035843,0.08761277794837952,0.22849123179912567,0.16628049314022064,0.04237061366438866,0.39674821496009827,0.008200558833777905,0.22820942103862762,-0.09070764482021332,0.27919378876686096,-0.01571023464202881,0.39246535301208496,-0.18233101069927216,0.11087202280759811,0.3206268548965454,-0.02153494767844677,-0.20530207455158234,-0.17252646386623383,0.2525375485420227,-0.24441257119178772,0.5510062575340271,-0.02626376412808895,-0.3739064037799835,0.19036617875099182,-0.15397591888904572,-0.15004637837409973,0.315518319606781,-0.30297768115997314,0.33689457178115845,-0.14910118281841278,0.23863878846168518,0.3811926245689392,-0.15126323699951172,0.27912086248397827,-0.15676994621753693,-0.012819879688322544,0.05109657719731331,0.549251139163971,0.18018507957458496,-0.009331651963293552,-0.20434196293354034,-0.3352666199207306,0.17367401719093323,-0.0848190039396286,-0.017826171591877937,0.022786820307374,-0.07509606331586838,0.10785386711359024,-0.10223758965730667,-0.0032681976445019245,0.14532987773418427,0.0840071588754654,0.011536856181919575,0.32491904497146606,-0.05154765769839287,0.2957126498222351,0.2000766545534134,0.05038014426827431,0.008725772611796856,-0.17544977366924286,-0.10596621781587601,-0.32426783442497253,0.09537869691848755,-0.26624223589897156,-0.23335029184818268,-0.03437042981386185,-0.05697770044207573,0.13982699811458588,0.06252233684062958,0.05736446753144264,-0.041763048619031906,0.3169114291667938,0.03910999745130539,0.1934720128774643,-0.14943397045135498,0.01063496619462967,-0.11577707529067993,-0.13542725145816803,-0.16454212367534637,-0.03547338768839836,0.3155578374862671,-0.07960785925388336,-0.052423957735300064,0.24073493480682373,-0.27027562260627747,0.0019595499616116285,-0.3870313763618469,-0.14581631124019623,-0.17714175581932068,-0.25595903396606445,0.10366315394639969,-0.32278504967689514,0.26963913440704346,-0.02508912794291973,-0.14044681191444397,0.32702556252479553,0.15876586735248566],[-0.0802585631608963,-0.021842489019036293,-0.18982553482055664,-0.0923721045255661,0.12626275420188904,-0.022953586652874947,-0.15224382281303406,-0.035776302218437195,-0.028220660984516144,-0.07897768169641495,0.10407719016075134,-0.12776313722133636,0.07110114395618439,-0.09799746423959732,-0.22790312767028809,0.14482194185256958,0.08836963772773743,-0.08535268902778625,0.15897826850414276,0.09442684054374695,0.03925144299864769,-0.14173336327075958,0.2037949562072754,-0.06577467173337936,-0.027616268023848534,-0.5890491604804993,-0.3236794173717499,0.06561864167451859,0.12227916717529297,-0.16292594373226166,0.2611668109893799,0.23283715546131134,0.19204694032669067,-0.22184501588344574,-0.07634468376636505,0.07621295750141144,-0.2775340676307678,0.0377056784927845,-0.11171851307153702,-0.038079146295785904,-0.15861034393310547,-0.18675905466079712,-0.07233203947544098,0.38048720359802246,0.09234980493783951,-0.2939038574695587,-0.12172800302505493,-0.03629649430513382,-0.06648612022399902,-0.2992844581604004,-0.1099807620048523,-0.03177541494369507,0.08900613337755203,0.04652200639247894,-0.2804790735244751,-0.11882509291172028,0.5213252305984497,-0.056533414870500565,-0.12841904163360596,-0.09564900398254395,-0.15711481869220734,0.13377638161182404,-0.12409088015556335,-0.14105942845344543,-0.1381535530090332,-0.022013135254383087,-0.11938779801130295,-0.11826395243406296,-0.18640127778053284,0.042715251445770264,-0.0750514417886734,0.14312754571437836,0.6515874862670898,-0.4936218559741974,0.11631501466035843,-0.27270981669425964,0.355474591255188,-0.028776971623301506,-0.07172342389822006,-0.07653772830963135,0.13605445623397827,0.344838410615921,-0.08543787151575089,0.09579978138208389,-0.22781556844711304,-0.012530415318906307,0.14720368385314941,0.17578917741775513,-0.22086289525032043,-0.02094407193362713,-0.11923365294933319,0.15517660975456238,0.08641813695430756,-0.007098346017301083,0.26763656735420227,0.11894440650939941,-0.05168521776795387,0.19843214750289917,-0.14513671398162842,0.07447211444377899,-0.18264690041542053,-0.17449910938739777,-0.33210307359695435,0.11106039583683014,-0.015653667971491814,0.1270141750574112,0.2200825810432434,-0.004180803429335356,0.002596010686829686,-0.12264461815357208,-0.16995136439800262,-0.1674383133649826,0.09853390604257584,-0.0045295460149645805,-0.33097678422927856,-0.08564493060112,0.04449827969074249,0.10933247208595276,-0.19700704514980316,0.03976348042488098,0.2991945445537567,0.2869586944580078,0.1344851702451706,-0.2937096059322357,-0.0187277439981699,0.27341821789741516,-0.12641219794750214,-0.16615526378154755],[-0.35027632117271423,0.17330209910869598,0.320639967918396,-0.010380345396697521,0.02266525849699974,-0.16478294134140015,0.06489833444356918,-0.25663894414901733,0.34298592805862427,-0.14885903894901276,-0.0014988502953201532,-0.2222069501876831,0.01059168390929699,-0.6125940084457397,0.10996407270431519,-0.05369644984602928,0.47991514205932617,0.3483855724334717,0.31715959310531616,-0.25196629762649536,-0.1111983209848404,-0.269481360912323,0.13058151304721832,-0.39976486563682556,0.05060218647122383,-0.396945059299469,-0.5236566662788391,0.2731778919696808,0.4877728521823883,0.12002764642238617,0.06668631732463837,0.3417430520057678,0.13872495293617249,-0.1852390468120575,-0.1016797125339508,0.12719397246837616,-0.13844497501850128,-0.17989981174468994,-0.1977822631597519,0.07556376606225967,-0.042533062398433685,0.07181105762720108,-0.18618471920490265,0.6170756816864014,0.1184830442070961,-0.020946698263287544,-0.2836437225341797,0.009405920282006264,-0.20739425718784332,-0.5460506081581116,0.05978991091251373,0.26346033811569214,0.22952783107757568,-0.13171397149562836,-0.13295619189739227,-0.44989028573036194,0.42832377552986145,0.14149172604084015,-0.2803072929382324,0.1393737941980362,-0.338803231716156,0.23951686918735504,0.13880202174186707,-0.44978201389312744,0.16667208075523376,0.36196357011795044,-0.2716696262359619,0.007690188940614462,-0.21691368520259857,0.08713343739509583,-0.42908114194869995,0.1810506135225296,0.4486185908317566,-0.38016730546951294,0.28078895807266235,-0.2971038222312927,0.22379149496555328,-0.06176898255944252,-0.09580341726541519,-0.47717106342315674,0.17885948717594147,0.0995517149567604,0.018094738945364952,-0.06439593434333801,-0.18667416274547577,-0.4249712824821472,0.2901255190372467,0.2484630048274994,-0.18443720042705536,0.02974623441696167,-0.28752487897872925,0.08230593800544739,-0.02571938745677471,-0.06137281656265259,0.4362165927886963,-0.011616713367402554,-0.16972409188747406,0.14183133840560913,-0.003969914745539427,-0.012882902286946774,-0.20294466614723206,-0.2354879528284073,-0.16960428655147552,0.2227141559123993,0.30482017993927,0.07289885729551315,0.5302901268005371,0.039186831563711166,0.3956034779548645,-0.1928880363702774,-0.35744765400886536,-0.03840695321559906,0.012223896570503712,-0.2712880074977875,-0.3202100098133087,-0.04022471606731415,-0.09317649900913239,0.0678013488650322,-0.23169651627540588,-0.15921984612941742,-0.004098786506801844,0.47383540868759155,0.29150068759918213,-0.09869462251663208,-0.4845535457134247,0.0669320821762085,0.025246182456612587,-0.3715369701385498],[0.038661323487758636,0.09563235193490982,-0.11902876198291779,0.05151606351137161,-0.03043030947446823,0.25406593084335327,-0.028718719258904457,-0.03685528412461281,-0.06109479442238808,-0.20004235208034515,0.21453239023685455,-0.06056272238492966,0.1787293702363968,0.13322214782238007,-0.1946258395910263,-0.07713577896356583,0.035954348742961884,-0.08149821311235428,-0.13722792267799377,0.17928196489810944,-0.009921279735863209,-0.08296924084424973,-0.03021112084388733,-0.08660396933555603,-0.138913094997406,-0.3299776017665863,-0.18381185829639435,0.053799986839294434,-0.023982156068086624,-0.15972517430782318,0.1391511708498001,0.08967640995979309,0.0008710082620382309,0.04388519376516342,-0.09642426669597626,0.08004637807607651,-0.021360576152801514,0.08874539285898209,-0.15506091713905334,-0.1087186262011528,-0.048115961253643036,-0.18141713738441467,-0.07222804427146912,0.21536412835121155,-0.07204386591911316,-0.2619979679584503,0.1546848565340042,0.13091780245304108,0.10607683658599854,-0.06867020577192307,0.11111703515052795,-0.5919908285140991,0.040602609515190125,0.30897173285484314,-0.12838636338710785,0.051464054733514786,0.05382074415683746,-0.33074772357940674,-0.0024617917370051146,-0.2928280532360077,0.0510527640581131,-0.12092719227075577,-0.2101268321275711,0.18395419418811798,-0.1541118621826172,-0.0019044330110773444,0.15481258928775787,-0.05107606574892998,-0.32847702503204346,-0.10736807435750961,-0.05542735382914543,0.1063707172870636,0.1912604123353958,-0.11737318336963654,-0.06258175522089005,0.2650544047355652,0.09985087811946869,0.16277123987674713,-0.22266584634780884,0.03607717528939247,0.09659523516893387,-0.08586688339710236,0.1833208054304123,0.003815320087596774,-0.20840393006801605,0.05160985887050629,-0.2593136429786682,-0.18748891353607178,-0.03498903661966324,-0.05524478852748871,-0.02801087312400341,0.14585259556770325,0.26282429695129395,-0.053065743297338486,0.21764923632144928,0.013663137331604958,0.03735020011663437,-0.08215496689081192,-0.05837512016296387,0.3006908893585205,0.017741242423653603,0.0066122012212872505,-0.2251289039850235,0.12412066757678986,-0.011174739338457584,0.01941181905567646,-0.1313728243112564,0.33522090315818787,0.1616857796907425,-0.023165306076407433,0.12958699464797974,-0.15575458109378815,-0.04806338995695114,-0.14055009186267853,-0.19880922138690948,0.1714363992214203,0.08204054087400436,0.14150524139404297,0.02028874307870865,0.013618076220154762,0.03582747280597687,-0.026770196855068207,-0.033404164016246796,-0.2924172878265381,0.08736082166433334,0.16037221252918243,-0.14782671630382538,-0.07988165318965912],[0.3372093141078949,-0.09046196937561035,-0.5581668615341187,-0.06085039675235748,0.05202242732048035,0.07300007343292236,-0.036972105503082275,0.10685352981090546,-0.18936456739902496,0.30983036756515503,0.16012181341648102,0.09053751081228256,-0.03461742773652077,0.2888965308666229,-0.07740037888288498,0.13562016189098358,-0.6374981999397278,-0.4146921634674072,0.07244621217250824,0.08970853686332703,0.10770824551582336,0.32534992694854736,-0.15178966522216797,0.714241087436676,0.16230395436286926,0.3340855836868286,0.38022398948669434,-0.16398337483406067,-0.34308111667633057,-0.015774326398968697,-0.13032929599285126,-0.2266029566526413,-0.0560019388794899,0.18729718029499054,0.08290791511535645,-0.08627637475728989,-0.005034261383116245,0.059297338128089905,0.17328138649463654,0.1445551961660385,0.037937186658382416,-0.024746650829911232,0.171218141913414,-0.45374801754951477,-0.06656626611948013,-0.039861250668764114,-0.01374823972582817,-0.0899147018790245,0.08747709542512894,0.5446383953094482,-0.10254903137683868,0.23193274438381195,-0.20291490852832794,-0.14227914810180664,0.14869974553585052,0.29538363218307495,-0.08590631932020187,0.01474662497639656,-0.060438159853219986,0.12211208045482635,0.09179515391588211,-0.035310834646224976,-0.13284678757190704,0.12771737575531006,-0.1127687618136406,-0.16667775809764862,0.09361307322978973,0.056888408958911896,0.34601619839668274,-0.029796676710247993,0.20414581894874573,0.125109001994133,-0.19687964022159576,0.2960289716720581,-0.19016379117965698,0.2202829122543335,-0.24857454001903534,-0.12121357768774033,0.20541870594024658,0.24928875267505646,-0.03557749092578888,0.03913232311606407,-0.18866722285747528,0.08983368426561356,0.2881178855895996,0.4079103171825409,0.17803876101970673,-0.09308543801307678,0.021672317758202553,-0.018788987770676613,0.11412206292152405,-0.025797836482524872,-0.1297132670879364,-0.05532829463481903,-0.7099717259407043,0.002380794147029519,-0.08887510746717453,-0.11089583486318588,-0.1994807869195938,0.006275942083448172,-0.003012910485267639,0.4242658019065857,0.19241316616535187,-0.11578679084777832,-0.3387563228607178,0.01589110679924488,-0.3843958377838135,-0.34341704845428467,-0.48512569069862366,0.053230416029691696,0.26319196820259094,0.17281128466129303,0.07530785351991653,0.1329505294561386,0.3590371310710907,-0.19212311506271362,0.0689917802810669,-0.0972159281373024,-0.02442830614745617,0.2757929861545563,0.10859590768814087,-0.10504307597875595,-0.127688929438591,0.11010928452014923,0.5220714807510376,-0.22179897129535675,-0.04569227248430252,0.36590492725372314],[-0.3184375464916229,-0.11407351493835449,-0.0064859106205403805,0.31534433364868164,0.15723954141139984,-0.04249110445380211,0.4678385555744171,0.20673803985118866,-0.12703026831150055,-0.2871803045272827,0.028771065175533295,-0.41675326228141785,0.09731138497591019,0.024043718352913857,-0.11895132064819336,-0.17982593178749084,0.05710768327116966,0.13558703660964966,0.03842232748866081,-0.09871336072683334,-0.2972113788127899,-0.2473548948764801,0.024497631937265396,-0.019664082676172256,0.13912586867809296,-0.21935711801052094,-0.1418912708759308,0.1960921734571457,0.10645854473114014,0.3984249234199524,-0.2308007776737213,0.2595188617706299,-0.312409907579422,0.11231868714094162,0.3591023087501526,0.12178071588277817,-0.03847738727927208,0.30576151609420776,0.0737752616405487,-0.3957520127296448,-0.3470294177532196,0.04266884922981262,0.07097489386796951,-0.050453200936317444,-0.24259422719478607,-0.1559174656867981,0.080750972032547,-0.0958729088306427,-0.1438063681125641,0.06464832276105881,0.1089242547750473,-0.1025223657488823,0.02055937983095646,-0.09755181521177292,-0.04705822095274925,0.0585709847509861,0.4154879152774811,-0.06174372136592865,-0.09122423827648163,0.06137809157371521,-0.18145540356636047,0.10981076955795288,-0.050998520106077194,-0.03905467316508293,-0.015348452143371105,-0.13864539563655853,-0.002169610932469368,-0.4350326359272003,-0.12395093590021133,0.11004695296287537,0.11697200685739517,0.22489653527736664,0.43170103430747986,0.1503010094165802,-0.02157048135995865,-0.21502019464969635,-0.2220098376274109,0.09235677123069763,-0.43639254570007324,0.07001285254955292,0.26646098494529724,-0.16872793436050415,0.18709662556648254,-0.2476436197757721,-0.41773369908332825,-0.00033528165658935905,0.08016987890005112,-0.15268824994564056,-0.28170719742774963,-0.1443425863981247,0.023181656375527382,-0.33451786637306213,-0.1667514145374298,0.3062888979911804,0.15396983921527863,-0.0052559468895196915,0.3256584405899048,0.38946303725242615,0.13605116307735443,0.22996419668197632,-0.3637629747390747,0.013469977304339409,0.007581476587802172,0.5548745393753052,0.02104140818119049,-0.559127688407898,0.015084806829690933,-0.11275170743465424,-0.12966756522655487,-0.18921500444412231,-0.04582677036523819,-0.35857442021369934,-0.11990353465080261,0.15536706149578094,-0.20060035586357117,0.27809712290763855,-0.49413391947746277,-0.03386441245675087,-0.09258415549993515,-0.1329524964094162,0.2189766764640808,0.19081370532512665,-0.0999092385172844,-0.13576935231685638,-0.04124710336327553,0.376871258020401,0.20415900647640228,-0.14943471550941467],[-0.17107464373111725,-0.5107425451278687,-0.02310812473297119,0.031208986416459084,0.22072497010231018,0.32871249318122864,0.4668666422367096,0.13897831737995148,0.05782138928771019,-0.20867282152175903,0.19507399201393127,-0.012693086639046669,-0.06407041847705841,0.212022066116333,-0.46552613377571106,0.03388158977031708,0.030526861548423767,-0.2223152369260788,-0.07693327218294144,-0.2580628991127014,-0.3549361824989319,-0.23417212069034576,-0.02907201647758484,0.011472484096884727,0.08147445321083069,-0.19749130308628082,-0.1597449630498886,-0.012533101253211498,-0.07377926260232925,0.30069828033447266,0.1334921419620514,0.26836153864860535,-0.6036220788955688,-0.04432114586234093,0.23366568982601166,0.054632820188999176,-0.16734877228736877,0.3769756853580475,0.05483013764023781,-0.23928596079349518,-0.1294461041688919,0.008310639299452305,-0.1816449761390686,0.19099438190460205,-0.7211374044418335,-0.7793511748313904,0.4315546751022339,0.2609691917896271,0.019915025681257248,0.015945369377732277,0.0015988274244591594,-0.5534804463386536,-0.32864272594451904,-0.03452782332897186,0.0448518767952919,0.12252147495746613,0.1121349036693573,-0.7106807231903076,-0.14873525500297546,-0.4855835437774658,-0.20927177369594574,-0.03662030026316643,-0.38364192843437195,0.1716385781764984,-0.46344801783561707,-0.26905569434165955,-0.03704448789358139,-0.17373542487621307,-0.3782912790775299,-0.07481555640697479,0.3187345862388611,0.18988730013370514,0.34744635224342346,-0.08145972341299057,0.243302121758461,0.22576409578323364,-0.22027020156383514,-0.048438798636198044,0.0009429077035747468,0.25157856941223145,0.41786450147628784,-0.3484331965446472,0.03304886445403099,-0.23947839438915253,-0.3650684356689453,0.035365745425224304,-0.37872859835624695,-0.49922043085098267,-0.053955767303705215,-0.023436792194843292,0.1692977249622345,-0.15807153284549713,0.029973382130265236,0.2446187138557434,0.20900143682956696,0.35098981857299805,0.015246535651385784,0.23081818222999573,0.0753159373998642,0.47594180703163147,-0.24005471169948578,-0.047501567751169205,0.2689031958580017,0.19055895507335663,-0.12867581844329834,-0.36865898966789246,-0.09363220632076263,-0.09392336755990982,-0.02291262149810791,0.0710388720035553,0.10455981642007828,-0.3590700924396515,0.14634250104427338,0.39879268407821655,-0.2554141879081726,0.31429412961006165,-0.1986573040485382,-0.001024990575388074,0.08048616349697113,0.012667439877986908,0.1721605509519577,-0.017188891768455505,0.010205102153122425,0.11251237243413925,0.020892204716801643,0.031211962923407555,0.06622067093849182,-0.050198741257190704],[-0.013571476563811302,-0.5169920921325684,0.004799226764589548,-0.21112778782844543,-0.03471904993057251,-0.04207361862063408,-0.09673547744750977,0.042449697852134705,-0.203155517578125,0.11740381270647049,-0.27287718653678894,0.038058940321207047,0.12766017019748688,-0.00814855471253395,0.01796375773847103,-0.10219044983386993,-0.08820397406816483,0.09666946530342102,-0.19248472154140472,0.5314981937408447,0.12264660745859146,0.19330397248268127,-0.27467769384384155,-0.2679365873336792,-0.2963252663612366,-0.02799486555159092,0.11310238391160965,-0.08782857656478882,-0.07637960463762283,-0.4772232174873352,0.10426586121320724,-0.2998785376548767,0.10320752114057541,-0.44114795327186584,-0.30818071961402893,0.045440107583999634,0.1083863228559494,-0.10469168424606323,-0.2156171053647995,-0.15850475430488586,-0.3825157582759857,0.3744792938232422,-0.4093697965145111,0.016769059002399445,0.3810129463672638,0.14572107791900635,-0.22418886423110962,0.18256232142448425,0.14096340537071228,-0.015944072976708412,0.22516359388828278,-0.32275083661079407,0.03127940371632576,-0.04302510246634483,0.016440706327557564,-0.00013317191042006016,-0.3815833628177643,0.20533734560012817,0.7084266543388367,0.15452909469604492,0.3492034375667572,-0.052609506994485855,0.00020792092254851013,0.05821048468351364,0.11395871639251709,0.41342389583587646,0.24904990196228027,0.04493075981736183,-0.5110822916030884,-0.3960026502609253,-0.06219572201371193,0.03166504576802254,-0.3395177721977234,0.25236207246780396,-0.3734278678894043,0.3592332601547241,-0.08471189439296722,0.3331451117992401,0.007067073602229357,0.2927244007587433,-0.5924297571182251,-0.1532709300518036,0.028296444565057755,0.20364941656589508,-0.038498133420944214,-0.10001187771558762,-0.24724611639976501,-0.02483813278377056,0.05690798908472061,-0.35404688119888306,0.22897018492221832,0.00440693786367774,0.35627588629722595,0.03331809863448143,0.11464006453752518,-0.1494656652212143,0.24857071042060852,-0.12611794471740723,-0.6262555718421936,-0.6079040169715881,-0.06107482314109802,0.000875533209182322,-0.4903819262981415,-0.15358245372772217,0.05382914841175079,-0.10013599693775177,0.1665586680173874,0.2877044081687927,0.1313687264919281,0.10851490497589111,0.19372063875198364,0.015525284223258495,-0.14909927546977997,-0.2712598741054535,0.0752764567732811,-0.07664692401885986,0.17473343014717102,0.11040382832288742,0.1577860713005066,0.030521336942911148,0.02182772569358349,-0.3440099060535431,0.11891043186187744,-0.22755447030067444,0.07299171388149261,0.10845012962818146,-0.3386523723602295,0.035074010491371155],[-0.30392104387283325,0.29102733731269836,-0.14793062210083008,0.18133613467216492,-0.26268184185028076,-0.21498428285121918,-0.018223095685243607,0.16896946728229523,0.24402593076229095,0.09457971155643463,-0.3538837432861328,0.07892392575740814,-0.3035408556461334,-0.33873939514160156,0.27886763215065,-0.18726348876953125,0.08567632734775543,0.07182774692773819,0.19152717292308807,-0.22237429022789001,-0.05337654426693916,0.17125172913074493,0.2470385879278183,0.1424841731786728,0.24647276103496552,0.7274231314659119,0.26964613795280457,-0.07526668906211853,0.16837038099765778,0.10830429196357727,-0.5445718765258789,0.12078257650136948,0.22749310731887817,0.42495110630989075,0.27018237113952637,0.09244833886623383,0.4142739176750183,-0.1392471045255661,0.1697690784931183,0.12073395401239395,0.7721244096755981,0.36508142948150635,0.44681480526924133,-0.44702985882759094,0.3742409944534302,0.37080249190330505,0.30281510949134827,-0.009682879783213139,-0.09950117766857147,0.15062415599822998,-0.06415358930826187,0.4266160726547241,0.2996844947338104,-0.1194358542561531,0.6006263494491577,-0.025872094556689262,-0.35340616106987,0.24444197118282318,0.004310280084609985,0.15610872209072113,0.10741156339645386,0.23437398672103882,0.09036622196435928,-0.2713508605957031,0.39346006512641907,0.30920061469078064,-0.31249913573265076,0.39939752221107483,0.3047390580177307,0.4315620958805084,-0.061665069311857224,-0.5239711999893188,-0.5893279910087585,-0.006589700002223253,0.4537146985530853,-0.1972327083349228,-0.0982557013630867,-0.6970791816711426,0.20102138817310333,-0.22216612100601196,0.15346266329288483,0.03341634199023247,0.0673220232129097,-0.21003372967243195,0.8867263197898865,-0.2570219933986664,0.32304146885871887,0.1361866295337677,0.25438809394836426,0.42030778527259827,-0.14963380992412567,-0.14809702336788177,-0.3471453785896301,-0.3166370093822479,-0.31461891531944275,-0.24113893508911133,-0.26427021622657776,-0.48359358310699463,0.2396622747182846,-0.07896099984645844,0.5832419991493225,0.15469922125339508,0.24753648042678833,-0.17447130382061005,0.1278672218322754,-0.09051665663719177,0.2832529544830322,-0.2639278173446655,-0.2756924331188202,-0.16466102004051208,-0.15447521209716797,0.595562219619751,-0.12337343394756317,-0.08848384022712708,0.4340582489967346,-0.17514470219612122,-0.014754408039152622,0.06086505949497223,-0.2610439360141754,-0.11104032397270203,-0.3741970658302307,0.07790803164243698,-0.1301729828119278,0.5662266612052917,0.05330933257937431,-0.83545982837677,0.26569968461990356,-0.021165618672966957],[0.2633432447910309,0.12198831886053085,-0.09969258308410645,-0.39547064900398254,