{"name":"AI Pong right-side PPO policy (early checkpoint)","format":"ai-pong-mlp-json-v1","sourceCheckpoint":"selfplay_update_0025.pt","checkpointUpdate":25,"observationSize":9,"actionSize":3,"hiddenSize":128,"actions":["stay","up","down"],"side":"right","deterministicAction":"argmax(logits)","envConfig":{"width":900,"height":600,"paddle_width":16,"paddle_height":96,"paddle_margin":36,"paddle_speed":540.0,"ball_radius":9,"serve_speed":360.0,"max_ball_speed":920.0,"ball_speedup":1.045,"max_bounce_angle":1.1344640137963142,"dt":0.016666666666666666,"score_to_win":7,"max_steps":100000,"hit_reward":0.05},"trainingConfig":{"updates":1000,"steps_per_update":128,"ppo_epochs":8,"batch_size":256,"learning_rate":0.0003,"gamma":0.99,"gae_lambda":0.95,"clip_eps":0.2,"entropy_coef":0.01,"value_coef":0.5,"hidden_size":128,"num_envs":64,"num_workers":24,"save_every":25,"checkpoint_dir":"checkpoints","seed":7,"device":"cuda","amp":true,"torch_compile":false},"layers":{"backbone0":{"weight":[[0.19799470901489258,0.18611951172351837,-0.11638066172599792,0.26167914271354675,-0.25221022963523865,-0.050507333129644394,-0.2512151896953583,-0.09277354925870895,-0.3047705292701721],[0.06405340880155563,-0.3893260657787323,-0.12874387204647064,0.30047184228897095,0.1842900961637497,-0.048685330897569656,-0.1621704399585724,0.5235655307769775,0.1207730621099472],[-0.3347764015197754,-0.2658882141113281,-0.10121752321720123,0.09382478892803192,-0.05933694541454315,0.07083236426115036,0.14275510609149933,0.041431646794080734,-0.3131876587867737],[-0.076177679002285,0.22866488993167877,-0.10748891532421112,-0.18248818814754486,-0.17829178273677826,-0.3030715882778168,-0.4478950798511505,-0.21438580751419067,-0.2674647867679596],[0.22026103734970093,0.18832361698150635,0.050086427479982376,0.027766769751906395,0.22647041082382202,0.2509206235408783,-0.18196706473827362,-0.270048588514328,0.011556410230696201],[0.31248778104782104,0.040811534970998764,0.26918238401412964,-0.10968094319105148,0.0663149431347847,-0.020282430574297905,0.22677671909332275,0.28397229313850403,-0.07032427936792374],[0.13248269259929657,0.2575240433216095,-0.03384731337428093,-0.21845866739749908,0.12788476049900055,-0.07873771339654922,0.04380395635962486,-0.23465482890605927,-0.41383060812950134],[0.2562553584575653,-0.306884229183197,-0.07495803385972977,-0.010153413750231266,-0.20108860731124878,-0.24312640726566315,-0.048609256744384766,-0.23116238415241241,-0.16863085329532623],[0.15241801738739014,-0.239766463637352,-0.16897454857826233,0.22128331661224365,-0.009821977466344833,0.3662373423576355,-0.007720548193901777,-0.004165153484791517,-0.23736372590065002],[-0.004714097362011671,-0.2119360864162445,-0.186797097325325,0.2989419400691986,-0.12761692702770233,0.11753789335489273,-0.2383861243724823,-0.12948425114154816,0.1919882446527481],[0.37222641706466675,0.10702269524335861,0.2421107143163681,0.013096285983920097,0.04227081313729286,0.3504025936126709,-0.40531232953071594,0.03895534574985504,-0.40309780836105347],[0.16213326156139374,-0.2841939330101013,-0.06471744179725647,0.2528745234012604,-0.1359865814447403,0.20104971528053284,0.16289636492729187,0.4331545829772949,-0.21552683413028717],[0.12051893770694733,0.21720637381076813,0.20868048071861267,0.19104330241680145,-0.3059189021587372,0.12395132333040237,0.033563364297151566,-0.058245234191417694,-0.2922807037830353],[0.062648706138134,-0.1196494773030281,0.06590650975704193,-0.18876560032367706,0.1051463857293129,-0.1218402087688446,0.2953338921070099,-0.13810884952545166,-0.251255065202713],[-0.2965277135372162,0.0499158650636673,-0.281878799200058,0.12838873267173767,0.25887876749038696,0.27568885684013367,0.312835156917572,-0.0034058967139571905,-0.004270770121365786],[0.27049553394317627,-0.29689517617225647,0.10016365349292755,0.21013981103897095,-0.23220868408679962,0.14967507123947144,-0.3676043152809143,0.02940676361322403,0.018276123329997063],[-0.19006094336509705,-0.10599762946367264,0.06771537661552429,0.21463412046432495,-0.07375823706388474,0.15082409977912903,0.09477129578590393,0.3018008768558502,-0.09970543533563614],[-0.4130003750324249,-0.24353617429733276,-0.233555406332016,0.13508225977420807,-0.1154208704829216,0.004107279237359762,0.546514093875885,-0.18418428301811218,0.11289668083190918],[0.1915166676044464,-0.2491348683834076,-0.26764994859695435,-0.27858173847198486,-0.019606010988354683,0.35023748874664307,-0.17206218838691711,0.04680708423256874,0.1618984192609787],[-0.13391771912574768,0.269876092672348,0.13601648807525635,0.1338804066181183,-0.2896025478839874,-0.18356654047966003,0.09692268818616867,-0.1529681533575058,0.24627704918384552],[0.08346462994813919,-0.08414982259273529,-0.16596576571464539,0.19954679906368256,-0.3241526186466217,0.18532007932662964,0.19141067564487457,0.17713233828544617,-0.09293413162231445],[0.14721029996871948,0.18154124915599823,-0.200186625123024,-0.08178647607564926,-0.21486632525920868,-0.05272957310080528,0.2373206615447998,0.38780125975608826,0.1335192769765854],[0.12567968666553497,-0.2629709839820862,0.018395762890577316,0.24896953999996185,-0.2377992570400238,-0.07573193311691284,-0.3744318187236786,0.1748439073562622,0.25103676319122314],[0.18264390528202057,0.008660790510475636,-0.11346746236085892,-0.09469527751207352,0.15524010360240936,-0.16858142614364624,-0.3665317893028259,0.07130350172519684,0.23898358643054962],[0.34702345728874207,0.2873207628726959,-0.15561586618423462,-0.3362087905406952,-0.10253766179084778,0.107787124812603,-0.12574806809425354,0.2250272035598755,-0.09954942017793655],[0.12616480886936188,0.23754537105560303,-0.3178427517414093,-0.23801176249980927,0.04584382101893425,-0.182440385222435,0.10645312815904617,0.17990031838417053,0.11566126346588135],[-0.31533417105674744,-0.050235457718372345,-0.2655729055404663,-0.051343582570552826,-0.06940113753080368,-0.18694710731506348,-0.09878583252429962,-0.11654383689165115,0.20391443371772766],[0.14249272644519806,-0.24093404412269592,0.054773032665252686,-0.18188223242759705,-0.3261817693710327,0.10151654481887817,-0.08346408605575562,-0.055923935025930405,0.16959932446479797],[0.1307627409696579,-0.0005300976918078959,-0.2285846769809723,-0.27790743112564087,-0.2730502784252167,0.3154647946357727,0.28068456053733826,-0.1285279244184494,-0.0376981757581234],[0.18355628848075867,0.009416436776518822,-0.23912380635738373,-0.14101353287696838,0.29880115389823914,-0.3148827850818634,-0.44082364439964294,-0.21932752430438995,-0.37782925367355347],[-0.2885775864124298,-0.13735540211200714,0.3197101652622223,0.03472910448908806,-0.3081725239753723,0.3140484392642975,0.024429459124803543,0.3430095613002777,-0.21120493113994598],[-0.04647878184914589,0.12085329741239548,0.2621177136898041,0.0014376387698575854,0.3332834839820862,0.01591607742011547,-0.1955602914094925,-0.03270243853330612,0.003235849319025874],[0.19467507302761078,0.003082898212596774,-0.08657386898994446,0.2599140405654907,-0.11687071621417999,0.1977960169315338,0.19201022386550903,0.14339059591293335,0.04526214674115181],[0.22186940908432007,-0.1193099245429039,-0.07852286845445633,0.31491631269454956,0.030796019360423088,-0.30660751461982727,-0.34326663613319397,0.28803718090057373,0.19014254212379456],[0.07984395325183868,0.34903520345687866,-0.18725398182868958,-0.3032355010509491,0.25710031390190125,-0.31108325719833374,-0.3587733209133148,-0.22172725200653076,-0.0651627629995346],[-0.026107074692845345,-0.11675288528203964,-0.12584644556045532,-0.27178770303726196,0.3669297397136688,-0.03444270044565201,0.27294597029685974,-0.3889622092247009,-0.11845625936985016],[-0.03865766152739525,0.00987215619534254,-0.23250225186347961,-0.23538631200790405,-0.18574702739715576,-0.20720379054546356,0.17841923236846924,0.1818779855966568,-0.14234738051891327],[0.27599650621414185,0.07575739175081253,0.12007343769073486,-0.09357848763465881,-0.14668211340904236,-0.3504463732242584,-0.4393938481807709,0.11934306472539902,0.06603819876909256],[-0.10661304742097855,-0.17025817930698395,-0.19182132184505463,-0.10893235355615616,0.0689716562628746,-0.24014711380004883,-0.26760271191596985,-0.0013650303008034825,0.3182659149169922],[0.21583455801010132,0.08312958478927612,-0.135419562458992,0.11081735044717789,0.20464104413986206,0.2650229334831238,0.22418691217899323,-0.11927669495344162,0.04920103773474693],[0.126680389046669,0.04510130733251572,-0.218247652053833,-0.1909683793783188,0.15042567253112793,0.08424954116344452,0.0777035802602768,0.3050312101840973,-0.054064780473709106],[-0.24981918931007385,-0.08380365371704102,-0.0513773113489151,-0.14269497990608215,0.10165439546108246,-0.2180938720703125,0.18061739206314087,-0.09251102060079575,0.2867337465286255],[0.2684076428413391,0.21711766719818115,-0.27818429470062256,0.2639743685722351,0.03632574528455734,-0.4053374230861664,-0.33652177453041077,-0.11329343914985657,-0.17246058583259583],[0.09598265588283539,0.14684730768203735,0.2992764115333557,-0.24926288425922394,-0.23827122151851654,0.2524584233760834,0.18795569241046906,0.1464667171239853,-0.1148422360420227],[-0.17838142812252045,0.2985607981681824,-0.32725581526756287,0.06920603662729263,-0.10050969570875168,0.2316417098045349,0.15187230706214905,-0.08864638954401016,0.3110511600971222],[-0.13883084058761597,0.22528138756752014,-0.11967304348945618,-0.2431974560022354,0.10547973215579987,-0.02590020000934601,0.051724378019571304,0.10119685530662537,-0.03424343466758728],[0.196394145488739,-0.23477156460285187,0.13282833993434906,0.11957987397909164,0.3789716362953186,-0.3458826243877411,0.09248534590005875,0.05947953835129738,-0.15911124646663666],[-0.2769223749637604,0.13171102106571198,0.1749265193939209,9.516681166132912e-05,0.184565469622612,-0.10278257727622986,0.33057641983032227,0.02101997658610344,-0.2508300542831421],[0.0014108438044786453,0.18983441591262817,0.21511514484882355,0.13470152020454407,0.08802879601716995,0.030267972499132156,0.3511846959590912,0.01522883027791977,0.18007543683052063],[0.001538608456030488,0.20054969191551208,-0.16925852000713348,0.055731043219566345,0.18865717947483063,-0.3604999780654907,-0.08347096294164658,-0.08577200770378113,-0.229329913854599],[-0.3010267913341522,0.2010025829076767,0.15828841924667358,-0.18062809109687805,-0.05174903944134712,-0.21379715204238892,0.14691929519176483,-0.254561185836792,0.26659542322158813],[0.23798835277557373,-0.01675155758857727,-0.2970674932003021,0.15456536412239075,0.21375024318695068,0.0674261748790741,0.02840496227145195,-0.3267662227153778,0.1131139025092125],[-0.061757273972034454,0.13849543035030365,0.10244712233543396,0.11184544116258621,0.20106737315654755,0.03735530376434326,0.2220517247915268,-0.008219555020332336,0.2558632493019104],[0.2411988377571106,-0.31095585227012634,0.2465396225452423,-0.12345273792743683,-0.34152740240097046,-0.2099778801202774,0.15716847777366638,0.2777876555919647,0.28422653675079346],[-0.1366937905550003,0.14236634969711304,-0.2581268846988678,-0.2341458648443222,0.2859344184398651,-0.12216579169034958,-0.03912074863910675,0.3832736313343048,0.027086542919278145],[0.15166980028152466,-0.08820123225450516,0.1763351410627365,0.12126834690570831,0.11513978242874146,-0.32590213418006897,0.0956650823354721,0.08623553067445755,0.1446317434310913],[0.3185359835624695,0.06293020397424698,0.19507543742656708,-0.24020586907863617,0.0014387361006811261,0.2116045504808426,-0.37298616766929626,-0.2150861769914627,0.34175920486450195],[-0.3104819357395172,-0.2723679840564728,-0.24323514103889465,0.1352282613515854,0.07304835319519043,-0.19304807484149933,0.029562463983893394,-0.2682042419910431,0.16420280933380127],[-0.24920642375946045,-0.16455961763858795,0.0006799701950512826,-0.16593796014785767,-0.14593009650707245,-0.2559507489204407,0.2398613840341568,0.03031298890709877,0.3503531217575073],[-0.1468593031167984,0.04158593341708183,-0.31104740500450134,-0.26736944913864136,-0.05563266575336456,0.0894172191619873,-0.13577838242053986,-0.07005809992551804,0.33806905150413513],[-0.2453235387802124,0.17754670977592468,-0.08176770061254501,0.26837700605392456,0.05803366005420685,-0.23298457264900208,0.22556498646736145,0.1254042536020279,0.19091273844242096],[-0.042195286601781845,-0.12925679981708527,-0.26725098490715027,-0.26364922523498535,-0.08868250250816345,0.020591266453266144,-0.34395259618759155,0.11565671116113663,0.135919451713562],[-0.3341647684574127,-0.1733447164297104,-0.2624730169773102,0.16627977788448334,0.15026944875717163,0.213032066822052,0.10691741108894348,0.126332625746727,-0.363334983587265],[0.0020374413579702377,-0.18007414042949677,0.19354106485843658,0.1959376484155655,-0.00017223486793227494,-0.2083328366279602,0.31076428294181824,0.19511298835277557,-0.255192369222641],[-0.33821550011634827,0.2935299873352051,-0.222999706864357,-0.24073484539985657,0.2533121407032013,0.03385663032531738,0.3412361443042755,0.2713150382041931,0.0057980515994131565],[-0.35065844655036926,0.014762728475034237,-0.04082723706960678,-0.04726189002394676,0.2533278465270996,0.08454645425081253,0.4157906472682953,-0.21090705692768097,0.32897526025772095],[-0.12560591101646423,-0.05878082290291786,0.06682606786489487,0.063877634704113,-0.3440212309360504,-0.1407621204853058,-0.1819501370191574,0.1614348143339157,-0.08839445561170578],[0.11732304096221924,0.07515966892242432,-0.10087604820728302,0.1377592533826828,0.11271234601736069,-0.027198132127523422,0.38253793120384216,0.40084308385849,-0.006814447231590748],[0.3264192044734955,0.02685491368174553,-0.2905292809009552,0.27914509177207947,-0.029553035274147987,-0.0008422931423410773,-0.29403746128082275,-0.016561834141612053,0.05693203583359718],[0.28610730171203613,0.05620792508125305,-0.18103080987930298,-0.17894908785820007,-0.12689122557640076,-0.19626279175281525,-0.35104358196258545,-0.11668272316455841,-0.1106707975268364],[-0.09519760310649872,0.03547025844454765,0.06472694873809814,-0.2975180447101593,0.30847710371017456,-0.2813263535499573,-0.24343174695968628,-0.16155044734477997,0.09904778003692627],[0.06976360082626343,0.14357084035873413,0.15886861085891724,-0.3228451609611511,-0.33844125270843506,0.029406912624835968,-0.37085092067718506,-0.20738492906093597,-0.0007248104084283113],[0.2227759063243866,-0.005046405829489231,0.308713436126709,-0.2378418743610382,-0.034645091742277145,0.07734555006027222,-0.2534278929233551,0.26791322231292725,0.24197548627853394],[-0.321833074092865,0.27797311544418335,-0.14216963946819305,0.019883953034877777,0.15953126549720764,-0.36122527718544006,0.04374273121356964,-0.26592501997947693,0.0188255924731493],[0.15154656767845154,0.08390484005212784,0.09827073663473129,0.09757711738348007,0.2822119891643524,0.04512573033571243,-0.015639275312423706,0.2778607904911041,-0.11597289890050888],[-0.2378845065832138,0.05816422775387764,0.14961358904838562,0.07126614451408386,-0.30437803268432617,-0.3232394754886627,0.141328826546669,0.07800174504518509,-0.35581159591674805],[0.2561093270778656,-0.14907966554164886,0.13400715589523315,0.21720388531684875,-0.30877387523651123,0.2880731523036957,-0.06806845963001251,0.11240063607692719,0.07222332060337067],[-0.21437722444534302,0.12715916335582733,0.3292023241519928,-0.27785611152648926,-0.2960239052772522,-0.10256656259298325,0.19959813356399536,-0.05662739649415016,-0.3617819547653198],[0.05703520402312279,-0.2516573369503021,-0.1824982464313507,0.10313952714204788,0.294148713350296,0.13502784073352814,0.23553955554962158,0.31074416637420654,-0.08512857556343079],[-0.24054965376853943,0.022009998559951782,0.21088755130767822,-0.2275013029575348,-0.056141447275877,-0.3504219353199005,0.11984894424676895,-0.19621863961219788,-0.11003176867961884],[0.2519659399986267,-0.11160016059875488,0.14039237797260284,0.07175125926733017,0.27095773816108704,0.030418962240219116,-0.31831082701683044,-0.10232289880514145,-0.036912474781274796],[0.289346307516098,0.3087957799434662,-0.08823342621326447,0.07498738169670105,-0.33806341886520386,0.2951880097389221,-0.21411775052547455,0.24636901915073395,0.2467467039823532],[-0.22751104831695557,-0.04672040417790413,0.13454872369766235,0.25976309180259705,-0.2879411578178406,-0.21319100260734558,-0.3149569630622864,-0.06525373458862305,-0.2047257423400879],[0.16318431496620178,0.04145408794283867,0.11193405836820602,0.22762612998485565,-0.3000267446041107,0.1588323414325714,0.14066511392593384,0.10104527324438095,-0.0740995779633522],[0.22945739328861237,0.1877724677324295,-0.3038640022277832,0.2885446548461914,0.10087747871875763,0.018696248531341553,0.06822820752859116,-0.0497891902923584,-0.0906827449798584],[0.2654695510864258,-0.10345040261745453,0.141278475522995,0.27534183859825134,0.23553405702114105,-0.08360575139522552,-0.32920581102371216,-0.01590574160218239,-0.23652362823486328],[0.08730637282133102,0.2775769829750061,-0.2094310075044632,-0.2369735836982727,-0.029144465923309326,0.02594483643770218,-0.28686603903770447,0.10898760706186295,0.3671238124370575],[-0.06009837985038757,0.11338844150304794,-0.2665039002895355,0.07041224837303162,-0.10337384790182114,0.32685351371765137,-0.01606748066842556,0.15627732872962952,-0.018858037889003754],[-0.09951309859752655,0.21751005947589874,-0.15253575146198273,0.13043156266212463,0.3360717296600342,0.0564827062189579,0.38808733224868774,0.21556684374809265,-0.2723608613014221],[0.10729671269655228,-0.3051137924194336,-0.15635226666927338,-0.05753878131508827,0.2051519751548767,0.0535343699157238,0.07235290110111237,0.20098468661308289,0.31911563873291016],[-0.20140759646892548,0.35648804903030396,0.07652653008699417,-0.2632657289505005,0.08948224037885666,-0.042969804257154465,0.29627254605293274,-0.4099524915218353,-0.2628834843635559],[0.20287343859672546,-0.12333684414625168,0.13957828283309937,0.297861784696579,-0.23695465922355652,0.25439560413360596,0.3375633656978607,0.1324516385793686,-0.19220681488513947],[-0.10333172231912613,0.18095168471336365,0.2794526219367981,0.30534663796424866,-0.2819782495498657,0.1708221584558487,0.16530312597751617,0.07251415401697159,-0.16778799891471863],[-0.13564078509807587,-0.15940256416797638,0.10420878231525421,-0.3205282688140869,-0.2602810859680176,-0.08630465716123581,-0.31858381628990173,0.15767133235931396,-0.1714070439338684],[-0.14264439046382904,-0.24239471554756165,0.2480842024087906,0.3061515986919403,0.0052938638255000114,0.12929968535900116,0.08456816524267197,-0.12944671511650085,0.1337970793247223],[-0.09961213916540146,-0.26573777198791504,0.0778937116265297,-0.010018531233072281,0.2027922123670578,-0.0054517169483006,-0.20460422337055206,-0.061452098190784454,0.1675858199596405],[-0.24969203770160675,-0.23194164037704468,-0.02276189811527729,-0.12688103318214417,-0.10840053111314774,-0.30021101236343384,-0.20505556464195251,-0.2044309675693512,0.23023296892642975],[-0.18398259580135345,-0.20495949685573578,0.22120040655136108,-0.303653359413147,0.14379510283470154,0.11473597586154938,-0.34549519419670105,-0.1855785846710205,0.048787835985422134],[-0.18903206288814545,-0.28348544239997864,-0.07141587883234024,0.13013799488544464,0.28761211037635803,-0.16795103251934052,-0.17531035840511322,0.16739872097969055,-0.13822536170482635],[0.2589235305786133,0.09381662309169769,0.09782754629850388,0.1389819085597992,0.010272673331201077,0.004863348323851824,0.011354546993970871,-0.05056018754839897,-0.23355144262313843],[-0.031858015805482864,0.28093457221984863,-0.13289090991020203,0.20198291540145874,0.2478872388601303,-0.09370644390583038,0.0955374613404274,0.2058429718017578,0.09202782809734344],[0.12568016350269318,0.3044922649860382,-0.21593019366264343,-0.04072146862745285,0.2527826130390167,-0.2949903607368469,0.010561001487076283,0.1501207947731018,0.11675816774368286],[0.054217513650655746,-0.29330265522003174,-0.2245587408542633,-0.05589846894145012,0.29351842403411865,-0.17866256833076477,-0.3025527000427246,-0.004014143720269203,0.019732074812054634],[0.27279970049858093,0.10405335575342178,0.2838345766067505,-0.3268279433250427,-0.17457996308803558,-0.2532738149166107,-0.12859299778938293,-0.0013783053727820516,0.11181923002004623],[-0.1102520003914833,-0.042405132204294205,-0.09350935369729996,0.29652902483940125,-0.14262890815734863,0.14862990379333496,-0.12853245437145233,0.10215160995721817,-0.09089606255292892],[0.25368115305900574,-0.055440038442611694,0.08369972556829453,0.0643773004412651,-0.13902345299720764,0.0784929171204567,0.0478275828063488,0.4000855088233948,0.16122938692569733],[-0.22375492751598358,0.32526230812072754,-0.08147303760051727,-0.2523435354232788,-0.057988107204437256,0.25127556920051575,-0.06601428240537643,0.10317792743444443,-0.0015950972447171807],[-0.12781207263469696,-0.2468852996826172,0.20415599644184113,0.345039039850235,-0.13705489039421082,-0.03602740541100502,0.06448037177324295,0.05659060552716255,-0.28724217414855957],[-0.20241659879684448,-0.25464528799057007,0.14784301817417145,0.267809122800827,-0.31698089838027954,0.07538166642189026,0.39459240436553955,0.3891332149505615,-0.3006038963794708],[-0.14077216386795044,0.2933328151702881,0.2731185555458069,0.20595352351665497,0.1430269181728363,-0.18955592811107635,0.1364670991897583,-0.016251320019364357,0.3243063688278198],[-0.029208173975348473,0.08022134751081467,0.02660740353167057,-0.27077722549438477,-0.19922171533107758,-0.31449735164642334,-0.03341474011540413,0.22266903519630432,0.10037023574113846],[0.19293254613876343,0.29736652970314026,-0.36510181427001953,0.2409897744655609,0.014808595180511475,0.26039209961891174,0.10819080471992493,-0.2268393337726593,-0.04832620173692703],[0.2776068449020386,0.19480997323989868,0.05461046099662781,0.08536802232265472,0.12610086798667908,0.1926826685667038,-0.05457772687077522,0.27076372504234314,-0.011510541662573814],[0.3398030698299408,-0.32118427753448486,0.2856035828590393,-0.29629138112068176,0.16440069675445557,-0.22407351434230804,-0.39707842469215393,-0.3158928155899048,0.10292084515094757],[0.11623954772949219,-0.17949500679969788,-0.240562304854393,0.24658483266830444,-0.07770059257745743,-0.24786332249641418,0.07069899886846542,-0.025546235963702202,0.04249013960361481],[-0.20083238184452057,-0.09681160002946854,0.26706230640411377,-0.23323342204093933,0.2658233344554901,-0.31960350275039673,0.005826757755130529,-0.007359163835644722,0.1420961618423462],[0.09836108982563019,-0.02247690223157406,-0.13793490827083588,0.3165155351161957,-0.31719449162483215,0.21126502752304077,0.2575628161430359,0.1297118216753006,0.05706266686320305],[-0.26063916087150574,0.0061996434815227985,0.18508489429950714,0.10076652467250824,0.16352787613868713,-0.13661952316761017,0.16092410683631897,0.140362948179245,0.21439778804779053],[-0.24026158452033997,0.06750833988189697,0.147099107503891,0.14334441721439362,0.18870994448661804,0.04598946124315262,0.1521114706993103,0.09372317790985107,-0.18369615077972412],[0.3531932234764099,0.17781013250350952,0.150198295712471,0.14161483943462372,0.22206014394760132,0.14443472027778625,-0.02130352519452572,-0.12431199848651886,-0.12658394873142242],[0.28354334831237793,-0.37090617418289185,0.1642259955406189,0.15743488073349,-0.2577616572380066,-0.041463807225227356,-0.21578633785247803,-0.2248171865940094,0.27003738284111023],[0.26480093598365784,0.12241331487894058,-0.03773687779903412,-0.10986896604299545,0.007901082746684551,0.16937367618083954,-0.3359808921813965,-0.30166885256767273,0.23071211576461792],[-0.29390808939933777,-0.14820797741413116,0.17981629073619843,-0.0707041546702385,0.3228921592235565,0.11003609746694565,0.059627655893564224,0.13314494490623474,0.04792952910065651],[-0.2147129327058792,-0.25730225443840027,-0.19096922874450684,0.10968170315027237,0.1879667490720749,-0.12409554421901703,-0.27238574624061584,0.2028038650751114,0.14321961998939514],[0.3097440302371979,0.22656448185443878,-0.053648896515369415,-0.226178377866745,0.08183318376541138,-0.25490134954452515,-0.0611003115773201,0.14420311152935028,0.2777828574180603],[-0.10833761096000671,-0.12277911603450775,0.3421308994293213,-0.2382211834192276,-0.12970981001853943,0.14939898252487183,-0.07276518642902374,-0.2771621644496918,0.052951015532016754],[0.07197970896959305,-0.04910419136285782,-0.16734440624713898,-0.19295363128185272,0.2019798308610916,-0.210427924990654,-0.13364364206790924,0.21831732988357544,-0.29469752311706543],[0.0374780148267746,0.3390120267868042,-0.19557082653045654,0.2791687846183777,-0.1774539202451706,-0.13730967044830322,-0.27732014656066895,-0.24785062670707703,-0.0014195911353453994]],"bias":[0.0813247412443161,-0.32103627920150757,0.15228548645973206,-0.0627310499548912,0.0636235922574997,-0.024103697389364243,-0.026861554011702538,-0.008872942999005318,0.005969230551272631,0.19902966916561127,0.08675520867109299,0.30785995721817017,-0.329777330160141,-0.031459178775548935,-0.03541579470038414,0.14152595400810242,-0.2710323631763458,-0.11802129447460175,0.2384134829044342,-0.08444024622440338,0.11351421475410461,0.3002691864967346,-0.2827702760696411,0.15870144963264465,-0.10270081460475922,0.09121625870466232,0.32307085394859314,-0.20617921650409698,-0.2209693193435669,-0.24706630408763885,0.18016530573368073,-0.2201164811849594,-0.15814563632011414,-0.1839911788702011,-0.08289368450641632,-0.28771018981933594,-0.011439833790063858,-0.012063547037541866,0.27660784125328064,-0.025912247598171234,-0.15284396708011627,0.020745599642395973,-0.3167685866355896,-0.11095833033323288,-0.023616984486579895,-0.147649347782135,-0.2766454219818115,-0.025508547201752663,0.18322423100471497,0.06712298840284348,-0.3033639192581177,0.05936233326792717,-0.2838885486125946,-0.14138822257518768,0.13763010501861572,-0.16172367334365845,-0.15246763825416565,-0.10982507467269897,0.16395194828510284,0.20228211581707,-0.009412262588739395,-0.09671853482723236,-0.026789309456944466,0.09261620044708252,-0.021752720698714256,0.10029958933591843,0.03190471976995468,-0.030875075608491898,0.004893086384981871,-0.16071999073028564,0.10565511137247086,-0.0552901029586792,-0.23586934804916382,0.011897251941263676,-0.07617441564798355,0.0698280930519104,-0.19677504897117615,-0.06855832785367966,0.26136142015457153,0.23927545547485352,-0.18872979283332825,-0.18384072184562683,-0.22160547971725464,0.2320011854171753,0.05344630405306816,0.1705729067325592,0.015791451558470726,0.09420762211084366,0.040116459131240845,-0.11968044936656952,0.25980496406555176,-0.08748099952936172,-0.0791858360171318,0.1267918050289154,-0.18717291951179504,0.16961660981178284,0.057027675211429596,0.28856492042541504,-0.23498697578907013,-0.22456100583076477,-0.06166533753275871,0.30030643939971924,0.2460297793149948,-0.23908574879169464,-0.08582767844200134,-0.09324133396148682,-0.043128833174705505,-0.14307746291160583,-0.11150465905666351,0.29546114802360535,0.19393715262413025,0.09527653455734253,0.13540813326835632,0.035321254283189774,0.1687212437391281,-0.0825502872467041,0.0942971333861351,-0.019846193492412567,0.13893049955368042,0.08998594433069229,0.06504656374454498,-0.23484991490840912,0.16365492343902588,0.23823493719100952,0.2949043810367584,-0.29953691363334656,-0.15968388319015503,0.280821830034256],"activation":"tanh"},"backbone2":{"weight":[[0.08488912880420685,0.0874335989356041,-0.04324959218502045,0.08167494833469391,-0.03319374471902847,-0.00771096907556057,-0.005308163817971945,-0.07575210928916931,0.04271184653043747,-0.0017500401008874178,-0.029270101338624954,-0.0030151535756886005,0.07754553109407425,-0.04431714117527008,-0.06401622295379639,0.08594144880771637,0.04498472064733505,-0.09371339529752731,-0.07612202316522598,-0.062491364777088165,0.010135666467249393,0.05023089423775673,-0.006190970074385405,-0.032506924122571945,-0.01487287599593401,0.07166258990764618,-0.0765647143125534,0.012058344669640064,-0.04317142069339752,0.02837451919913292,-0.06079285219311714,0.06684082746505737,0.01832425408065319,0.04887545481324196,0.001786779030226171,0.03942069411277771,0.002250667428597808,0.09072245657444,0.017156606540083885,0.043189357966184616,-0.057477064430713654,-0.06063956394791603,-0.04559909179806709,-0.09651263058185577,-0.09328986704349518,-0.05596081539988518,0.0849297046661377,0.07132919132709503,0.07203660905361176,0.04837413877248764,0.02545750141143799,0.0023048098664730787,0.004412238486111164,-0.03448966145515442,-0.04181760177016258,-0.04825197905302048,0.005935560446232557,-0.06729637831449509,-0.1308770626783371,-0.03101813979446888,0.03206990286707878,-0.04022062569856644,0.023876463994383812,0.018975894898176193,-0.1108456626534462,-0.09493698924779892,-0.005968368146568537,-0.12338973581790924,0.007674803491681814,0.10451751947402954,0.10940002650022507,0.07336752116680145,-0.011614273302257061,0.03615669533610344,-0.05834714323282242,0.01640198938548565,-0.00438540056347847,-0.04066580533981323,-0.07791166752576828,-0.06438296288251877,0.13543711602687836,-0.04312049597501755,-0.053130123764276505,0.022371044382452965,0.0723218247294426,-0.02016577124595642,0.05914458632469177,-0.02563645876944065,-0.043245457112789154,-0.017735345289111137,-0.01305629126727581,0.038996968418359756,0.002043565269559622,0.04777590185403824,-0.01664174348115921,0.10595926642417908,0.045315515249967575,-0.0035375510342419147,-0.03136276826262474,0.02427767403423786,0.024999529123306274,0.05795203894376755,0.11316653341054916,0.00291181867942214,-0.03982839360833168,-0.09470757097005844,-0.034175802022218704,0.029536215588450432,0.043033286929130554,-0.0389980785548687,0.03717933967709541,-0.025728382170200348,-0.04963041469454765,-0.0008485786966048181,0.01187303476035595,0.06107243895530701,-0.01909206435084343,-0.00034197495551779866,-0.061543650925159454,0.03330019861459732,0.09733046591281891,0.04820013418793678,0.039393678307533264,0.03696348890662193,-0.015598970465362072,-0.05938989296555519,-0.022043542936444283,0.048133399337530136],[-0.02728695422410965,0.035796090960502625,-0.023627914488315582,-0.08505929261445999,0.014702009037137032,-0.022570617496967316,0.03129514679312706,-0.018355093896389008,-0.07784093916416168,-0.001993650570511818,0.07203361392021179,0.04882658272981644,0.01833592727780342,-0.0003954922722186893,0.045534420758485794,-0.04133101925253868,0.08701552450656891,0.08022595942020416,0.041357386857271194,0.040840961039066315,-0.020944559946656227,-0.08092446625232697,0.046892665326595306,-0.008078070357441902,-0.09550213068723679,-0.05051973834633827,0.06033020094037056,0.06203942373394966,0.04307326301932335,0.07452470809221268,-0.0434335321187973,0.12553371489048004,-0.06352070719003677,-0.028486689552664757,-0.06026243418455124,0.04117057844996452,-0.0586693100631237,0.014418727718293667,-0.030934374779462814,0.054290782660245895,-0.06748397648334503,0.06640376150608063,-0.07699164003133774,-0.07083902508020401,0.03138725087046623,0.06518694013357162,0.07321678847074509,0.053902581334114075,-0.04171796143054962,-0.019936930388212204,-0.05623161792755127,-0.015455543994903564,0.0787840336561203,-0.053320128470659256,0.06765726953744888,0.06598499417304993,0.0382809154689312,-0.004432439338415861,-0.05008143559098244,0.045170873403549194,0.05371161177754402,-0.01645766571164131,0.006773877888917923,0.08360031992197037,0.07372234016656876,0.06476044654846191,-0.08714612573385239,-0.06180901452898979,0.0026941425167024136,-0.04016081616282463,0.07805729657411575,-0.06079195439815521,0.06829476356506348,-0.052435144782066345,-0.06614410132169724,-0.08250553160905838,-0.10441722720861435,0.09250980615615845,-0.09309148043394089,-0.03234684839844704,0.07886241376399994,-0.05052332952618599,0.004086040426045656,0.060814786702394485,-0.10621094703674316,-0.0032898408826440573,-0.0018175112782046199,0.0018163739005103707,0.08822031319141388,-0.057082898914813995,0.05520603805780411,0.01704559288918972,0.0024556173011660576,0.040303245186805725,0.008600717410445213,0.06652138382196426,0.08896556496620178,0.023667704313993454,0.028107203543186188,0.019461575895547867,0.07029597461223602,-0.053157590329647064,0.052425358444452286,-0.02140273153781891,-0.07866328209638596,-0.03450724482536316,-0.039882443845272064,0.04430583119392395,-0.071175217628479,-0.025558609515428543,0.051944565027952194,-0.05263302102684975,0.01591993309557438,-0.03728353604674339,0.05305027216672897,-0.030131060630083084,0.040971800684928894,0.10727126151323318,-0.0039106616750359535,0.0031100527849048376,-0.07983168959617615,0.064273402094841,-0.025665782392024994,0.06974472105503082,-0.08299925923347473,0.0748678669333458,-0.056817129254341125,-0.078275665640831],[0.024946538731455803,0.028539909049868584,0.06565412878990173,-0.03163376823067665,0.019104357808828354,0.020600752905011177,0.09162279963493347,-0.03259218856692314,-0.06428465992212296,-0.02999497577548027,-0.07634538412094116,0.05316716060042381,-0.012125885114073753,-0.039837613701820374,-0.06298400461673737,-0.07231239974498749,-0.03309989720582962,-0.008417255245149136,0.06253338605165482,-0.07961876690387726,-0.05503886565566063,-0.03693300113081932,-0.037260282784700394,-0.029689116403460503,-0.07245106250047684,0.04461454600095749,-0.07004383951425552,0.031159650534391403,-0.044572435319423676,0.05391356721520424,-0.07489074766635895,0.035968076437711716,-0.06581901758909225,-0.05348765477538109,0.060538917779922485,-0.07105204463005066,-0.004319109953939915,-0.016372930258512497,0.041688501834869385,0.029822655022144318,-0.018900852650403976,0.04572870209813118,0.056078825145959854,0.0536862351000309,0.013134320266544819,-0.04941040277481079,-0.05905197560787201,0.05950510874390602,0.07808271050453186,0.06926768273115158,0.06965725123882294,0.06004076451063156,0.05691508576273918,0.00023801575298421085,0.039473630487918854,0.10099654644727707,0.04727641120553017,-0.035823576152324677,0.014046497642993927,-0.015177195891737938,-0.08133701235055923,0.047751788049936295,-0.03784247115254402,-0.08750477433204651,-0.08943241834640503,0.000349286274285987,0.07198497653007507,0.04083815962076187,0.06610624492168427,0.08439699560403824,0.09014865756034851,0.09213927388191223,0.008459826931357384,0.0815822035074234,-0.0664195716381073,0.011774490587413311,-0.09478472173213959,-0.022545771673321724,0.04597730189561844,0.06933773308992386,0.06059198081493378,0.015916557982563972,0.0896863266825676,-0.009565029293298721,-0.09209331125020981,-0.03442900627851486,0.020364239811897278,-0.07152600586414337,0.004158135037869215,0.007771541364490986,-0.05477123335003853,0.030198397114872932,-0.08047493547201157,0.03870141878724098,-0.05069258064031601,0.029690615832805634,0.028576061129570007,0.1285993903875351,-0.07382987439632416,0.08306047320365906,-0.06478926539421082,0.001264694263227284,0.020884394645690918,0.10547587275505066,-0.01551093626767397,-0.026629026979207993,-0.008427906781435013,0.015835657715797424,-0.13219185173511505,-0.0024606790393590927,-0.04770578071475029,-0.026466310024261475,-0.06808970123529434,0.08395419269800186,-0.08795882016420364,-0.03421957790851593,-0.09991157799959183,0.00411553680896759,-0.0026381653733551502,-0.02760564722120762,-0.048979587852954865,-0.01898779720067978,0.01731826551258564,-0.05526509881019592,0.03397279605269432,-0.05442507937550545,0.058272551745176315,0.06099354103207588],[-0.009371974505484104,-0.015127105638384819,0.0830187126994133,-0.05786089226603508,-0.057127777487039566,-0.0675245001912117,0.004886325914412737,0.04828653484582901,0.04038672149181366,-0.03735742345452309,-0.08605659008026123,-0.022235017269849777,-0.10789251327514648,-0.038008660078048706,0.021615073084831238,-0.0698542669415474,0.08884622156620026,-0.06307759135961533,-0.04280132055282593,0.07602294534444809,-0.02959926798939705,-0.09719173610210419,-0.08280758559703827,-0.10220780968666077,-0.027960605919361115,-0.04395730048418045,-0.05220210552215576,-0.018674541264772415,0.011865576729178429,-0.03687562420964241,-0.05640275031328201,0.06880370527505875,-0.015085102058947086,-0.10494203120470047,-0.044556625187397,0.04191453754901886,-0.02041984535753727,0.0004513780295383185,0.0622577928006649,-0.043940696865320206,-0.015387685969471931,-0.026832865551114082,0.01744571141898632,0.07004769891500473,-0.03258872032165527,0.058303914964199066,0.01248706690967083,0.08631574362516403,0.08557078242301941,-0.03246563300490379,0.10422239452600479,0.054205525666475296,-0.014657712541520596,0.06174737215042114,-0.040366753935813904,0.08740375936031342,0.003457367653027177,0.02561146952211857,0.03937889263033867,-0.05226470157504082,0.02140345796942711,-0.07132259011268616,-0.009132487699389458,0.08177495002746582,0.08252919465303421,0.03921186551451683,-0.05349335819482803,-0.07565691322088242,0.022545551881194115,0.0421537421643734,0.047000035643577576,-0.023881157860159874,-0.07484300434589386,0.0014722327468916774,-0.06529700011014938,-0.05725608766078949,-0.10972543805837631,0.09603613615036011,0.059512075036764145,-0.010777664370834827,0.01025465689599514,-0.0799829289317131,0.028832312673330307,-0.04870607331395149,-0.07453001290559769,0.0304271150380373,0.04968785122036934,-0.06965699791908264,0.06922856718301773,-0.04895521700382233,0.01672368124127388,0.07085062563419342,0.0009743368136696517,0.02136923186480999,-0.014907059259712696,0.10620987415313721,0.03621687367558479,-0.04075520858168602,0.09231610596179962,0.0019004401983693242,0.05067502707242966,0.04738922789692879,-0.08691424876451492,0.02416965551674366,0.060995277017354965,-0.023098988458514214,0.0253006424754858,-0.021355051547288895,0.10068505257368088,-0.05240802466869354,0.029662949964404106,-0.06728771328926086,-0.010628887452185154,-0.10101999342441559,-0.03149387612938881,0.0787929967045784,-0.07669582962989807,0.05725250765681267,-0.05249188840389252,-0.02996288426220417,-0.0025739711709320545,-0.09677856415510178,0.034878604114055634,0.00912065152078867,-0.0037067653611302376,0.013153371401131153,0.013536586426198483,0.02998470515012741],[0.039529114961624146,0.08721363544464111,0.034955527633428574,0.02008994109928608,0.06308581680059433,0.02009432204067707,-0.06380580365657806,0.03137815371155739,0.008050862699747086,-0.030100248754024506,0.08818886429071426,-0.059847161173820496,-0.026871206238865852,-0.03469352051615715,0.04333600774407387,-0.0480339415371418,0.07473959773778915,-0.05803879350423813,0.09003398567438126,-0.06104239076375961,0.09125965088605881,-0.06233130395412445,0.013093730434775352,-0.0032031983137130737,0.0708276629447937,-0.022041920572519302,0.051132213324308395,0.07332161068916321,-0.034621644765138626,-0.0871322751045227,0.05345842242240906,0.07073134183883667,-0.009731889702379704,0.05340585857629776,0.044997718185186386,-0.0695643275976181,0.07082922756671906,0.050896625965833664,-0.024094147607684135,0.08433803170919418,-0.07789190858602524,-0.03605194389820099,-0.028613559901714325,0.04496597871184349,0.05959198251366615,-0.06848780065774918,0.032618630677461624,-0.01401623897254467,0.0007814393611624837,-0.04970323294401169,-0.04813350737094879,-0.025259053334593773,-0.013568212278187275,-0.05553596839308739,0.0149839511141181,-0.002819197252392769,0.015204408206045628,0.04368143901228905,-0.08984240889549255,-0.06158415228128433,-0.005965151358395815,0.06686137616634369,-0.03142530843615532,0.06079189479351044,-0.045073553919792175,-0.024059534072875977,0.07223936915397644,-0.07373668253421783,-0.08196141570806503,-0.019214551895856857,0.04314339533448219,0.10631639510393143,-0.056808363646268845,0.013381128199398518,-0.02753569185733795,0.041091617196798325,0.04848194122314453,0.02428310178220272,-0.02626924030482769,-0.06916622817516327,-0.025450389832258224,0.08254918456077576,-0.01742732897400856,0.037977587431669235,0.08664728701114655,0.07254449278116226,-0.043286606669425964,0.07880963385105133,-0.023204201832413673,-0.06956930458545685,0.02004702389240265,-0.09058036655187607,-0.04597914591431618,0.04479358717799187,-0.07921137660741806,-0.025485536083579063,-0.03496885299682617,-0.07894603908061981,-0.022341178730130196,-0.075992152094841,-0.048082392662763596,0.08445408195257187,-0.08651694655418396,-0.037836525589227676,0.0692799836397171,-0.06393937021493912,-0.06084449216723442,-0.042259372770786285,0.0044355206191539764,0.0664939433336258,-0.0025160438381135464,-0.06386209279298782,-0.05034792050719261,-0.11769326776266098,-0.09112107008695602,-0.016792748123407364,-0.0768001601099968,-0.06461795419454575,-0.06243161857128143,-0.035282768309116364,-0.061980944126844406,0.07746553421020508,0.048009391874074936,0.051306188106536865,-0.01853581890463829,0.037536073476076126,-0.005521642509847879,-0.008550839498639107],[0.07110214233398438,-0.056463561952114105,-0.061500128358602524,-0.05153081193566322,0.05721428990364075,0.026176942512392998,0.030165687203407288,0.005505937151610851,-0.04749511554837227,-0.052694544196128845,-0.0344562828540802,0.04495697841048241,0.007536233402788639,-0.06539031863212585,-0.02644224651157856,-0.01568288914859295,0.062201227992773056,0.0919642373919487,0.10781219601631165,0.005216033197939396,0.015854060649871826,0.007541838567703962,-0.028877461329102516,-0.1080661341547966,0.08118709921836853,0.0017723517958074808,-0.04603941738605499,-0.05813172459602356,-0.012822824530303478,0.013640807010233402,0.0801185742020607,-0.06341124325990677,-0.042919646948575974,-0.06640579551458359,-0.03105497919023037,-0.04776248708367348,-0.03304584324359894,-0.07193108648061752,-0.04752851277589798,-0.006392549257725477,-0.03154703602194786,-0.014298489317297935,0.0558079294860363,-0.06747576594352722,0.1499340832233429,-0.07154620438814163,-0.0554545596241951,0.029021939262747765,0.001407017931342125,0.0004696125106420368,-0.025838976725935936,-0.008469794876873493,0.009287158958613873,0.0767669528722763,0.07295617461204529,-0.05691728740930557,0.006666384171694517,0.08512837439775467,-0.034624215215444565,-0.015024677850306034,0.0234560314565897,-0.07139404863119125,0.01539253257215023,0.03704381734132767,0.031732235103845596,0.04844079911708832,-0.017066441476345062,0.069310761988163,0.056452035903930664,0.03299508988857269,0.03730591759085655,-0.0557691715657711,-0.016540220007300377,-0.02209736965596676,-0.03909885883331299,0.0751468613743782,-0.016812261193990707,-0.07306870818138123,0.05639271438121796,0.015115300193428993,-0.11927860230207443,-0.0017941332189366221,-0.02701306715607643,-0.00784129835665226,0.010221834294497967,-0.0268586166203022,-0.051796410232782364,-0.044974520802497864,0.04430770128965378,-0.0760752335190773,0.06585129350423813,-0.0651158019900322,0.027631709352135658,-0.006795246619731188,-0.05953066423535347,-0.09996131807565689,0.049801893532276154,-0.05942171812057495,0.031948089599609375,0.05497213825583458,-0.034603606909513474,0.007617693394422531,-0.009752781130373478,-0.04707120358943939,0.08223652839660645,0.08269385248422623,0.09143748134374619,0.018896855413913727,0.07755076140165329,0.012248668819665909,0.03817782923579216,-0.01915433630347252,-0.060995910316705704,-0.07548931986093521,-0.0122295543551445,-0.029079493135213852,0.009406834840774536,-0.07557869702577591,0.015084645710885525,0.07414870709180832,-0.06958861649036407,0.001436939463019371,-0.05005678907036781,0.009789050556719303,0.03693433851003647,0.08705935627222061,0.032563019543886185,-0.061265598982572556],[-0.05574529990553856,0.04588158801198006,-0.001142870751209557,0.011667442508041859,-0.07117035239934921,0.007681252434849739,-0.026274804025888443,0.03482661023736,-0.10081785172224045,0.039767321199178696,0.0634525790810585,0.04408000782132149,0.06204087659716606,0.07679634541273117,-0.062036581337451935,0.03976316750049591,0.08098898828029633,-0.03364807367324829,-0.0025617664214223623,-0.025275040417909622,-0.01808755472302437,0.01044925581663847,-0.05003849044442177,-0.04954906553030014,-0.0626085177063942,-0.06402339786291122,-0.08149218559265137,-0.058074064552783966,-0.016554104164242744,0.07982654124498367,-0.0013841382460668683,0.12333504855632782,-0.045435596257448196,0.07976922392845154,0.03342767432332039,-0.026777824386954308,-0.07904975861310959,0.05009014904499054,0.05047067627310753,-0.05815265327692032,-0.02253585495054722,-0.0281313918530941,-0.08758633583784103,-0.012224853038787842,-0.11732155829668045,-0.006632352713495493,0.11580442637205124,0.099994957447052,-0.06145792081952095,0.000464296608697623,0.0640474185347557,-0.036471471190452576,-0.010281985625624657,-0.07918332517147064,0.06992276012897491,0.12242928892374039,0.021994341164827347,0.05770709365606308,0.04917167127132416,-0.09815564006567001,-0.007729517295956612,0.08647619932889938,0.032570891082286835,0.07083437591791153,-0.010956636629998684,0.03702845424413681,-0.009836457669734955,-0.01968017779290676,0.009267676621675491,-0.018083658069372177,0.047911226749420166,-0.032947614789009094,0.07814657688140869,-0.009273937903344631,0.08495064079761505,-0.02087843418121338,-0.008327004499733448,-0.015777990221977234,-0.0821150466799736,-0.0337105430662632,-0.004462393932044506,0.03687568008899689,-0.07427535951137543,0.05001763254404068,0.02605169266462326,-0.024620667099952698,-0.09751677513122559,0.016574308276176453,-0.02879714034497738,0.0994277074933052,0.03706822916865349,-0.036241497844457626,-0.005140170454978943,0.02203313447535038,0.0971539244055748,0.09676828980445862,-0.028104428201913834,0.11109836399555206,-0.04424373060464859,-0.05401838570833206,-0.023390386253595352,0.05224740505218506,0.05868431180715561,0.07484609633684158,-0.10245364904403687,-0.06046032905578613,0.03786586970090866,-0.028876177966594696,0.036527134478092194,-0.0587017796933651,-0.060423921793699265,-0.005995229352265596,-0.05560871213674545,0.058134131133556366,-0.06833275407552719,0.06057227775454521,-0.008816626854240894,0.11029336601495743,0.015673337504267693,0.009911485016345978,0.04431319609284401,-0.07792972773313522,0.07744866609573364,-0.08286400139331818,-0.04174239933490753,-0.005938262213021517,0.04730683192610741,-0.04970933869481087],[0.015227554365992546,0.019549451768398285,-0.038104601204395294,-0.06811404973268509,0.007548076566308737,-0.07284042984247208,-0.036035891622304916,-0.03503122553229332,-0.04147810488939285,-0.06049752235412598,-0.14797647297382355,0.08393934369087219,0.012937860563397408,-0.020542748272418976,0.08534984290599823,0.015621701255440712,-0.04313990846276283,0.1269305944442749,-0.058177631348371506,-0.06972747296094894,-0.08942670375108719,0.06873701512813568,-0.06624604016542435,-0.12112109363079071,-0.07297337800264359,0.05817154422402382,0.0522608645260334,-0.08327154070138931,-0.01862848550081253,0.09736517071723938,-0.0287906676530838,0.04228350520133972,0.060039013624191284,0.04187721386551857,-0.037856172770261765,-0.012556218542158604,0.04726804420351982,-0.08391349762678146,-0.008536833338439465,0.05759231746196747,0.0675719603896141,0.010426650755107403,0.016318446025252342,0.06840018182992935,0.11549737304449081,0.05776473507285118,0.05477416515350342,-0.06814727932214737,0.01269004587084055,-0.05572749674320221,0.08129574358463287,-0.0698358342051506,0.048327285796403885,0.01809115894138813,-0.038496240973472595,0.09180153906345367,-0.005904737859964371,0.009551388211548328,0.10061866790056229,0.04825769364833832,0.10683483630418777,-0.07976291328668594,0.0744594857096672,0.08262057602405548,0.0611790269613266,0.12002971768379211,0.05012403056025505,0.0078082517720758915,-0.019279563799500465,0.04376121610403061,0.018510768190026283,0.01157575473189354,-0.06006593257188797,-0.07066726684570312,0.07639778405427933,-0.019941382110118866,-0.029207343235611916,0.01448885165154934,-0.047733910381793976,-0.022057393565773964,-0.10606352239847183,0.023326460272073746,0.05098189413547516,0.02460237219929695,-0.07392697781324387,-0.054103486239910126,0.011231822893023491,-0.056003767997026443,-0.014496706426143646,0.0028406933415681124,0.11085930466651917,0.03915790840983391,-0.04069586843252182,0.07767319679260254,-0.039272040128707886,-0.03594217449426651,0.04026993736624718,-0.10836789011955261,-0.05552231892943382,0.01272311620414257,0.0751459151506424,-0.0034720569383352995,0.013845625333487988,0.021546978503465652,-0.06241242587566376,0.07685569673776627,-0.07637687027454376,0.026025449857115746,-0.07947655767202377,0.07642915099859238,-0.09285100549459457,-0.01628495380282402,-0.08914456516504288,-0.040159329771995544,0.051485370844602585,-0.06400249898433685,-0.03902739658951759,0.062412530183792114,0.02265344187617302,-0.030069351196289062,-0.029499975964426994,-0.0984831303358078,-0.07558947801589966,0.012135248631238937,0.02204986847937107,0.02805912308394909,-0.01258703600615263,-0.07385396212339401],[-0.0126936761662364,0.06854420900344849,-0.02325543388724327,0.07551240921020508,0.024428024888038635,0.053955815732479095,-0.011998706497251987,0.04138145595788956,-0.03723759576678276,0.06291865557432175,0.08008954674005508,0.031873077154159546,-0.0030810388270765543,-0.047154467552900314,-0.1164361983537674,-0.011594299226999283,-0.10325110703706741,-0.06880081444978714,0.054164111614227295,-0.06567012518644333,0.008848886936903,-0.05058031901717186,0.0345926508307457,0.041863813996315,0.004988782107830048,0.013403809629380703,-0.07706234604120255,-0.033411283046007156,0.028880175203084946,0.07033835351467133,-0.005360088311135769,0.08912508189678192,-0.03885611891746521,0.04606735333800316,0.045402683317661285,0.021402548998594284,-0.07848476618528366,0.011839562095701694,0.03672238066792488,0.02925555780529976,-0.010097082704305649,2.5185760023305193e-05,0.026274090632796288,0.019807590171694756,0.027547918260097504,-0.069254569709301,-0.06975264102220535,-0.056390222162008286,-0.008519085124135017,-0.05142143368721008,-0.053057923913002014,0.09530241042375565,-0.0024233702570199966,0.03427944332361221,-0.042359162122011185,0.08643006533384323,-0.0503474622964859,0.05889814347028732,-0.11030491441488266,-0.03783811628818512,0.03590630739927292,-0.08064566552639008,-0.02052626572549343,0.0467967614531517,-0.01654818095266819,-0.00997534953057766,-0.0020966576412320137,-0.0734536275267601,0.018315156921744347,0.06449005752801895,0.03541422262787819,-0.0095395278185606,0.028618084266781807,-0.049612779170274734,0.036700308322906494,-0.05371986702084541,-0.06150580197572708,-0.0336952731013298,0.025662550702691078,-0.026293450966477394,0.09009062498807907,-0.05445355549454689,-0.07107007503509521,0.006147624459117651,-0.06585255265235901,-0.009167101234197617,-0.08514875918626785,0.04554072394967079,-0.019548458978533745,-0.05403584986925125,-0.06539536267518997,-0.0305566918104887,0.057799097150564194,0.013884681276977062,0.007670014631003141,-0.05712811276316643,0.053682778030633926,0.015096548944711685,0.032137010246515274,-0.05175960808992386,-0.042143117636442184,0.007013811729848385,0.012006805278360844,0.10703320801258087,-0.09891334176063538,0.08741173148155212,0.06441552937030792,0.06798538565635681,-0.08940913528203964,0.06751865893602371,0.0005397099885158241,-0.052259571850299835,-0.05649976432323456,0.0034465754870325327,-0.09119339287281036,0.028268100693821907,0.04532743617892265,-0.009998563677072525,0.0812644436955452,-0.06916578114032745,0.045876793563365936,-0.00801566056907177,-0.09044063091278076,-0.021201971918344498,-0.027319222688674927,0.03896461799740791,0.07791495323181152,-0.04358953982591629],[-0.023956770077347755,-0.07829592376947403,0.05223099887371063,-0.10012391209602356,0.08337308466434479,0.00621933164075017,-0.1360371857881546,-0.0754236951470375,0.08110149949789047,0.08453133702278137,0.06834875792264938,0.07867690920829773,-0.07014397531747818,-0.14706246554851532,0.03894442319869995,0.15581345558166504,-0.05065061151981354,0.03759255260229111,0.17364321649074554,-0.09007058292627335,0.08694357424974442,0.11106571555137634,-0.07180910557508469,0.0990910455584526,0.058355581015348434,0.08449772000312805,0.04316961392760277,-0.012510646134614944,-0.027952563017606735,-0.010678321123123169,0.1918664574623108,-0.0731123760342598,0.048731494694948196,-0.015000450424849987,-0.20656441152095795,-0.04993458092212677,-0.031216520816087723,0.047868214547634125,0.12712052464485168,-0.019679639488458633,-0.03422392159700394,0.007706985808908939,-0.0491587370634079,-0.02980365976691246,-0.02586851641535759,-0.06732164323329926,-0.13678516447544098,-0.09234552085399628,-0.04938865080475807,0.013008787296712399,-0.1643679440021515,0.04595104232430458,-0.03017307072877884,0.06057203561067581,0.0641985535621643,-0.14527180790901184,-0.05504348501563072,-0.032625019550323486,0.039773233234882355,0.06416947394609451,-0.007647923193871975,0.012271121144294739,-0.039275944232940674,0.056895725429058075,-0.0908430963754654,0.04700696840882301,-0.007175683509558439,0.10182219743728638,0.13669708371162415,-0.07907146215438843,-0.1398412436246872,-0.04453892260789871,-0.03195299208164215,-0.14639143645763397,-0.03320106863975525,-0.07014515995979309,0.1862906664609909,-0.07332389056682587,0.17764179408550262,0.010035751387476921,-0.07290101796388626,0.19023486971855164,0.00980030745267868,0.013493050821125507,0.02008148841559887,-0.049335334450006485,0.05127257481217384,0.08292660862207413,0.05195112153887749,0.06842868030071259,0.023618170991539955,0.12989701330661774,0.06431613117456436,0.057440515607595444,-0.0633745789527893,-0.05728530511260033,-0.10914983600378036,-0.011821734718978405,-0.11694835126399994,-0.1003117486834526,0.04299979656934738,0.028647804632782936,0.07968388497829437,-0.18146465718746185,0.10278996080160141,0.15112543106079102,0.06573989987373352,-0.05423574522137642,0.1271059513092041,0.04071475937962532,0.03752657026052475,0.0997360497713089,0.004235279746353626,-0.04734328016638756,0.027185220271348953,-0.09516601264476776,0.21606197953224182,0.0029947315342724323,0.06489365547895432,0.06610924005508423,-0.017290620133280754,-0.053415048867464066,-0.06840881705284119,0.1309862583875656,0.10901632159948349,-0.06657540798187256,-0.01383170671761036,0.10256531834602356],[-0.04598713666200638,-0.050365716218948364,0.03614102676510811,-0.007910620421171188,0.0009663482778705657,0.03929462656378746,0.05550362914800644,0.02421487122774124,0.03353071212768555,0.08775846660137177,0.030330464243888855,0.08846242725849152,0.01591198518872261,0.06336656957864761,-0.0931379497051239,0.015529012307524681,-0.03652678430080414,0.00048263536882586777,0.10357135534286499,-0.004396236035972834,0.051103007048368454,0.009585432708263397,0.0356254018843174,-0.0780886858701706,0.01836659386754036,-0.06507176905870438,-0.01447988860309124,-0.00674388138577342,0.021815048530697823,0.057857077568769455,-0.014950546436011791,0.038029808551073074,0.06088068708777428,-0.08207381516695023,-0.04640038311481476,-0.07899259775876999,-0.04950647056102753,-0.013255476951599121,0.05737456679344177,-0.09922429174184799,-0.056618817150592804,-0.01236048899590969,0.10695002228021622,0.013234950602054596,-0.023251881822943687,-0.06427517533302307,0.043878745287656784,-0.02343139983713627,0.06069118157029152,-0.02525399439036846,0.0396546944975853,-0.014188902452588081,-0.00040219849324785173,-0.00598097313195467,0.021316880360245705,0.03139500319957733,0.055091239511966705,-0.055550482124090195,0.03727467730641365,-0.00302436132915318,0.030282123014330864,-0.06402941793203354,0.07315151393413544,0.02675510197877884,0.020866820588707924,-0.02382434532046318,0.04123362526297569,-0.004485191311687231,0.0792345479130745,0.0659785270690918,0.04574509337544441,0.09502322971820831,0.01776091381907463,0.009586915373802185,0.04861418902873993,-0.07779759168624878,0.022356323897838593,-0.024504447355866432,0.06844902783632278,0.057898178696632385,-0.044072676450014114,0.04796985164284706,0.06671494990587234,-0.020301710814237595,0.0860811397433281,-0.012543674558401108,-0.02951475977897644,-0.02829689532518387,-0.10528983175754547,-0.08171229809522629,0.04602780565619469,0.012560074217617512,0.013647578656673431,0.021296249702572823,0.044305864721536636,0.043277595192193985,-0.011400461196899414,0.0739000141620636,0.044912539422512054,-0.0261517446488142,-0.020179590210318565,-0.012694427743554115,0.07557983696460724,0.0338292233645916,0.02266806922852993,-0.07508671283721924,0.05813700705766678,0.050516508519649506,0.007075586821883917,-0.02696484699845314,0.012353295460343361,-0.0176925677806139,0.060800950974226,0.03655453771352768,-0.06300156563520432,-0.07156404852867126,0.06664944440126419,-0.05587007850408554,-0.10348641127347946,-0.05079761520028114,-0.07187546044588089,0.049906760454177856,-0.044957831501960754,-0.09356365352869034,-0.04356024041771889,-0.03955087810754776,0.007433037739247084,0.06622255593538284],[-0.022252019494771957,0.10777957737445831,0.009338783100247383,0.01764662191271782,0.06170472875237465,0.02897089347243309,-0.005202081985771656,0.055218953639268875,-0.09668157994747162,-0.057999636977910995,-0.020820563659071922,-0.008166072890162468,0.07253631204366684,0.03497185558080673,-0.03435273468494415,0.02980416640639305,-0.039863478392362595,0.02024618536233902,0.04347200691699982,0.03138459846377373,0.03874089568853378,-0.07314874231815338,0.062373172491788864,0.018500015139579773,-0.002951717237010598,-0.08804605901241302,-0.10554780811071396,-0.0011585945030674338,0.018817825242877007,0.08499468863010406,0.07460363209247589,-0.02958265133202076,0.0013412033440545201,0.1042233258485794,-0.029037093743681908,-0.027439502999186516,0.0390680693089962,0.08343859761953354,0.06186293810606003,0.024754004552960396,0.022607814520597458,0.06383737921714783,-0.08229135721921921,-0.06979116797447205,-0.06349088996648788,0.04904429614543915,0.008906730450689793,-0.01321975514292717,0.09485279768705368,-0.05405432730913162,-0.0319298580288887,0.02059345319867134,-0.02841675654053688,0.07052188366651535,0.010997438803315163,0.03357202932238579,0.009286888875067234,0.0010352733079344034,-0.05543135479092598,0.057580649852752686,-0.032952871173620224,-0.00555464206263423,0.06481532752513885,0.0673273578286171,0.06166398152709007,-0.02023397944867611,0.024183915928006172,-0.07460544258356094,-0.08840712904930115,0.029237594455480576,0.01585034281015396,-0.02774188481271267,0.03143955394625664,0.06533756107091904,-0.04436098039150238,-0.016769571229815483,0.003020611824467778,-0.057633984833955765,-0.06368778645992279,0.028867525979876518,0.0570928156375885,-0.04498672112822533,0.04046018049120903,0.04409709945321083,0.042581260204315186,-0.02135387621819973,-0.05520143359899521,-0.01003594882786274,-0.023790469393134117,-0.011917349882423878,-0.05594303458929062,0.07467221468687057,0.06253227591514587,-0.08855235576629639,-0.05952977389097214,0.12598708271980286,-0.07629126310348511,-0.03503182902932167,0.015506208874285221,0.036413561552762985,0.09647533297538757,0.0349871963262558,-0.05281142145395279,0.0835462436079979,-0.07997039705514908,0.060440052300691605,-0.018205931410193443,-0.025798244401812553,-0.024439096450805664,0.08721780776977539,-0.015132822096347809,-0.0391419418156147,0.05945408344268799,0.06596320122480392,0.033474136143922806,0.082340307533741,-0.09548060595989227,0.03529797121882439,-0.06291665881872177,0.07189622521400452,0.06527190655469894,0.06957224756479263,0.06805207580327988,-0.028755422681570053,-0.02449903078377247,0.054871104657649994,-0.029787853360176086,-0.08275662362575531],[0.06909536570310593,-0.11948855966329575,0.02740960568189621,-0.16115683317184448,0.05932939797639847,0.012273656204342842,0.025715719908475876,-0.28020375967025757,0.052643317729234695,-0.08513961732387543,0.06360016763210297,0.02210202068090439,0.12320030480623245,-0.05385483801364899,0.04054282605648041,-0.01871657744050026,-0.0009147680830210447,0.034213531762361526,0.015289281494915485,0.0576183907687664,0.11923937499523163,0.055914927273988724,-0.19105252623558044,-0.07448837161064148,-0.1002131998538971,-0.18045754730701447,-0.07958025485277176,-0.21061517298221588,-0.023627987131476402,-0.1171235591173172,0.19138994812965393,0.022871848195791245,0.0034988655243068933,-0.22185097634792328,-0.022272828966379166,-0.09618808329105377,-0.11439090967178345,-0.18343684077262878,-0.17639966309070587,0.22322550415992737,-0.10848133265972137,-0.05466261878609657,-0.21977844834327698,0.10955970734357834,0.1368093192577362,-0.05703069642186165,0.0017565070884302258,0.07494620233774185,0.1671992689371109,-0.04547807574272156,-0.037216510623693466,0.1741078644990921,0.05878979340195656,-0.27685993909835815,-0.13108950853347778,-0.015520669519901276,-0.08005058765411377,-0.035689834505319595,-0.11950866878032684,-0.029093900695443153,0.1403079777956009,-0.15574850142002106,0.0463046170771122,0.10907906293869019,0.10604121536016464,0.09643327444791794,-0.22734510898590088,0.1711217761039734,-0.020940370857715607,-0.26289892196655273,-0.17573930323123932,-0.20564809441566467,-0.08934212476015091,0.07074025273323059,0.15418680012226105,-0.03773022070527077,-0.09923617541790009,0.08327995240688324,0.1988578885793686,-0.05207009240984917,-0.06585685908794403,-0.10880469530820847,-0.2386036515235901,0.12996245920658112,0.09051570296287537,-0.013578105717897415,-0.13464149832725525,0.1534760445356369,0.26510825753211975,-0.08180289715528488,0.06258813291788101,0.07155780494213104,0.18522845208644867,-0.2453162521123886,-0.055440619587898254,0.03516802191734314,-0.22086851298809052,0.0010277318069711328,-0.0418308824300766,0.04251769930124283,0.12327153980731964,-0.0006662815576419234,-0.2854735553264618,-0.17987796664237976,-0.09783609211444855,-0.028790228068828583,0.07060756534337997,0.05839363485574722,0.1256292760372162,-0.010215540416538715,-0.13584491610527039,0.09887376427650452,0.11006093770265579,-0.2921752631664276,-0.08950765430927277,-0.020020009949803352,0.12311691790819168,0.07207918167114258,0.19858010113239288,0.02654143236577511,-0.027284082025289536,-0.12917682528495789,0.051700301468372345,-0.06066010147333145,0.044929590076208115,-0.12981200218200684,-0.1091543585062027,0.1260591298341751],[-0.05066252127289772,-0.0915735512971878,0.0555436871945858,0.021666022017598152,0.02701917290687561,0.06296151131391525,0.08115691691637039,0.05342394486069679,0.04624002426862717,-0.021535946056246758,0.021932143718004227,0.053726665675640106,0.014220958575606346,-0.009411127306520939,-0.01174011081457138,0.02955913171172142,0.027698511257767677,-0.0339445099234581,-0.00639311270788312,0.03717268630862236,0.03361497074365616,0.05775177478790283,0.025391483679413795,-0.05130932480096817,0.07934769243001938,-0.04030769318342209,0.036918483674526215,-0.04679373651742935,0.062354184687137604,0.10012602061033249,0.061242371797561646,0.0006695437477901578,0.04751218110322952,-0.06810345500707626,0.052698180079460144,0.042124830186367035,0.05375075340270996,-0.023786749690771103,0.11223156005144119,0.0632605254650116,-0.047579437494277954,0.06501488387584686,0.0643923282623291,-0.020096324384212494,-0.12040006369352341,-0.06237448751926422,0.03457316756248474,-0.0533997118473053,0.0259567778557539,-0.04900721088051796,0.045085448771715164,0.006189931184053421,0.004463668446987867,-0.057718049734830856,-0.0018275034381076694,-0.06809085607528687,0.09424322098493576,-0.041817307472229004,-0.03040200285613537,-0.045792367309331894,-0.02129722572863102,0.005541840102523565,-0.026524802669882774,0.026169897988438606,0.03325118497014046,-0.0565926767885685,-0.05688949674367905,-0.030669327825307846,0.05327080562710762,0.10120980441570282,0.005576144438236952,0.1057746633887291,-0.05423444136977196,-0.06877245008945465,0.07224810123443604,-0.07664286345243454,0.017784249037504196,-0.08603745698928833,-0.05799516290426254,-0.006929963827133179,0.13224606215953827,0.09065767377614975,0.02686026319861412,-0.04264886677265167,-0.015304340049624443,-0.02715587057173252,0.020565686747431755,0.05531363561749458,-0.07546408474445343,-0.007827619090676308,-0.06788769364356995,0.03775957599282265,-0.09125731140375137,-0.026448983699083328,-0.07292849570512772,0.0317692793905735,0.045132510364055634,0.0934925228357315,0.04087594151496887,0.08414003998041153,0.01641991175711155,0.0879884883761406,-0.002676393138244748,0.047250766307115555,-0.07629625499248505,-0.01996736228466034,-0.043881192803382874,-0.03551746532320976,-0.13500815629959106,-0.09190326929092407,0.02299259975552559,0.037410881370306015,0.08889119327068329,0.10589370876550674,-0.02237430401146412,0.04692557081580162,0.017679911106824875,0.024204716086387634,-0.042797837406396866,0.07678183913230896,-0.061709560453891754,0.0514332614839077,-0.04188024252653122,0.01899825967848301,0.07356247305870056,0.03950325399637222,0.026769667863845825,0.06279855966567993],[-0.019012948498129845,-0.06244158372282982,0.05095389485359192,-0.02104806900024414,-0.07744723558425903,-0.03593054413795471,-0.11826130747795105,-0.06633462011814117,0.05783909559249878,0.022419055923819542,-0.061665065586566925,-0.0454518087208271,0.01263789925724268,-0.06220926344394684,0.02330338954925537,-0.07082445174455643,0.07482149451971054,0.08377568423748016,-0.06994210183620453,-0.02153976634144783,-0.0013068810803815722,0.10510850697755814,0.03605155646800995,-0.013810835778713226,-0.009197316132485867,0.04363664239645004,-0.07405832409858704,0.056599393486976624,-0.05098619684576988,-0.11707162111997604,-0.03196069970726967,-0.06897633522748947,0.04584503173828125,0.0831286609172821,-0.025599781423807144,0.055679433047771454,0.032801106572151184,0.04594714194536209,-0.029524005949497223,0.03889972344040871,-0.053853098303079605,0.055310655385255814,-0.08947271853685379,0.015348726883530617,0.11150752753019333,0.018420802429318428,0.04556885361671448,0.03101082146167755,-0.045591723173856735,-0.0801902711391449,-0.042493369430303574,-0.011313832364976406,-0.0017957082018256187,0.05374045670032501,-0.04920804128050804,-0.035665057599544525,-0.13569413125514984,0.01181105338037014,0.05642438307404518,-0.03550830855965614,-0.007797820959240198,0.020583759993314743,-0.06093915179371834,-0.018155217170715332,0.06843769550323486,-0.058394815772771835,-0.025116359815001488,0.07934939861297607,-0.015532069839537144,-0.002862603636458516,-0.030347606167197227,-0.08534988760948181,-0.03658418729901314,-0.0007086017285473645,0.03828197345137596,0.08056410402059555,0.022135773673653603,-0.058387961238622665,0.06348532438278198,-0.04918805882334709,-0.10443606972694397,-0.0647006705403328,0.061935704201459885,0.03816424310207367,-0.011665940284729004,0.07327062636613846,-0.03890126198530197,0.09006723761558533,0.027169939130544662,-0.04047779738903046,-0.029227526858448982,0.022478178143501282,-0.03138163313269615,-0.08021417260169983,0.05206893011927605,-0.10762535780668259,-0.10221459716558456,-0.023105770349502563,-0.017114607617259026,0.03779245540499687,-0.006184261292219162,0.034269336611032486,0.01962355710566044,0.01358817145228386,-0.008131382055580616,0.10012549161911011,-0.039487551897764206,0.007074126973748207,0.14560672640800476,0.005989580415189266,0.07389681786298752,0.07234467566013336,-0.03616083413362503,-0.17574724555015564,-0.04513455927371979,-0.05010586977005005,0.03781944513320923,-0.026338141411542892,0.004207007121294737,-0.0529073067009449,0.02079816535115242,-0.1226666122674942,0.044449664652347565,0.09681905806064606,-0.07482519000768661,-0.03547875955700874,-0.08579405397176743,0.01898270472884178],[-0.004710270557552576,0.05212325602769852,-0.04117443785071373,-0.012676455080509186,0.023667583242058754,0.06890774518251419,0.08345285058021545,-0.051997940987348557,-0.006297416053712368,0.0356002002954483,0.06303489953279495,-0.02639373391866684,-0.01778886467218399,0.03487275168299675,-0.032347649335861206,0.007477930281311274,0.008665720000863075,-0.10174639523029327,-0.05595242604613304,-0.07948237657546997,-0.09265561401844025,0.04912562295794487,0.07016593217849731,0.04892968758940697,0.02886589802801609,-0.009533165022730827,-0.11934740096330643,-0.037878893315792084,-0.07451163977384567,-0.029241403564810753,-0.0016012702835723758,0.07953287661075592,0.039531417191028595,-0.04753434285521507,-0.035839322954416275,-0.06786204874515533,-0.052246592938899994,0.05033431202173233,-0.012122427113354206,0.0004468697588890791,-0.0774650052189827,0.007274013943970203,-0.049339741468429565,-0.041395723819732666,0.0054262494668364525,-0.07501184195280075,0.1362452208995819,0.017794890329241753,-0.08827950060367584,0.014588491059839725,-0.008885016664862633,0.021632075309753418,0.013943981379270554,-0.06844189018011093,0.0680881217122078,-0.022487692534923553,0.024163013324141502,0.08073986321687698,-0.039336055517196655,-0.06294921040534973,0.01703675091266632,0.04105975106358528,0.06389908492565155,-0.059357307851314545,-0.01810295507311821,-0.04853014275431633,0.024187788367271423,-0.09333740174770355,0.03690575808286667,0.08263184875249863,0.07041147351264954,-0.018736954778432846,0.02593871019780636,0.0435413233935833,0.09995238482952118,-0.0879131481051445,0.002180392388254404,-0.051674459129571915,0.04319955036044121,-0.09471047669649124,0.021308433264493942,0.005148516967892647,-0.04408290237188339,0.07175619155168533,0.06555598229169846,-0.03428984805941582,0.052874695509672165,-0.02088966593146324,-0.025702055543661118,-0.009953965432941914,-0.0018627890385687351,0.02213376760482788,0.01465376652777195,-0.04042719304561615,-0.0016050839331001043,0.009654663503170013,0.047317877411842346,-0.05712100490927696,0.008709353394806385,0.0035594545770436525,0.03687199577689171,-0.05778571590781212,0.05681496486067772,0.027370061725378036,-0.0374603196978569,-0.03921998292207718,-0.05850041285157204,0.06055399402976036,0.018738120794296265,-0.022064752876758575,-0.01589837484061718,0.05408385023474693,0.01676587015390396,0.011290728114545345,-0.006713964510709047,0.07746218144893646,-0.022669704630970955,-0.06021885573863983,-0.07944071292877197,0.0165643859654665,-0.037615250796079636,0.033348388969898224,0.0878601223230362,-0.09580588340759277,-0.057288024574518204,0.0353652685880661,0.037535715848207474,0.055288560688495636],[-0.000682882615365088,-0.09915515035390854,-0.0510360524058342,-0.06613454222679138,0.011256051249802113,0.02719961293041706,0.09900236129760742,0.08251238614320755,-0.04233173280954361,0.04372222721576691,-0.09708119928836823,0.0011973126092925668,0.04180433601140976,0.005998197011649609,0.029036952182650566,0.02640443854033947,-0.02727922983467579,0.048925355076789856,-0.0426105298101902,0.05604321509599686,-0.03502091392874718,-0.08624428510665894,-0.007671631406992674,0.0838092640042305,-0.07642437517642975,0.04638662561774254,-0.04117061197757721,0.02097913809120655,0.04535510018467903,0.08921901136636734,0.022133218124508858,-0.03237352892756462,-0.07253352552652359,0.09355771541595459,0.056312836706638336,0.018081994727253914,0.0652620941400528,0.03131650760769844,-9.124773350777104e-05,-0.023507319390773773,-0.02622486650943756,-0.04576665163040161,-0.017484720796346664,0.042364154011011124,0.04375540092587471,0.002890561707317829,-0.007842729799449444,-0.04041820019483566,0.03330341726541519,-0.06909029185771942,-0.08364599943161011,-0.0054978011175990105,0.006613500416278839,0.08957118541002274,0.05083196982741356,0.06887874007225037,0.04012427106499672,-0.02732686512172222,0.07796357572078705,-0.03250497579574585,-0.028024356812238693,0.03564140573143959,0.08802374452352524,0.07722704857587814,-0.0009175196755677462,0.01433184091001749,-0.00278755952604115,0.004035922233015299,-0.09972207248210907,0.08883284777402878,0.036011192947626114,0.0834420844912529,-0.05190505459904671,-0.07375183701515198,0.03626670315861702,-0.027591988444328308,0.07420551776885986,0.053621817380189896,-0.07735742628574371,0.09698852151632309,0.07535213232040405,0.024868670850992203,-0.026098715141415596,-0.06917725503444672,-0.10033969581127167,-0.05919104442000389,-0.00836675800383091,0.0020925228018313646,-0.08336074650287628,-0.03108149953186512,0.01622053235769272,-0.09325837343931198,0.029033247381448746,0.033855218440294266,-0.05038120597600937,-0.06990339607000351,-0.018841950222849846,0.0914074182510376,0.07427255064249039,-0.06908329576253891,0.0017281071050092578,-0.027769222855567932,-0.006444809027016163,0.07177428901195526,-0.08379677683115005,-0.04199735447764397,0.04566974565386772,0.03564820811152458,0.04310818389058113,0.05717279762029648,0.011632162146270275,-0.06813778728246689,0.08413223177194595,0.047878049314022064,-0.03426503390073776,-0.06734902411699295,0.028423892334103584,-0.049095604568719864,0.05474534630775452,0.06754901260137558,0.019555147737264633,0.072279192507267,-0.008112536743283272,0.09217318892478943,-0.007857401855289936,0.09547881036996841,0.07984141260385513,-0.01221125852316618],[-0.03792435675859451,0.1054651290178299,0.08118219673633575,-0.009080611169338226,-0.008357342332601547,-0.06554070115089417,0.029384000226855278,-0.06791314482688904,-0.043419525027275085,-0.07184705138206482,-0.0030660524498671293,0.055852197110652924,-0.08188609033823013,0.008629286661744118,0.08066198229789734,-0.09454599022865295,-0.008547109551727772,-0.04027789086103439,-0.06908313930034637,-0.01869422197341919,-0.05539287254214287,-0.044177766889333725,0.06700709462165833,0.039573296904563904,0.034105684608221054,-0.0027127498760819435,0.08880036324262619,-0.07718583196401596,-0.038270898163318634,-0.0917951837182045,-0.045440491288900375,-0.07192154973745346,0.0646125078201294,0.02398095652461052,0.05614751577377319,-0.05226093530654907,0.01422113087028265,-0.06685760617256165,-0.038248687982559204,0.060664597898721695,-0.00688591506332159,0.01788584515452385,0.0337357334792614,0.01970229484140873,-0.03575926646590233,-0.07524652779102325,-0.010562255047261715,0.005341285839676857,0.03629717603325844,-0.08977055549621582,0.07241090387105942,0.05541221797466278,-0.025236153975129128,0.06862135231494904,-0.05824442580342293,0.05608990788459778,0.04903396964073181,-0.056375741958618164,0.04867509379982948,0.050572093576192856,0.11889946460723877,-0.05960065498948097,-0.0549674928188324,0.04484415799379349,0.09257975220680237,0.08087600022554398,-0.034947317093610764,0.09977524727582932,0.03305878862738609,0.01928994432091713,-0.011490919627249241,-0.02743617072701454,0.019565222784876823,0.02188861556351185,0.07931340485811234,0.049399904906749725,-0.08258330821990967,0.08010971546173096,0.05169013887643814,0.047325968742370605,-0.06329309940338135,0.027707917615771294,-0.03629310801625252,-0.0017046076245605946,-0.018199441954493523,0.07878857105970383,-0.005453251302242279,0.07397414743900299,-0.0035075980704277754,-0.02132582664489746,-0.11389345675706863,0.04821595922112465,-0.08269236981868744,-0.052490390837192535,0.008358404040336609,0.08629172295331955,0.06241319328546524,-0.0313352532684803,0.057252101600170135,-0.07996156811714172,-0.06245141848921776,-0.0735764354467392,0.016024960204958916,-0.007356097921729088,-0.025376327335834503,0.059646785259246826,0.02279326505959034,0.027928223833441734,0.06648372858762741,0.08734756708145142,0.002013744320720434,-0.008938889019191265,0.029934454709291458,-0.07209969311952591,-0.04070518538355827,0.07581327855587006,0.0178790632635355,0.0421086810529232,-0.051451295614242554,0.03124093823134899,0.04014600068330765,-0.09709494560956955,0.03882242366671562,0.043514300137758255,0.004089479334652424,-0.07287406176328659,0.0658956915140152,-0.08762174099683762],[-0.07749232649803162,-0.028419367969036102,0.07312072813510895,-0.08418069034814835,0.021484840661287308,-0.003939339891076088,-0.044867344200611115,0.01709980145096779,-0.03170962259173393,0.03147512301802635,0.03612011298537254,0.040149759501218796,0.014056145213544369,-0.046740222722291946,0.09701154381036758,-0.08481716364622116,0.1097181886434555,0.038787536323070526,-0.06964483112096786,-0.03731206804513931,0.005858320277184248,0.03190823271870613,-0.057841431349515915,-0.05387035012245178,-0.09146465361118317,0.009157530032098293,-0.08696632087230682,0.012974167242646217,-0.05332344397902489,0.00027254983433522284,0.005812392104417086,-0.07867707312107086,0.0706252008676529,0.06499181687831879,-0.10855819284915924,0.05260184407234192,0.02519872598350048,0.024948805570602417,-0.09404253214597702,-0.05679161846637726,-0.041113246232271194,-0.047069303691387177,-0.09954690933227539,0.020997919142246246,-0.007089564576745033,0.08332623541355133,-0.036597900092601776,0.09129487723112106,-0.06412643939256668,-0.04899831861257553,0.02794061228632927,0.010287519544363022,-0.0019508404657244682,-0.01693524420261383,0.004750187508761883,0.11463700979948044,-0.00291342637501657,-0.021632254123687744,-0.01827121153473854,0.005440480541437864,0.12747125327587128,-0.0036219952162355185,0.030853236094117165,-0.07003281265497208,0.044711798429489136,0.12713295221328735,-0.054411422461271286,0.01787523180246353,-0.09895942360162735,-0.02875821851193905,-0.07932449877262115,-0.005687382072210312,0.010240500792860985,-0.01108388788998127,-0.05018673837184906,-0.002924775704741478,-0.08404745161533356,0.06983871757984161,0.062266815453767776,0.044367991387844086,0.047603949904441833,-0.06355731189250946,-0.05737755820155144,-0.015086812898516655,0.06413751095533371,-0.016721870750188828,0.016189880669116974,0.03912005200982094,0.11376672238111496,-0.020314054563641548,0.0445900559425354,-0.003052521264180541,-0.06271176785230637,-0.045252323150634766,0.08954670280218124,0.07858708500862122,-0.025335440412163734,-0.10017542541027069,0.023059681057929993,0.05661093071103096,0.06813006103038788,0.05423935130238533,0.005862530320882797,-0.022655609995126724,0.07682567834854126,0.08178360760211945,0.05885810777544975,0.08383974432945251,-0.03041083551943302,-0.06643211841583252,-0.08494067192077637,0.0510634183883667,0.06328441947698593,-0.06269961595535278,0.010825343430042267,0.028076017275452614,0.049047376960515976,0.0019449059618636966,-0.04964306205511093,0.03826829791069031,-0.016719406470656395,0.00270893145352602,0.06108671799302101,0.07734266668558121,-0.03853387385606766,0.02519419603049755,0.010110563598573208,-0.07509097456932068],[-0.07730694115161896,0.02396324649453163,0.04608790576457977,-0.004269263707101345,0.014149744063615799,-0.0706232413649559,0.024419108405709267,-0.0027571984101086855,0.002334901597350836,0.021074697375297546,-0.02443149872124195,0.05517329275608063,-0.010384287685155869,-0.018028970807790756,0.06255826354026794,0.001774527714587748,-0.030824605375528336,-0.05227217823266983,-0.090537428855896,-0.0938960388302803,0.04795757308602333,0.0726475641131401,-0.0032385943923145533,0.09455336630344391,0.011998933739960194,-0.043045662343502045,0.0014483057893812656,0.022607848048210144,0.013706576079130173,0.025624603033065796,0.0030700978823006153,0.016646096482872963,0.013429384678602219,-0.033014606684446335,-0.01838725619018078,-0.06477642059326172,0.0686039850115776,0.022935854271054268,0.06138049066066742,-0.05814238637685776,-0.004037909675389528,0.043409667909145355,0.031243937090039253,0.055250804871320724,-0.05065711960196495,-0.04462893679738045,0.009702273644506931,0.059331782162189484,0.058219462633132935,0.08430282026529312,-0.04316950589418411,-0.07049009203910828,0.07704844325780869,-0.05470005050301552,0.08483919501304626,-0.05510540306568146,0.04956892132759094,0.03520992025732994,-0.0936640202999115,-0.0365799181163311,-0.12180784344673157,0.004993841517716646,0.06829629838466644,-0.00041970814345404506,-0.06346973776817322,-0.01326021458953619,-0.007529599592089653,-0.008174922317266464,0.04765581339597702,-0.05231359973549843,0.10113274306058884,-0.06724903732538223,0.03354387357831001,-0.045552242547273636,-0.02885868027806282,0.07658985257148743,0.021796656772494316,0.09743555635213852,0.04728563129901886,0.061662640422582626,0.07868745923042297,0.014990420080721378,-0.0047230166383087635,-0.0011989669874310493,-0.07938580960035324,-0.004090606700628996,-0.01876067742705345,-0.043978530913591385,0.0006598108448088169,0.01702887937426567,-0.01760082319378853,-0.04161423072218895,-0.07419310510158539,0.011599925346672535,0.05780015513300896,-0.039336249232292175,0.0009338504169136286,0.120487742125988,0.020772777497768402,0.03933020308613777,-0.024489132687449455,-0.08032496273517609,0.07643873989582062,0.06793296337127686,0.02605273760855198,0.006172757130116224,-0.044601574540138245,0.09033244848251343,-0.07302112132310867,0.030481494963169098,-0.0037771351635456085,0.020247846841812134,0.03558337688446045,0.12270069122314453,0.06021316349506378,-0.06311284005641937,0.0445554181933403,-0.05948390066623688,0.05274631455540657,0.00021365884458646178,-0.000596140802372247,0.030775777995586395,-0.020495040342211723,0.05989130213856697,0.010454251430928707,0.07994250953197479,0.02746688202023506,0.07010866701602936],[0.06421972811222076,-0.023127751424908638,0.015682285651564598,-0.06505051255226135,0.030072040855884552,-0.03924057260155678,0.0013810328673571348,0.07693111896514893,-0.05403183028101921,-0.00199502264149487,0.018938135355710983,-0.05863707512617111,-9.691516606835648e-05,0.07817281782627106,-0.09516498446464539,0.029878422617912292,0.04365677759051323,-0.04572029039263725,0.012806042097508907,0.08792178332805634,0.013237989507615566,-0.03349743410944939,0.09169384837150574,-0.026842927560210228,-0.04710949957370758,-0.038072142750024796,-0.0038346233777701855,-0.05799194797873497,0.0399741493165493,-0.06845714896917343,0.035930849611759186,0.003641706658527255,0.0607721284031868,-0.04793871194124222,0.06879314035177231,0.07438119500875473,-0.08359553664922714,0.06894990056753159,-0.0267080869525671,-0.004488231148570776,-0.023250671103596687,-0.08995392173528671,0.09353937208652496,0.007572011556476355,-0.0021565670613199472,-0.06110313534736633,0.06158612295985222,0.07306886464357376,-0.05569298937916756,0.07941712439060211,-0.055624354630708694,0.07474295049905777,-0.08695074170827866,-0.08216407150030136,0.0056409891694784164,0.04752878472208977,-0.009166330099105835,0.045687127858400345,-0.12529906630516052,-0.08636976033449173,0.020316174253821373,0.03929963335394859,0.05532132089138031,0.05878700688481331,0.04047858715057373,-0.09001506119966507,0.01139097474515438,0.019911155104637146,0.015659146010875702,0.03726916387677193,0.05452948436141014,-0.07045338302850723,0.08039245754480362,-0.08094348758459091,-0.007870140485465527,-0.029568538069725037,0.06684427708387375,-0.047113899141550064,0.06274614483118057,0.019961755722761154,-0.024130573496222496,0.10769534856081009,-0.052598897367715836,0.09192267060279846,0.09981493651866913,0.07867197692394257,0.020432479679584503,0.06281084567308426,0.040473099797964096,-0.03516609966754913,-0.03173133730888367,0.03795739635825157,-0.05424574762582779,-0.06317254155874252,-0.09620682150125504,0.006700530182570219,-0.04579168185591698,0.055921558290719986,-0.07289393246173859,0.09214004874229431,-0.02569255419075489,0.00855210516601801,-0.09967698156833649,0.007463160902261734,-0.0009930501691997051,-0.06286154687404633,0.022569846361875534,-0.01677221618592739,-0.022342395037412643,-0.06483842432498932,-0.07348931580781937,0.02611624449491501,0.04818759113550186,-0.0012189848348498344,0.02596472017467022,-0.07214731723070145,0.004197145812213421,0.04821410030126572,-0.08908520638942719,0.05240507051348686,0.04293229430913925,-0.07976704835891724,0.035288434475660324,-0.08119044452905655,0.07726017385721207,-0.04929831996560097,-0.03824618086218834,0.012916388921439648],[-0.03146754205226898,0.07999859005212784,0.08392200618982315,-0.04492054134607315,-0.005073424428701401,0.004698481410741806,0.06304845213890076,-0.0009261150262318552,-0.06400731205940247,0.04096217453479767,0.11374581605195999,-0.00010289219790138304,0.04820914939045906,-0.03730656951665878,-0.03893378749489784,0.0572906956076622,0.004800111521035433,0.015886444598436356,0.010904202237725258,-0.020476777106523514,-0.05543170124292374,0.003963746130466461,0.044220250099897385,0.0689292773604393,0.011446834541857243,0.011739702895283699,-0.044836461544036865,0.05211719125509262,0.08025958389043808,0.028707614168524742,-0.03618583828210831,0.054910946637392044,-0.034334346652030945,0.08720356971025467,-0.09148763865232468,-0.05454237014055252,0.04208563640713692,0.037467554211616516,0.0149595458060503,0.0047870296984910965,-0.06024465337395668,0.04900047928094864,-0.005603316705673933,0.007302528712898493,-0.029233956709504128,0.024622155353426933,-0.06535452604293823,0.00279465364292264,-0.010335469618439674,0.048287153244018555,0.04891565814614296,0.07628528028726578,-0.07569880783557892,-0.06920038908720016,0.0064557925797998905,-0.049562469124794006,0.03027157112956047,0.05997306481003761,-0.09685308486223221,-0.0496395006775856,-0.07080730050802231,0.02135244570672512,-0.03481488674879074,-0.07999412715435028,0.01589839532971382,0.0640559047460556,0.04248761013150215,0.0770934596657753,-0.00278627616353333,-0.009005721658468246,-0.04933593422174454,0.054470788687467575,0.036607012152671814,0.023143431171774864,0.0732835903763771,0.07106098532676697,-0.05117561295628548,0.014637145213782787,-0.04716687276959419,-0.009244087152183056,-0.034226663410663605,-0.019089704379439354,0.06397558003664017,-0.010532178916037083,0.01972520723938942,0.02659142017364502,-0.024469032883644104,0.043327756226062775,-0.0019938081968575716,-0.09026826918125153,0.013630639761686325,0.035698141902685165,0.0623122937977314,-0.08242101222276688,-0.05707205459475517,-0.01213875599205494,-0.004330991301685572,0.032335065305233,-0.037178970873355865,0.051331326365470886,-0.05862802267074585,0.0299712922424078,0.06754826009273529,0.06871405988931656,-0.045327577739953995,-0.020064936950802803,-0.04980215057730675,0.020604992285370827,0.07203759253025055,-0.007306948769837618,0.028897207230329514,-0.0066025517880916595,-0.006171789951622486,-0.06307618319988251,0.09862438589334488,-0.11062386631965637,0.047542888671159744,-0.04784413054585457,-0.04268680885434151,0.009158768691122532,-0.07050095498561859,0.0335853286087513,-0.05064334720373154,-0.03146585449576378,-0.01030150055885315,-0.07986950129270554,-0.06555759906768799,-0.07129475474357605],[-0.017002414911985397,0.1068461611866951,0.011651991866528988,-0.05429799109697342,-0.027461454272270203,0.0900367870926857,-0.05742162838578224,-0.09307394921779633,0.02213544212281704,-0.04252166301012039,0.045846838504076004,-0.03307182714343071,0.03515979275107384,0.013943934813141823,0.010618128813803196,-0.06222062185406685,0.018760966137051582,0.003652940969914198,0.015565379522740841,-0.009145147167146206,0.002406723564490676,-0.045359913259744644,-0.042950063943862915,-0.029527127742767334,-0.04420258477330208,-0.06129821017384529,-0.0392572395503521,0.023033009842038155,0.03104507550597191,-0.10993972420692444,-0.06335236877202988,-0.00045282539213076234,0.0038796330336481333,0.05003979429602623,-0.057193510234355927,0.057215411216020584,0.0569525882601738,-0.03627913445234299,0.0043709310702979565,-0.001992001198232174,0.06450578570365906,-0.026722515001893044,-0.05170171707868576,0.06428548693656921,0.06848926842212677,-0.05746006965637207,0.05050282925367355,-0.045518383383750916,0.03555164113640785,-0.06107787787914276,-0.03218245878815651,-0.02039494179189205,-0.05938040465116501,0.03733320161700249,0.004238929599523544,-0.05420053005218506,0.008399555459618568,-0.04979337379336357,0.05830278620123863,0.055460598319768906,0.04456121101975441,-0.027532173320651054,-0.0453205369412899,0.07736309617757797,0.01797563210129738,0.1122458353638649,0.05468642711639404,-0.038982391357421875,-0.05417352542281151,-0.08501458168029785,-0.027382854372262955,0.008007469587028027,-0.02961447276175022,-0.012924072332680225,-0.07223179191350937,0.05668651685118675,0.04210696741938591,-0.0462498776614666,-0.03973207622766495,-0.0038049297872930765,0.05504991486668587,-0.06942244619131088,0.03493249788880348,-0.0243072547018528,-0.06456667184829712,-0.028384651988744736,-0.013101537711918354,-0.08326991647481918,-0.012324550189077854,0.05938610062003136,-0.0473870187997818,0.049025777727365494,0.009094770066440105,-0.050814151763916016,0.04196508601307869,-0.019335249438881874,-0.03634289279580116,-0.01840115897357464,-0.042380109429359436,-0.0560113787651062,0.041151318699121475,0.06250251084566116,-0.08735853433609009,-0.015197710134088993,0.03901855647563934,-0.03765900060534477,0.005527639761567116,-0.023631395772099495,0.03570212051272392,-0.04768262431025505,0.031242547556757927,0.027553372085094452,-0.06200287491083145,-0.12609396874904633,-0.10697817802429199,0.08845099806785583,0.07475114613771439,0.07537340372800827,-0.046785589307546616,-0.06606686115264893,-0.05377005785703659,0.01912021078169346,-0.043340135365724564,-0.08105896413326263,0.08377370983362198,-0.009349466301500797,-0.06339443475008011,-0.020403476431965828],[0.061842408031225204,0.0612834095954895,-0.11799393594264984,0.025224754586815834,-0.037987660616636276,0.020619820803403854,-0.06369657069444656,0.0743367150425911,0.056849222630262375,0.022686414420604706,0.0936354398727417,-0.09068704396486282,0.038946282118558884,0.0523172952234745,-0.04158800095319748,0.03458120673894882,-0.0329420231282711,0.00996039342135191,0.03077171929180622,-0.04409845545887947,-0.0007029467960819602,0.08040511608123779,-0.06499000638723373,0.0690220519900322,0.06009162962436676,-0.06498284637928009,-0.07425248622894287,-0.03878377005457878,-0.034186869859695435,0.007506516762077808,-0.019230058416724205,0.042407773435115814,-0.09988976269960403,0.03745928034186363,0.03426949307322502,0.05770274996757507,0.011260154657065868,-0.005067505873739719,-0.05950390547513962,0.037371207028627396,-0.02438877709209919,0.00355249154381454,0.07172182947397232,0.008149842731654644,-0.09243101626634598,-0.039166782051324844,0.03423403203487396,0.09664394706487656,-0.012943938374519348,0.06145939975976944,-0.007432146463543177,0.062116317451000214,0.04888766258955002,-0.05218929797410965,0.02404564432799816,0.02877715416252613,-0.002816727152094245,0.014562021940946579,-0.10247501730918884,0.044036589562892914,0.022408561781048775,0.04295234754681587,0.01669682003557682,0.0802106186747551,0.008496595546603203,-0.08893828094005585,0.03040577657520771,-0.011154646053910255,0.012377304024994373,0.014815243892371655,0.018667899072170258,0.09544803202152252,0.05813387408852577,-0.06815484166145325,-0.04809960722923279,0.08040710538625717,-0.10137329250574112,-0.07995691150426865,0.04806215316057205,-0.04098750278353691,0.0773717612028122,0.040760479867458344,-0.044575970619916916,-0.02777322195470333,0.03756759688258171,-0.007343567907810211,0.04125520586967468,-0.09174807369709015,-0.00024728255812078714,0.05029340088367462,0.010524146258831024,-0.004282489884644747,-0.05852920189499855,-0.008044693619012833,-0.032428011298179626,-0.016555659472942352,-0.0882321298122406,0.01992977224290371,-0.07152217626571655,0.014729605056345463,-0.035116057842969894,0.08193226903676987,-0.02759726531803608,0.09090325981378555,-0.03202332183718681,0.05953416973352432,-0.04212642461061478,-0.061915554106235504,-0.06106100603938103,-0.08043593168258667,0.014073412865400314,-0.08373597264289856,-0.06212905794382095,0.08127661794424057,-0.03485566005110741,0.02486734837293625,-0.10128360986709595,0.06922797113656998,-0.07894351333379745,0.07522409409284592,0.09900304675102234,-0.07040951400995255,0.014481756836175919,0.025670165196061134,0.021908558905124664,-0.02411291003227234,0.011173046194016933,-0.08196850121021271],[-0.09618094563484192,-0.015586947090923786,0.09304339438676834,-0.029065020382404327,0.02008657716214657,0.032109688967466354,-0.009626729413866997,-0.05935601890087128,-0.09113500267267227,0.032496821135282516,0.046850867569446564,-0.013724062591791153,0.05624308064579964,-0.00804180558770895,0.09245655685663223,-0.07026275992393494,0.04479498788714409,0.10486976057291031,0.026669194921851158,-0.0591871552169323,0.057779841125011444,0.06625211983919144,-0.06876633316278458,-0.012594201602041721,0.06233710050582886,0.005749375559389591,0.017592493444681168,0.01601361483335495,0.05521383881568909,0.05693826824426651,-0.04870794340968132,-0.0706636905670166,0.0649896189570427,0.024177730083465576,-0.019279055297374725,-0.0392150804400444,0.07523246854543686,0.007535597775131464,0.04143471643328667,-0.08423665165901184,-0.029193049296736717,0.01563783921301365,-0.04432109370827675,-0.05780235305428505,-0.05787487328052521,-0.07974274456501007,-0.06750912964344025,-0.06368163228034973,0.057614415884017944,-0.014092137105762959,-0.055925630033016205,-0.04946611449122429,0.08587583154439926,-0.02003253996372223,0.08477295190095901,-0.03353414684534073,-0.023631755262613297,-0.06978163868188858,0.03248045593500137,0.0636494979262352,0.041370827704668045,-0.027419880032539368,0.021769795566797256,0.08918950706720352,0.05061671510338783,0.0773097351193428,0.04581185430288315,0.04203980416059494,-0.01794305257499218,-0.08864190429449081,-0.035360563546419144,-0.11274806410074234,0.058583661913871765,0.07552381604909897,0.05445807799696922,-0.07849536836147308,0.02241078019142151,-0.009844879619777203,-0.05381537601351738,0.06075086072087288,0.044102348387241364,0.06547112762928009,-0.03583298623561859,0.040246736258268356,-0.04665433615446091,0.009025289677083492,-0.07228578627109528,0.06789403408765793,0.04868501424789429,-0.042308785021305084,0.03437412157654762,-0.025374624878168106,-0.03815832361578941,0.03197237849235535,0.06542094796895981,-0.0494888611137867,0.08886927366256714,0.03281720355153084,0.054178331047296524,-0.06839586049318314,-0.08626001328229904,0.06803349405527115,-0.03319716081023216,-0.043994877487421036,0.042070891708135605,-0.037262819707393646,0.0957828238606453,0.0023974119685590267,-0.07339087873697281,-0.06958232820034027,-0.015801653265953064,-0.03755422309041023,-0.045223526656627655,-0.009419171139597893,-0.004212409257888794,-0.05010166019201279,0.000586637994274497,0.054352547973394394,0.07276901602745056,-0.07289145886898041,-0.09871409833431244,-0.10144271701574326,-0.04157973453402519,-0.02177356369793415,-0.000394070812035352,0.03305903449654579,0.03481973335146904,-0.03819447010755539],[-0.10032432526350021,-0.010686780326068401,-0.0089156748726964,-0.06400537490844727,0.03420456871390343,0.0472307950258255,-0.019173357635736465,-0.04228050634264946,0.04982949420809746,0.00789111852645874,-0.10478641092777252,0.04313183203339577,0.02073424868285656,-0.006282166577875614,0.03920650854706764,-0.029739614576101303,0.06622577458620071,-0.014162994921207428,0.03681940212845802,-0.08243029564619064,0.08868113905191422,-0.07412179559469223,-0.07908152788877487,0.026848740875720978,0.07082298398017883,0.05794057622551918,0.04537435248494148,-0.07992017269134521,-0.055436182767152786,0.037016771733760834,-0.009883786551654339,-0.07798067480325699,-0.03826914727687836,-0.027873340994119644,-0.00831567496061325,-0.051548175513744354,0.029688818380236626,0.03585439547896385,-0.010013317689299583,-0.04945705085992813,0.02542193792760372,0.045869339257478714,-0.08865167945623398,0.0692266896367073,0.02582249604165554,0.04108566790819168,0.07398645579814911,0.02215977944433689,0.032063424587249756,-0.030949754640460014,0.07750800251960754,-0.0867355465888977,-0.05979151278734207,-0.020470241084694862,0.09070784598588943,0.07032010704278946,-0.09697812050580978,-0.07632943242788315,0.09865280240774155,0.07337550818920135,0.0026223144959658384,0.03078160248696804,-0.008689547888934612,0.007842774502933025,0.09303169697523117,0.007375288754701614,0.01520952396094799,0.07155244797468185,-0.09247619658708572,-0.028948143124580383,0.03812815248966217,0.028318755328655243,0.011153019964694977,0.03011743165552616,0.013818331062793732,-0.050466232001781464,-0.04341523349285126,-0.017612969502806664,0.08205553889274597,-0.012959534302353859,0.060606859624385834,0.02162885293364525,-0.06508263200521469,0.04959865286946297,-0.059102125465869904,-0.1030469462275505,-0.04516221955418587,0.011235195212066174,0.09418641775846481,0.0547763928771019,0.07151516526937485,0.08586437255144119,0.06132187321782112,0.021860018372535706,0.024238871410489082,-0.01608085073530674,-0.040867678821086884,-0.09693315625190735,-0.07259391993284225,0.06666470319032669,-0.048786796629428864,-0.005775672383606434,0.027794940397143364,-0.03810945898294449,0.021007424220442772,-0.0006031215307302773,0.09429235011339188,-0.0684097483754158,-0.0022986663971096277,0.05210702121257782,0.07139848172664642,-0.015248026698827744,0.04376659169793129,-0.11193970590829849,-0.049944937229156494,-0.030920283868908882,0.09258419275283813,0.10019990801811218,0.004236561246216297,-0.09216536581516266,-0.09829987585544586,0.019400445744395256,-0.04256347194314003,0.047172609716653824,0.02889084257185459,-0.038028258830308914,-0.05114737153053284,0.022323451936244965],[0.014428071677684784,-0.02267896570265293,-0.02393227629363537,-0.11611495912075043,0.013315928168594837,0.007176511455327272,-0.005732335150241852,0.044112902134656906,0.011449028737843037,0.0811108872294426,-0.07163119316101074,0.018916547298431396,0.03527745231986046,-0.08463381230831146,-0.007247609551995993,0.009222554974257946,-0.059427130967378616,-0.012145699001848698,-0.0162339024245739,0.03200237825512886,0.03306476026773453,0.05280757322907448,-0.0749460756778717,-0.0899539589881897,-0.011320528574287891,-0.03350934386253357,-0.05657031759619713,-0.004917504731565714,-0.05388598516583443,-0.10090498626232147,0.00527693098410964,0.03162764385342598,0.08551687002182007,-0.10690420866012573,-0.1346985250711441,0.06025687977671623,0.06995980441570282,0.00016828537627588958,-0.10337863862514496,-0.05712598189711571,-0.07347340136766434,0.0449187196791172,-0.1090804859995842,-0.06119309738278389,0.08318483084440231,0.023162435740232468,0.020161030814051628,-0.030618349090218544,-0.03641819581389427,-0.027357637882232666,-0.022422676905989647,-0.017149563878774643,0.05875222012400627,-0.04455980658531189,0.07869493961334229,0.04032271355390549,-0.09874489903450012,0.07716104388237,0.05685883387923241,0.008941251784563065,0.10866617411375046,0.054690681397914886,0.0792994350194931,-0.01946248859167099,-0.03821823373436928,0.10152574628591537,0.05779540166258812,0.07792815566062927,-0.04348167032003403,-0.1265239715576172,-0.026131728664040565,-0.041781652718782425,-0.05900338664650917,-0.03985876962542534,0.05940721184015274,-0.00043362725409679115,0.007721893023699522,0.07440157979726791,0.04717129096388817,0.03584350273013115,-0.041821084916591644,-0.016518136486411095,0.061802368611097336,0.06550652533769608,0.040607910603284836,0.0036647645756602287,-0.10410095751285553,-0.0559985414147377,0.03364358842372894,-0.021172549575567245,-0.017914310097694397,-0.0405149832367897,0.10290428251028061,-0.006522678304463625,-0.021887971088290215,-0.06680430471897125,0.03427442908287048,-0.07511737197637558,-0.06343623250722885,-0.059822943061590195,0.018960824236273766,-0.006509172264486551,-0.11245889961719513,0.025587933138012886,0.08265117555856705,0.07546374201774597,0.07284273952245712,0.07595957070589066,0.009435432031750679,-0.05416078865528107,-0.012410180643200874,-0.028791792690753937,-0.03797880932688713,-0.049570467323064804,0.023289427161216736,-0.04351011663675308,0.04314063861966133,-0.024189583957195282,0.03766096755862236,0.028141317889094353,0.06548111885786057,-0.05778373405337334,0.0952349528670311,0.07324859499931335,0.01621042564511299,0.06640482693910599,0.04119430482387543,-0.07254520803689957],[-0.11235009133815765,-0.09366344660520554,-0.09468413889408112,0.05511362478137016,-0.02049114741384983,0.028946930542588234,-0.09406255930662155,0.10821329057216644,0.016120824962854385,0.020222853869199753,-0.08182135224342346,0.024349793791770935,0.12113600224256516,0.039161309599876404,-0.07911450415849686,0.06815389543771744,0.06812506169080734,-0.061551183462142944,-0.034410327672958374,0.02216961607336998,0.03305061534047127,0.05419565737247467,0.10310608893632889,-0.0008094573277048767,0.07246945053339005,-0.12229661643505096,-0.012148426845669746,-0.03621550276875496,0.025623111054301262,-0.018116362392902374,-0.07930203527212143,-0.023831184953451157,0.030845291912555695,0.12832391262054443,0.06070062145590782,-0.045724138617515564,0.06634367257356644,